[0.00418379,0.00420842,0.00428393,0.00441489,0.00460983,0.0048827,0.00525538,0.00576284,0.00646259,0.00743473,0.00470088,-0.00213357,-0.0071754,-0.00773137,-0.00800116,-0.00800116,0.00601827,0.0130742,0.0130742,0.0130742,0.0130742,0.0130742,0.0130742,0.0130742,0.0130742,0.0130742,0.0130742,0.0130742,0.0130742,0.0130742,0.00418379,0.00420842,0.00428393,0.00441489,0.00460983,0.0048827,0.00525538,0.00576284,0.00646259,0.00732627,0.00466194,-0.00213748,-0.00715351,-0.00770638,-0.00797463,-0.00797463,0.00446,0.0130742,0.0130742,0.0130742,0.0130742,0.0130742,0.0130742,0.0130742,0.0130742,0.0130742,0.0130742,0.0130742,0.0130742,0.0130742,0.00418379,0.00420842,0.00428393,0.00441489,0.00460983,0.0048827,0.00525538,0.00576284,0.00646259,0.00733116,0.00441487,-0.00164505,-0.00611499,-0.00661248,-0.00685388,-0.00685388,0.00550584,0.0130742,0.0130742,0.0130742,0.0130742,0.0130742,0.0130742,0.0130742,0.0130742,0.0130742,0.0130742,0.0130742,0.0130742,0.0130742,0.00418379,0.00420842,0.00428393,0.00441489,0.00460983,0.0048827,0.00492763,0.00481521,0.00487608,0.00488048,0.000987419,-0.0083523,-0.0152534,-0.0159138,-0.0162344,-0.0162344,-0.00273474,0.00720714,0.0130742,0.0130742,0.0130742,0.0130742,0.0130742,0.0130742,0.0130742,0.0130742,0.0130742,0.0130742,0.0130742,0.0130742,0.00418379,0.00420842,0.00428393,0.00441489,0.00460983,0.0048827,0.00476027,0.00352322,0.00192409,-0.000601523,-0.00830291,-0.0223114,-0.0326823,-0.0334942,-0.0338883,-0.0338883,-0.0174445,-0.00464193,0.0130742,0.0130742,0.0130742,0.0130742,0.0130742,0.0130742,0.0130742,0.0130742,0.0130742,0.0130742,0.0130742,0.0130742,0.00418379,0.00420842,0.00428393,0.00441489,0.00460983,0.0048827,0.00457272,0.00173699,-0.00185059,-0.00630967,-0.0184969,-0.0398318,-0.0556514,-0.0567823,-0.0573317,-0.0573317,-0.0344208,-0.0209024,0.0130742,0.0130742,0.0130742,0.0130742,0.0130742,0.0130742,0.0130742,0.0130742,0.0130742,0.0130742,0.0130742,0.0130742,0.00418379,0.00420842,0.00428393,0.00441489,0.00460983,0.0048827,0.00492836,0.00168182,-0.00272259,-0.00865954,-0.0237738,-0.0461792,-0.0627879,-0.0638948,-0.064432,-0.064432,-0.0587539,-0.0266566,0.0130742,0.0130742,0.0130742,0.0130742,0.0130742,0.0130742,0.0130742,0.0130742,0.0130742,0.0130742,0.0130742,0.0130742,0.00418379,0.00420842,0.00428393,0.00441489,0.00460983,0.0048827,0.00514235,0.0024271,-0.00276698,-0.0104527,-0.024696,-0.0481173,-0.0655027,-0.0666656,-0.0672295,-0.0672295,-0.0586552,-0.0293211,0.0130742,0.0130742,0.0130742,0.0130742,0.0130742,0.0130742,0.0130742,0.0130742,0.0130742,0.0130742,0.0130742,0.0130742,0.00418379,0.00420842,0.00428393,0.00441489,0.00460983,0.0048827,0.00525538,0.00364947,-0.00295796,-0.0111347,-0.0268393,-0.0505505,-0.0681309,-0.0692717,-0.0698256,-0.0698256,-0.0631519,-0.0131195,0.0130742,0.0130742,0.0130742,0.0130742,0.0130742,0.0130742,0.0130742,0.0130742,0.0130742,0.0130742,0.0130742,0.0130742,0.00418379,0.00420842,0.00428393,0.00441489,0.00460983,0.0048827,0.00525538,0.00498195,-0.00183473,-0.0104964,-0.0223239,-0.0398848,-0.05291,-0.0537103,-0.0540989,-0.0540989,-0.0519154,-0.000972404,0.0130742,0.0130742,0.0130742,0.0130742,0.0130742,0.0130742,0.0130742,0.0130742,0.0130742,0.0130742,0.0130742,0.0130742,0.00418379,0.00420842,0.00428393,0.00441489,0.00460983,0.0048827,0.00525538,0.00567648,0.00113758,-0.00772009,-0.019288,-0.037339,-0.0507203,-0.0516095,-0.0520415,-0.0520415,-0.0464204,0.0130742,0.0130742,0.0130742,0.0130742,0.0130742,0.0130742,0.0130742,0.0130742,0.0130742,0.0130742,0.0130742,0.0130742,0.0130742,0.00418379,0.00420842,0.00428393,0.00441489,0.00460983,0.0048827,0.00525538,0.00576284,0.00406767,-0.00188361,-0.00910008,-0.0192323,-0.0267398,-0.0272705,-0.0275281,-0.0275281,-0.0272705,0.0130742,0.0130742,0.0130742,0.0130742,0.0130742,0.0130742,0.0130742,0.0130742,0.0130742,0.0130742,0.0130742,0.0130742,0.0130742,0.00418379,0.00420842,0.00428393,0.00441489,0.00460983,0.0048827,0.00525538,0.00576284,0.00546746,0.000393584,-0.00722127,-0.0178472,-0.0257158,-0.0263147,-0.0266056,-0.0266056,-0.0263147,0.0130742,0.0130742,0.0130742,0.0130742,0.0130742,0.0130742,0.0130742,0.0130742,0.0130742,0.0130742,0.0130742,0.0130742,0.0130742,0.00418379,0.00420842,0.00428393,0.00441489,0.00460983,0.0048827,0.00525538,0.00576284,0.00593827,0.00147193,-0.0045391,-0.0128505,-0.0190028,-0.0194916,-0.0197288,-0.0197288,-0.0194916,0.0130742,0.0130742,0.0130742,0.0130742,0.0130742,0.0130742,0.0130742,0.0130742,0.0130742,0.0130742,0.0130742,0.0130742,0.0130742,0.00418379,0.00420842,0.00428393,0.00441489,0.00460983,0.0048827,0.00525538,0.00576284,0.00629324,0.00263825,-0.00382809,-0.0141934,-0.0218623,-0.0225054,-0.0228175,-0.0228175,-0.0154927,0.0130742,0.0130742,0.0130742,0.0130742,0.0130742,0.0130742,0.0130742,0.0130742,0.0130742,0.0130742,0.0130742,0.0130742,0.0130742,0.00418379,0.00420842,0.00428393,0.00441489,0.00460983,0.0048827,0.00525538,0.00576284,0.00646259,0.00323853,-0.00286531,-0.0112314,-0.0174209,-0.0179438,-0.0181978,-0.0181978,-0.0179438,0.0130742,0.0130742,0.0130742,0.0130742,0.0130742,0.0130742,0.0130742,0.0130742,0.0130742,0.0130742,0.0130742,0.0130742,0.0130742,0.00418379,0.00420842,0.00428393,0.00441489,0.00460983,0.0048827,0.00525538,0.00576284,0.00646259,0.00406639,-0.00316794,-0.0142331,-0.022418,-0.0231212,-0.0234626,-0.0234626,-0.0168636,0.0130742,0.0130742,0.0130742,0.0130742,0.0130742,0.0130742,0.0130742,0.0130742,0.0130742,0.0130742,0.0130742,0.0130742,0.0130742,0.00418379,0.00420842,0.00428393,0.00441489,0.00460983,0.0048827,0.00525538,0.00576284,0.00646259,0.00436094,-0.00370623,-0.0154367,-0.0241145,-0.0248536,-0.0252124,-0.0252124,-0.0216097,0.0130742,0.0130742,0.0130742,0.0130742,0.0130742,0.0130742,0.0130742,0.0130742,0.0130742,0.0130742,0.0130742,0.0130742,0.0130742,0.00418379,0.00420842,0.00428393,0.00441489,0.00460983,0.0048827,0.00525538,0.00576284,0.00646259,0.00487425,-0.00300238,-0.0138275,-0.0218344,-0.0225245,-0.022859,-0.022859,-0.0225245,0.0130742,0.0130742,0.0130742,0.0130742,0.0130742,0.0130742,0.0130742,0.0130742,0.0130742,0.0130742,0.0130742,0.0130742,0.0130742,0.00418379,0.00420842,0.00428393,0.00441489,0.00460983,0.0048827,0.00525538,0.00576284,0.00646259,0.00669858,0.00188098,-0.00323676,-0.00640664,-0.00672106,-0.00687367,-0.00687367,-0.010697,0.0130742,0.0130742,0.0130742,0.0130742,0.0130742,0.0130742,0.0130742,0.0130742,0.0130742,0.0130742,0.0130742,0.0130742,0.0130742,0.00418379,0.00420842,0.00428393,0.00441489,0.00460983,0.0048827,0.00525538,0.00576284,0.00646259,0.00745523,0.00551621,0.00464869,0.00506572,0.00502897,0.00501111,0.00501111,0.00956535,0.0130742,0.0130742,0.0130742,0.0130742,0.0130742,0.0130742,0.0130742,0.0130742,0.0130742,0.0130742,0.0130742,0.0130742,0.0130742,0.00418379,0.00420842,0.00428393,0.00441489,0.00460983,0.0048827,0.00525538,0.00576284,0.00646259,0.00745523,0.00917121,0.015099,0.0218311,0.0223637,0.0226341,0.0226341,0.0130742,0.0130742,0.0130742,0.0130742,0.0130742,0.0130742,0.0130742,0.0130742,0.0130742,0.0130742,0.0130742,0.0130742,0.0130742,0.0130742,0.00418379,0.00420842,0.00428393,0.00441489,0.00460983,0.0048827,0.00525538,0.00576284,0.00646259,0.00745523,0.009251,0.0173369,0.0266071,0.0274184,0.0278425,0.0278425,0.0130742,0.0130742,0.0130742,0.0130742,0.0130742,0.0130742,0.0130742,0.0130742,0.0130742,0.0130742,0.0130742,0.0130742,0.0130742,0.0130742,0.00418379,0.00420842,0.00428393,0.00441489,0.00460983,0.0048827,0.00525538,0.00576284,0.00646259,0.00745523,0.00894071,0.0141634,0.0228433,0.0237284,0.0241627,0.0241627,0.0130742,0.0130742,0.0130742,0.0130742,0.0130742,0.0130742,0.0130742,0.0130742,0.0130742,0.0130742,0.0130742,0.0130742,0.0130742,0.0130742,0.00418379,0.00420842,0.00428393,0.00441489,0.00460983,0.0048827,0.00525538,0.00254483,-0.00304524,-0.00916721,-0.0168267,-0.0272493,-0.0309632,-0.0307069,-0.0305667,-0.0305667,-0.0365428,-0.0257597,0.0130742,0.0130742,0.0130742,0.0130742,0.0130742,0.0130742,0.0130742,0.0130742,0.0130742,0.0130742,0.0130742,0.0130742,0.00418379,0.00420842,0.00428393,0.00441489,0.00460983,0.0048827,0.00381257,-0.00254058,-0.00962134,-0.0172249,-0.0268876,-0.0410483,-0.0493433,-0.0494647,-0.0494915,-0.0494915,-0.0520989,-0.0538228,0.0130742,0.0130742,0.0130742,0.0130742,0.0130742,0.0130742,0.0130742,0.0130742,0.0130742,0.0130742,0.0130742,0.0130742,0.00418379,0.00420842,0.00428393,0.00441489,0.00460983,0.00466612,-0.000139205,-0.00807514,-0.0163431,-0.0246113,-0.0350683,-0.0506733,-0.0614033,-0.0616262,-0.0617348,-0.0617348,-0.0627113,-0.0701086,-0.0203794,0.0130742,0.0130742,0.0130742,0.0130742,0.0130742,0.0130742,0.0130742,0.0130742,0.0130742,0.0130742,0.0130742,0.00418379,0.00420842,0.00428393,0.00441489,0.00460983,0.00254278,-0.00478259,-0.0136486,-0.0232421,-0.0311502,-0.0396002,-0.0520675,-0.0602479,-0.0601144,-0.0600495,-0.0600495,-0.0640448,-0.0879708,-0.0513195,0.0130742,0.0130742,0.0130742,0.0130742,0.0130742,0.0130742,0.0130742,0.0130742,0.0130742,0.0130742,0.0130742,0.00418379,0.00420842,0.00428393,0.00441489,0.00443923,-0.000954136,-0.0102867,-0.0199709,-0.0300836,-0.0378666,-0.0455946,-0.0536905,-0.0583783,-0.0578891,-0.0576523,-0.0576523,-0.0688196,-0.100806,-0.0766153,-0.00544854,0.0130742,0.0130742,0.0130742,0.0130742,0.0130742,0.0130742,0.0130742,0.0130742,0.0130742,0.0130742,0.00418379,0.00420842,0.00428393,0.00441489,0.00262483,-0.00575003,-0.0168735,-0.0291365,-0.0405442,-0.0493443,-0.0583355,-0.0629102,-0.0643978,-0.063401,-0.0629174,-0.0629174,-0.0869798,-0.137958,-0.107879,-0.0480333,0.0130742,0.0130742,0.0130742,0.0130742,0.0130742,0.0130742,0.0130742,0.0130742,0.0130742,0.0130742,0.00418379,0.00420842,0.00428393,0.00441489,0.000301045,-0.0100389,-0.0235112,-0.0364053,-0.0461762,-0.0537564,-0.0594451,-0.0592665,-0.0571399,-0.0557924,-0.0551382,-0.0551382,-0.0841641,-0.151312,-0.141108,-0.0769029,0.0130742,0.0130742,0.0130742,0.0130742,0.0130742,0.0130742,0.0130742,0.0130742,0.0130742,0.0130742,0.00418379,0.00420842,0.00428393,0.00441489,0.00264673,-0.00559876,-0.0170504,-0.0293959,-0.0407542,-0.0497956,-0.0587922,-0.0641806,-0.0661181,-0.0651507,-0.0646812,-0.0646812,-0.0886296,-0.137004,-0.105037,-0.0472324,0.0130742,0.0130742,0.0130742,0.0130742,0.0130742,0.0130742,0.0130742,0.0130742,0.0130742,0.0130742,0.00418379,0.00420842,0.00428393,0.00441489,0.00444474,-0.000760837,-0.0100826,-0.0203329,-0.0310829,-0.0394526,-0.0478742,-0.0566476,-0.0619108,-0.0614336,-0.0612028,-0.0612028,-0.0734985,-0.105365,-0.0733847,-0.00481881,0.0130742,0.0130742,0.0130742,0.0130742,0.0130742,0.0130742,0.0130742,0.0130742,0.0130742,0.0130742,0.00418379,0.00420842,0.00428393,0.00441489,0.00460983,0.00265931,-0.00435993,-0.0137348,-0.023902,-0.0322344,-0.0412707,-0.0548702,-0.0639931,-0.0639222,-0.0638871,-0.0638871,-0.0672566,-0.0918043,-0.0482604,0.0130742,0.0130742,0.0130742,0.0130742,0.0130742,0.0130742,0.0130742,0.0130742,0.0130742,0.0130742,0.0130742,0.00418379,0.00420842,0.00428393,0.00441489,0.00460983,0.0046757,0.000219373,-0.00796489,-0.0166971,-0.0254951,-0.0365208,-0.0529545,-0.0643038,-0.0645566,-0.0646799,-0.0646799,-0.0656388,-0.0731743,-0.0183451,0.0130742,0.0130742,0.0130742,0.0130742,0.0130742,0.0130742,0.0130742,0.0130742,0.0130742,0.0130742,0.0130742,0.00418379,0.00420842,0.00428393,0.00441489,0.00460983,0.0048827,0.00391328,-0.002287,-0.00981103,-0.0182635,-0.0290594,-0.0448428,-0.0540997,-0.0542546,-0.0542972,-0.0542972,-0.0571688,-0.0566123,0.0130742,0.0130742,0.0130742,0.0130742,0.0130742,0.0130742,0.0130742,0.0130742,0.0130742,0.0130742,0.0130742,0.0130742,0.00418379,0.00420842,0.00428393,0.00441489,0.00460983,0.0048827,0.00525538,0.00282549,-0.0021855,-0.007653,-0.0144726,-0.0236757,-0.026448,-0.0261082,-0.0259268,-0.0259268,-0.0319963,-0.0224585,0.0130742,0.0130742,0.0130742,0.0130742,0.0130742,0.0130742,0.0130742,0.0130742,0.0130742,0.0130742,0.0130742,0.0130742,0.00418379,0.00420842,0.00428393,0.00441489,0.00460983,0.0048827,0.00525538,0.00576284,0.00646259,0.00745523,0.00894023,0.0140862,0.0222332,0.0230304,0.0234217,0.0234217,0.0130742,0.0130742,0.0130742,0.0130742,0.0130742,0.0130742,0.0130742,0.0130742,0.0130742,0.0130742,0.0130742,0.0130742,0.0130742,0.0130742,0.00418379,0.00420842,0.00428393,0.00441489,0.00460983,0.0048827,0.00525538,0.00576284,0.00646259,0.00745523,0.00924759,0.0165884,0.0253247,0.0260865,0.0264986,0.0264986,0.0130742,0.0130742,0.0130742,0.0130742,0.0130742,0.0130742,0.0130742,0.0130742,0.0130742,0.0130742,0.0130742,0.0130742,0.0130742,0.0130742,0.00418379,0.00420842,0.00428393,0.00441489,0.00460983,0.0048827,0.00525538,0.00576284,0.00646259,0.00745523,0.00864607,0.0137503,0.0197759,0.020233,0.0204548,0.0204548,0.0130742,0.0130742,0.0130742,0.0130742,0.0130742,0.0130742,0.0130742,0.0130742,0.0130742,0.0130742,0.0130742,0.0130742,0.0130742,0.0130742,0.00418379,0.00420842,0.00428393,0.00441489,0.00460983,0.0048827,0.00525538,0.00576284,0.00646259,0.00745523,0.00626326,0.00644628,0.00771563,0.00774625,0.00776115,0.00776115,0.00913823,0.0130742,0.0130742,0.0130742,0.0130742,0.0130742,0.0130742,0.0130742,0.0130742,0.0130742,0.0130742,0.0130742,0.0130742,0.0130742,0.00418379,0.00420842,0.00428393,0.00441489,0.00460983,0.0048827,0.00525538,0.00576284,0.00646259,0.00686557,0.00297916,-0.00170751,-0.00496369,-0.00531664,-0.00548794,-0.00548794,-0.00674027,0.0130742,0.0130742,0.0130742,0.0130742,0.0130742,0.0130742,0.0130742,0.0130742,0.0130742,0.0130742,0.0130742,0.0130742,0.0130742,0.00418379,0.00420842,0.00428393,0.00441489,0.00460983,0.0048827,0.00525538,0.00576284,0.00646259,0.00530916,-0.00173324,-0.0113836,-0.0185197,-0.0191518,-0.0194586,-0.0194586,-0.0191518,0.0130742,0.0130742,0.0130742,0.0130742,0.0130742,0.0130742,0.0130742,0.0130742,0.0130742,0.0130742,0.0130742,0.0130742,0.0130742,0.00418379,0.00420842,0.00428393,0.00441489,0.00460983,0.0048827,0.00525538,0.00576284,0.00646259,0.00402238,-0.00332395,-0.0138909,-0.0217077,-0.0223738,-0.0226973,-0.0226973,-0.0187349,0.0130742,0.0130742,0.0130742,0.0130742,0.0130742,0.0130742,0.0130742,0.0130742,0.0130742,0.0130742,0.0130742,0.0130742,0.0130742,0.00418379,0.00420842,0.00428393,0.00441489,0.00460983,0.0048827,0.00525538,0.00576284,0.00646259,0.00382284,-0.00415437,-0.0164395,-0.025528,-0.0262971,-0.0266705,-0.0266705,-0.0190814,0.0130742,0.0130742,0.0130742,0.0130742,0.0130742,0.0130742,0.0130742,0.0130742,0.0130742,0.0130742,0.0130742,0.0130742,0.0130742,0.00418379,0.00420842,0.00428393,0.00441489,0.00460983,0.0048827,0.00525538,0.00576284,0.00646259,0.00298618,-0.00360144,-0.0126522,-0.0193489,-0.0199058,-0.0201759,-0.0201759,-0.0199058,0.0130742,0.0130742,0.0130742,0.0130742,0.0130742,0.0130742,0.0130742,0.0130742,0.0130742,0.0130742,0.0130742,0.0130742,0.0130742,0.00418379,0.00420842,0.00428393,0.00441489,0.00460983,0.0048827,0.00525538,0.00576284,0.00628594,0.0024564,-0.004355,-0.015328,-0.0234471,-0.0241224,-0.0244501,-0.0244501,-0.0165424,0.0130742,0.0130742,0.0130742,0.0130742,0.0130742,0.0130742,0.0130742,0.0130742,0.0130742,0.0130742,0.0130742,0.0130742,0.0130742,0.00418379,0.00420842,0.00428393,0.00441489,0.00460983,0.0048827,0.00525538,0.00576284,0.00592151,0.00135326,-0.00478016,-0.0132671,-0.0195494,-0.0200459,-0.0202869,-0.0202869,-0.0200459,0.0130742,0.0130742,0.0130742,0.0130742,0.0130742,0.0130742,0.0130742,0.0130742,0.0130742,0.0130742,0.0130742,0.0130742,0.0130742,0.00418379,0.00420842,0.00428393,0.00441489,0.00460983,0.0048827,0.00525538,0.00576284,0.00545954,0.000428665,-0.0071876,-0.0178152,-0.0256848,-0.0262846,-0.0265757,-0.0265757,-0.0262846,0.0130742,0.0130742,0.0130742,0.0130742,0.0130742,0.0130742,0.0130742,0.0130742,0.0130742,0.0130742,0.0130742,0.0130742,0.0130742,0.00418379,0.00420842,0.00428393,0.00441489,0.00460983,0.0048827,0.00525538,0.00576284,0.0041024,-0.00169307,-0.00871371,-0.0185651,-0.0258641,-0.0263827,-0.0266342,-0.0266342,-0.0263827,0.0130742,0.0130742,0.0130742,0.0130742,0.0130742,0.0130742,0.0130742,0.0130742,0.0130742,0.0130742,0.0130742,0.0130742,0.0130742,0.00418379,0.00420842,0.00428393,0.00441489,0.00460983,0.0048827,0.00525538,0.00528313,8.71387e-05,-0.00934028,-0.0216978,-0.041091,-0.0554687,-0.0564065,-0.0568613,-0.0568613,-0.0507402,0.00482657,0.0130742,0.0130742,0.0130742,0.0130742,0.0130742,0.0130742,0.0130742,0.0130742,0.0130742,0.0130742,0.0130742,0.0130742,0.00418379,0.00420842,0.00428393,0.00441489,0.00460983,0.0048827,0.00525538,0.00425245,-0.00297706,-0.0120561,-0.0245748,-0.0432425,-0.0570893,-0.0579248,-0.05833,-0.05833,-0.0559139,-0.00779267,0.0130742,0.0130742,0.0130742,0.0130742,0.0130742,0.0130742,0.0130742,0.0130742,0.0130742,0.0130742,0.0130742,0.0130742,0.00418379,0.00420842,0.00428393,0.00441489,0.00460983,0.0048827,0.00511465,0.00275141,-0.00424465,-0.0129007,-0.0280418,-0.0509736,-0.0679799,-0.0690454,-0.0695624,-0.0695624,-0.0621088,-0.0188655,0.0130742,0.0130742,0.0130742,0.0130742,0.0130742,0.0130742,0.0130742,0.0130742,0.0130742,0.0130742,0.0130742,0.0130742,0.00418379,0.00420842,0.00428393,0.00441489,0.00460983,0.0048827,0.00475783,0.00142966,-0.00419113,-0.0118193,-0.0256618,-0.0488537,-0.0660741,-0.067204,-0.0677522,-0.0677522,-0.0585131,-0.0339802,0.0130742,0.0130742,0.0130742,0.0130742,0.0130742,0.0130742,0.0130742,0.0130742,0.0130742,0.0130742,0.0130742,0.0130742,0.00418379,0.00420842,0.00428393,0.00441489,0.00460983,0.0048827,0.00438354,0.000603421,-0.00426299,-0.0105271,-0.0253637,-0.0475731,-0.0640402,-0.0651047,-0.0656215,-0.0656215,-0.0593763,-0.0315751,0.0130742,0.0130742,0.0130742,0.0130742,0.0130742,0.0130742,0.0130742,0.0130742,0.0130742,0.0130742,0.0130742,0.0130742,0.00418379,0.00420842,0.00428393,0.00441489,0.00460983,0.0048827,0.00394167,0.000554923,-0.00353545,-0.00861877,-0.0207956,-0.0420427,-0.0578032,-0.0588866,-0.0594121,-0.0594121,-0.0404878,-0.0263298,0.0130742,0.0130742,0.0130742,0.0130742,0.0130742,0.0130742,0.0130742,0.0130742,0.0130742,0.0130742,0.0130742,0.0130742,0.00418379,0.00420842,0.00428393,0.00441489,0.00460983,0.0048827,0.00482264,0.00307785,0.000705303,-0.00262396,-0.0117012,-0.0279467,-0.0399781,-0.0408815,-0.0413204,-0.0413204,-0.0236451,-0.0109452,0.0130742,0.0130742,0.0130742,0.0130742,0.0130742,0.0130742,0.0130742,0.0130742,0.0130742,0.0130742,0.0130742,0.0130742,0.00418379,0.00420842,0.00428393,0.00441489,0.00460983,0.0048827,0.00496322,0.00491805,0.00504826,0.00512355,0.00108865,-0.00871852,-0.0159648,-0.0166592,-0.0169962,-0.0169962,-0.00261759,0.00784387,0.0130742,0.0130742,0.0130742,0.0130742,0.0130742,0.0130742,0.0130742,0.0130742,0.0130742,0.0130742,0.0130742,0.0130742,0.00418379,0.00420842,0.00428393,0.00441489,0.00460983,0.0048827,0.00525538,0.00576284,0.00646259,0.00732703,0.00421497,-0.00219842,-0.00693001,-0.00744816,-0.00769961,-0.00769961,0.00513887,0.0130742,0.0130742,0.0130742,0.0130742,0.0130742,0.0130742,0.0130742,0.0130742,0.0130742,0.0130742,0.0130742,0.0130742,0.0130742,0.00418379,0.00420842,0.00428393,0.00441489,0.00460983,0.0048827,0.00525538,0.00576284,0.00646259,0.00731879,0.00453028,-0.00244981,-0.00759962,-0.00816249,-0.00843562,-0.00843562,0.00418039,0.0130742,0.0130742,0.0130742,0.0130742,0.0130742,0.0130742,0.0130742,0.0130742,0.0130742,0.0130742,0.0130742,0.0130742,0.0130742,]