[-0.00295222,-0.0029696,-0.00302288,-0.00311529,-0.00325285,-0.00344539,-0.00370837,-0.00406645,-0.00456021,-0.00525617,-0.00528443,-0.00467328,-0.00423238,-0.00409382,-0.00402658,-0.00402658,-0.00768897,-0.00922571,-0.00922571,-0.00922571,-0.00922571,-0.00922571,-0.00922571,-0.00922571,-0.00922571,-0.00922571,-0.00922571,-0.00922571,-0.00922571,-0.00922571,-0.00295222,-0.0029696,-0.00302288,-0.00311529,-0.00325285,-0.00344539,-0.00370837,-0.00406645,-0.00456021,-0.00522645,-0.0052414,-0.00462834,-0.00418598,-0.0040481,-0.00398117,-0.00398117,-0.00710097,-0.00922571,-0.00922571,-0.00922571,-0.00922571,-0.00922571,-0.00922571,-0.00922571,-0.00922571,-0.00922571,-0.00922571,-0.00922571,-0.00922571,-0.00922571,-0.00295222,-0.0029696,-0.00302288,-0.00311529,-0.00325285,-0.00344539,-0.00370837,-0.00406645,-0.00456021,-0.00522817,-0.00509202,-0.00449888,-0.00407087,-0.0039371,-0.00387218,-0.00387218,-0.0072107,-0.00922571,-0.00922571,-0.00922571,-0.00922571,-0.00922571,-0.00922571,-0.00922571,-0.00922571,-0.00922571,-0.00922571,-0.00922571,-0.00922571,-0.00922571,-0.00295222,-0.0029696,-0.00302288,-0.00311529,-0.00325285,-0.00344539,-0.00356694,-0.00365755,-0.00387566,-0.0041903,-0.00351474,-0.00143964,8.69066e-05,0.000293837,0.000394263,0.000394263,-0.00380828,-0.00669414,-0.00922571,-0.00922571,-0.00922571,-0.00922571,-0.00922571,-0.00922571,-0.00922571,-0.00922571,-0.00922571,-0.00922571,-0.00922571,-0.00922571,-0.00295222,-0.0029696,-0.00302288,-0.00311529,-0.00325285,-0.00344539,-0.00350233,-0.00315566,-0.00272704,-0.00204062,0.000238538,0.00433822,0.00736877,0.00764647,0.00778125,0.00778125,0.00244663,-0.00207602,-0.00922571,-0.00922571,-0.00922571,-0.00922571,-0.00922571,-0.00922571,-0.00922571,-0.00922571,-0.00922571,-0.00922571,-0.00922571,-0.00922571,-0.00295222,-0.0029696,-0.00302288,-0.00311529,-0.00325285,-0.00344539,-0.00343479,-0.00249145,-0.00134017,3.49454e-05,0.00409598,0.0111313,0.0163429,0.0167525,0.0169511,0.0169511,0.00872685,0.0039571,-0.00922571,-0.00922571,-0.00922571,-0.00922571,-0.00922571,-0.00922571,-0.00922571,-0.00922571,-0.00922571,-0.00922571,-0.00922571,-0.00922571,-0.00295222,-0.0029696,-0.00302288,-0.00311529,-0.00325285,-0.00344539,-0.0035795,-0.00249496,-0.00107406,0.000789473,0.00592773,0.0135098,0.0191261,0.0195393,0.0197399,0.0197399,0.0175448,0.00587768,-0.00922571,-0.00922571,-0.00922571,-0.00922571,-0.00922571,-0.00922571,-0.00922571,-0.00922571,-0.00922571,-0.00922571,-0.00922571,-0.00922571,-0.00295222,-0.0029696,-0.00302288,-0.00311529,-0.00325285,-0.00344539,-0.00366333,-0.00279193,-0.00112374,0.00133685,0.00612527,0.0139771,0.0198011,0.0202304,0.0204386,0.0204386,0.0173712,0.00666938,-0.00922571,-0.00922571,-0.00922571,-0.00922571,-0.00922571,-0.00922571,-0.00922571,-0.00922571,-0.00922571,-0.00922571,-0.00922571,-0.00922571,-0.00295222,-0.0029696,-0.00302288,-0.00311529,-0.00325285,-0.00344539,-0.00370837,-0.00326666,-0.00122185,0.00124079,0.0062403,0.0137772,0.019361,0.0197653,0.0199615,0.0199615,0.0174253,0.000918231,-0.00922571,-0.00922571,-0.00922571,-0.00922571,-0.00922571,-0.00922571,-0.00922571,-0.00922571,-0.00922571,-0.00922571,-0.00922571,-0.00922571,-0.00295222,-0.0029696,-0.00302288,-0.00311529,-0.00325285,-0.00344539,-0.00370837,-0.00376762,-0.00171311,0.000845828,0.00438149,0.00959305,0.0134539,0.0137323,0.0138675,0.0138675,0.0130327,-0.00383754,-0.00922571,-0.00922571,-0.00922571,-0.00922571,-0.00922571,-0.00922571,-0.00922571,-0.00922571,-0.00922571,-0.00922571,-0.00922571,-0.00922571,-0.00295222,-0.0029696,-0.00302288,-0.00311529,-0.00325285,-0.00344539,-0.00370837,-0.00403233,-0.00281312,-0.000471217,0.00250663,0.00725593,0.0107713,0.0110522,0.0111885,0.0111885,0.00925525,-0.00922571,-0.00922571,-0.00922571,-0.00922571,-0.00922571,-0.00922571,-0.00922571,-0.00922571,-0.00922571,-0.00922571,-0.00922571,-0.00922571,-0.00922571,-0.00295222,-0.0029696,-0.00302288,-0.00311529,-0.00325285,-0.00344539,-0.00370837,-0.00406645,-0.0039561,-0.00282313,-0.0015687,5.96924e-05,0.00126004,0.0014007,0.00146896,0.00146896,0.0014007,-0.00922571,-0.00922571,-0.00922571,-0.00922571,-0.00922571,-0.00922571,-0.00922571,-0.00922571,-0.00922571,-0.00922571,-0.00922571,-0.00922571,-0.00922571,-0.00295222,-0.0029696,-0.00302288,-0.00311529,-0.00325285,-0.00344539,-0.00370837,-0.00406645,-0.00431976,-0.00350169,-0.00224937,-0.000643408,0.000539013,0.000690538,0.00076409,0.00076409,0.000690538,-0.00922571,-0.00922571,-0.00922571,-0.00922571,-0.00922571,-0.00922571,-0.00922571,-0.00922571,-0.00922571,-0.00922571,-0.00922571,-0.00922571,-0.00922571,-0.00295222,-0.0029696,-0.00302288,-0.00311529,-0.00325285,-0.00344539,-0.00370837,-0.00406645,-0.00442701,-0.00374654,-0.00287002,-0.00180705,-0.00102726,-0.000901736,-0.000840825,-0.000840825,-0.000901736,-0.00922571,-0.00922571,-0.00922571,-0.00922571,-0.00922571,-0.00922571,-0.00922571,-0.00922571,-0.00922571,-0.00922571,-0.00922571,-0.00922571,-0.00922571,-0.00295222,-0.0029696,-0.00302288,-0.00311529,-0.00325285,-0.00344539,-0.00370837,-0.00406645,-0.00451186,-0.00398798,-0.00282032,-0.000841256,0.000615741,0.000803366,0.000894435,0.000894435,-0.00174619,-0.00922571,-0.00922571,-0.00922571,-0.00922571,-0.00922571,-0.00922571,-0.00922571,-0.00922571,-0.00922571,-0.00922571,-0.00922571,-0.00922571,-0.00922571,-0.00295222,-0.0029696,-0.00302288,-0.00311529,-0.00325285,-0.00344539,-0.00370837,-0.00406645,-0.00456021,-0.00395007,-0.00266291,-0.00103644,0.000160264,0.000320756,0.000398651,0.000398651,0.000320756,-0.00922571,-0.00922571,-0.00922571,-0.00922571,-0.00922571,-0.00922571,-0.00922571,-0.00922571,-0.00922571,-0.00922571,-0.00922571,-0.00922571,-0.00922571,-0.00295222,-0.0029696,-0.00302288,-0.00311529,-0.00325285,-0.00344539,-0.00370837,-0.00406645,-0.00456021,-0.00414257,-0.00225401,0.000655778,0.00280179,0.0030431,0.00316024,0.00316024,0.00058093,-0.00922571,-0.00922571,-0.00922571,-0.00922571,-0.00922571,-0.00922571,-0.00922571,-0.00922571,-0.00922571,-0.00922571,-0.00922571,-0.00922571,-0.00922571,-0.00295222,-0.0029696,-0.00302288,-0.00311529,-0.00325285,-0.00344539,-0.00370837,-0.00406645,-0.00456021,-0.0041233,-0.00164731,0.0019001,0.00451864,0.00479273,0.00492574,0.00492574,0.00342983,-0.00922571,-0.00922571,-0.00922571,-0.00922571,-0.00922571,-0.00922571,-0.00922571,-0.00922571,-0.00922571,-0.00922571,-0.00922571,-0.00922571,-0.00922571,-0.00295222,-0.0029696,-0.00302288,-0.00311529,-0.00325285,-0.00344539,-0.00370837,-0.00406645,-0.00456021,-0.00427241,-0.00182155,0.00143282,0.00383447,0.00409155,0.00421634,0.00421634,0.00409155,-0.00922571,-0.00922571,-0.00922571,-0.00922571,-0.00922571,-0.00922571,-0.00922571,-0.00922571,-0.00922571,-0.00922571,-0.00922571,-0.00922571,-0.00922571,-0.00295222,-0.0029696,-0.00302288,-0.00311529,-0.00325285,-0.00344539,-0.00370837,-0.00406645,-0.00456021,-0.00496351,-0.00180743,0.014194,0.028787,0.0302479,0.0309568,0.0309568,-0.000122511,-0.00922571,-0.00922571,-0.00922571,-0.00922571,-0.00922571,-0.00922571,-0.00922571,-0.00922571,-0.00922571,-0.00922571,-0.00922571,-0.00922571,-0.00922571,-0.00295222,-0.0029696,-0.00302288,-0.00311529,-0.00325285,-0.00344539,-0.00370837,-0.00406645,-0.00456021,-0.00526065,-0.000369613,0.0249474,0.0480116,0.0502742,0.0513717,0.0513717,-0.00775151,-0.00922571,-0.00922571,-0.00922571,-0.00922571,-0.00922571,-0.00922571,-0.00922571,-0.00922571,-0.00922571,-0.00922571,-0.00922571,-0.00922571,-0.00922571,-0.00295222,-0.0029696,-0.00302288,-0.00311529,-0.00325285,-0.00344539,-0.00370837,-0.00406645,-0.00456021,-0.00526065,0.00217865,0.0343277,0.0677909,0.070959,0.0723951,0.0723951,-0.00922571,-0.00922571,-0.00922571,-0.00922571,-0.00922571,-0.00922571,-0.00922571,-0.00922571,-0.00922571,-0.00922571,-0.00922571,-0.00922571,-0.00922571,-0.00922571,-0.00295222,-0.0029696,-0.00302288,-0.00311529,-0.00325285,-0.00344539,-0.00370837,-0.00406645,-0.00456021,-0.00526065,-0.00335715,0.0293248,0.0553476,0.0575631,0.0583901,0.0583901,-0.00922571,-0.00922571,-0.00922571,-0.00922571,-0.00922571,-0.00922571,-0.00922571,-0.00922571,-0.00922571,-0.00922571,-0.00922571,-0.00922571,-0.00922571,-0.00922571,-0.00295222,-0.0029696,-0.00302288,-0.00311529,-0.00325285,-0.00344539,-0.00370837,-0.00406645,-0.00456021,-0.00526065,-0.0062453,0.00537919,0.0100288,0.00954364,0.00926989,0.00926989,-0.00922571,-0.00922571,-0.00922571,-0.00922571,-0.00922571,-0.00922571,-0.00922571,-0.00922571,-0.00922571,-0.00922571,-0.00922571,-0.00922571,-0.00922571,-0.00922571,-0.00295222,-0.0029696,-0.00302288,-0.00311529,-0.00325285,-0.00344539,-0.00370837,-0.00291078,-0.00113233,0.000737174,0.00299509,0.00796759,0.00854668,0.0072115,0.00643233,0.00643233,0.00868909,0.00460416,-0.00922571,-0.00922571,-0.00922571,-0.00922571,-0.00922571,-0.00922571,-0.00922571,-0.00922571,-0.00922571,-0.00922571,-0.00922571,-0.00922571,-0.00295222,-0.0029696,-0.00302288,-0.00311529,-0.00325285,-0.00344539,-0.00322627,-0.00126493,0.000866009,0.00445319,0.00918298,0.0157638,0.0179959,0.017791,0.0174175,0.0174175,0.0212852,0.0133424,-0.00922571,-0.00922571,-0.00922571,-0.00922571,-0.00922571,-0.00922571,-0.00922571,-0.00922571,-0.00922571,-0.00922571,-0.00922571,-0.00922571,-0.00295222,-0.0029696,-0.00302288,-0.00311529,-0.00325285,-0.00338202,-0.00200452,0.00035178,0.00276152,0.00988036,0.0201129,0.0347832,0.0471535,0.0477901,0.0480999,0.0480999,0.0463094,0.0173409,0.00121551,-0.00922571,-0.00922571,-0.00922571,-0.00922571,-0.00922571,-0.00922571,-0.00922571,-0.00922571,-0.00922571,-0.00922571,-0.00922571,-0.00295222,-0.0029696,-0.00302288,-0.00311529,-0.00325285,-0.00277269,-0.000646642,0.00193526,0.00497882,0.0185028,0.0460858,0.0855275,0.115994,0.118259,0.119358,0.119358,0.105928,0.0221306,0.00962563,-0.00922571,-0.00922571,-0.00922571,-0.00922571,-0.00922571,-0.00922571,-0.00922571,-0.00922571,-0.00922571,-0.00922571,-0.00922571,-0.00295222,-0.0029696,-0.00302288,-0.00311529,-0.00321008,-0.00181764,0.000927888,0.00377435,0.00904396,0.0296658,0.07042,0.104034,0.120181,0.120302,0.120361,0.120361,0.158841,0.0261896,0.0170975,-0.00446189,-0.00922571,-0.00922571,-0.00922571,-0.00922571,-0.00922571,-0.00922571,-0.00922571,-0.00922571,-0.00922571,-0.00922571,-0.00295222,-0.0029696,-0.00302288,-0.00311529,-0.00274685,-0.000442319,0.00299009,0.00683135,0.0172978,0.0461621,0.100088,0.125549,0.130286,0.128455,0.127568,0.127568,0.219901,0.0397054,0.02826,0.00690123,-0.00922571,-0.00922571,-0.00922571,-0.00922571,-0.00922571,-0.00922571,-0.00922571,-0.00922571,-0.00922571,-0.00922571,-0.00295222,-0.0029696,-0.00302288,-0.00311529,-0.00211035,0.000951437,0.00534199,0.00987399,0.0247179,0.0600606,0.125712,0.141252,0.136184,0.132972,0.131413,0.131413,0.296146,0.0449455,0.0412302,0.0166135,-0.00922571,-0.00922571,-0.00922571,-0.00922571,-0.00922571,-0.00922571,-0.00922571,-0.00922571,-0.00922571,-0.00922571,-0.00295222,-0.0029696,-0.00302288,-0.00311529,-0.00275041,-0.000487823,0.00304738,0.0069037,0.0169101,0.0442831,0.0993711,0.126602,0.129429,0.127356,0.126348,0.126348,0.210062,0.0392296,0.0270841,0.0067565,-0.00922571,-0.00922571,-0.00922571,-0.00922571,-0.00922571,-0.00922571,-0.00922571,-0.00922571,-0.00922571,-0.00922571,-0.00295222,-0.0029696,-0.00302288,-0.00311529,-0.00321103,-0.00186245,0.000877431,0.00392068,0.00920858,0.0297662,0.0712391,0.113143,0.135993,0.136743,0.137107,0.137107,0.156263,0.0278023,0.0160809,-0.00456916,-0.00922571,-0.00922571,-0.00922571,-0.00922571,-0.00922571,-0.00922571,-0.00922571,-0.00922571,-0.00922571,-0.00922571,-0.00295222,-0.0029696,-0.00302288,-0.00311529,-0.00325285,-0.00279615,-0.000760176,0.00201031,0.00505146,0.0184559,0.0452101,0.0856746,0.117569,0.119998,0.121177,0.121177,0.103635,0.0235931,0.0088394,-0.00922571,-0.00922571,-0.00922571,-0.00922571,-0.00922571,-0.00922571,-0.00922571,-0.00922571,-0.00922571,-0.00922571,-0.00922571,-0.00295222,-0.0029696,-0.00302288,-0.00311529,-0.00325285,-0.00338354,-0.0021045,0.0003624,0.00292113,0.00963282,0.0195588,0.0337924,0.0458371,0.0464607,0.0467635,0.0467635,0.0449743,0.0186682,0.000736851,-0.00922571,-0.00922571,-0.00922571,-0.00922571,-0.00922571,-0.00922571,-0.00922571,-0.00922571,-0.00922571,-0.00922571,-0.00922571,-0.00295222,-0.0029696,-0.00302288,-0.00311529,-0.00325285,-0.00344539,-0.00325433,-0.00132638,0.000994676,0.00352654,0.00668388,0.0110382,0.0100447,0.00948294,0.00893707,0.00893707,0.0147957,0.0146051,-0.00922571,-0.00922571,-0.00922571,-0.00922571,-0.00922571,-0.00922571,-0.00922571,-0.00922571,-0.00922571,-0.00922571,-0.00922571,-0.00922571,-0.00295222,-0.0029696,-0.00302288,-0.00311529,-0.00325285,-0.00344539,-0.00370837,-0.00300765,-0.00143569,0.000200533,0.00215925,0.00674741,0.00678533,0.00509643,0.00414242,0.00414242,0.00707236,0.00344118,-0.00922571,-0.00922571,-0.00922571,-0.00922571,-0.00922571,-0.00922571,-0.00922571,-0.00922571,-0.00922571,-0.00922571,-0.00922571,-0.00922571,-0.00295222,-0.0029696,-0.00302288,-0.00311529,-0.00325285,-0.00344539,-0.00370837,-0.00406645,-0.00456021,-0.00526065,-0.00624444,0.00815207,0.0176948,0.017954,0.0180403,0.0180403,-0.00922571,-0.00922571,-0.00922571,-0.00922571,-0.00922571,-0.00922571,-0.00922571,-0.00922571,-0.00922571,-0.00922571,-0.00922571,-0.00922571,-0.00922571,-0.00922571,-0.00295222,-0.0029696,-0.00302288,-0.00311529,-0.00325285,-0.00344539,-0.00370837,-0.00406645,-0.00456021,-0.00526065,-0.00319663,0.024698,0.0521227,0.0546023,0.0554549,0.0554549,-0.00922571,-0.00922571,-0.00922571,-0.00922571,-0.00922571,-0.00922571,-0.00922571,-0.00922571,-0.00922571,-0.00922571,-0.00922571,-0.00922571,-0.00922571,-0.00922571,-0.00295222,-0.0029696,-0.00302288,-0.00311529,-0.00325285,-0.00344539,-0.00370837,-0.00406645,-0.00456021,-0.00526065,-0.00225914,0.0231014,0.0509974,0.0538649,0.0552563,0.0552563,-0.00922571,-0.00922571,-0.00922571,-0.00922571,-0.00922571,-0.00922571,-0.00922571,-0.00922571,-0.00922571,-0.00922571,-0.00922571,-0.00922571,-0.00922571,-0.00922571,-0.00295222,-0.0029696,-0.00302288,-0.00311529,-0.00325285,-0.00344539,-0.00370837,-0.00406645,-0.00456021,-0.00526065,-0.0041236,0.0126589,0.029237,0.0309606,0.0317969,0.0317969,-0.00752739,-0.00922571,-0.00922571,-0.00922571,-0.00922571,-0.00922571,-0.00922571,-0.00922571,-0.00922571,-0.00922571,-0.00922571,-0.00922571,-0.00922571,-0.00922571,-0.00295222,-0.0029696,-0.00302288,-0.00311529,-0.00325285,-0.00344539,-0.00370837,-0.00406645,-0.00456021,-0.00501844,-0.00396445,0.00258757,0.0089073,0.00960572,0.00994471,0.00994471,-0.00147715,-0.00922571,-0.00922571,-0.00922571,-0.00922571,-0.00922571,-0.00922571,-0.00922571,-0.00922571,-0.00922571,-0.00922571,-0.00922571,-0.00922571,-0.00922571,-0.00295222,-0.0029696,-0.00302288,-0.00311529,-0.00325285,-0.00344539,-0.00370837,-0.00406645,-0.00456021,-0.00442238,-0.00227497,0.000551988,0.0026368,0.00287278,0.00298731,0.00298731,0.00287278,-0.00922571,-0.00922571,-0.00922571,-0.00922571,-0.00922571,-0.00922571,-0.00922571,-0.00922571,-0.00922571,-0.00922571,-0.00922571,-0.00922571,-0.00922571,-0.00295222,-0.0029696,-0.00302288,-0.00311529,-0.00325285,-0.00344539,-0.00370837,-0.00406645,-0.00456021,-0.00400713,-0.00180643,0.00130719,0.00360485,0.00385199,0.00397196,0.00397196,0.00228195,-0.00922571,-0.00922571,-0.00922571,-0.00922571,-0.00922571,-0.00922571,-0.00922571,-0.00922571,-0.00922571,-0.00922571,-0.00922571,-0.00922571,-0.00922571,-0.00295222,-0.0029696,-0.00302288,-0.00311529,-0.00325285,-0.00344539,-0.00370837,-0.00406645,-0.00456021,-0.00408032,-0.0019685,0.00132604,0.00375711,0.00401965,0.00414705,0.00414705,0.00117159,-0.00922571,-0.00922571,-0.00922571,-0.00922571,-0.00922571,-0.00922571,-0.00922571,-0.00922571,-0.00922571,-0.00922571,-0.00922571,-0.00922571,-0.00922571,-0.00295222,-0.0029696,-0.00302288,-0.00311529,-0.00325285,-0.00344539,-0.00370837,-0.00406645,-0.00456021,-0.00389872,-0.0025074,-0.000733721,0.000572118,0.000739881,0.000821322,0.000821322,0.000739881,-0.00922571,-0.00922571,-0.00922571,-0.00922571,-0.00922571,-0.00922571,-0.00922571,-0.00922571,-0.00922571,-0.00922571,-0.00922571,-0.00922571,-0.00922571,-0.00295222,-0.0029696,-0.00302288,-0.00311529,-0.00325285,-0.00344539,-0.00370837,-0.00406645,-0.00451085,-0.00396129,-0.00272768,-0.000626488,0.00092097,0.00111528,0.00120959,0.00120959,-0.00158897,-0.00922571,-0.00922571,-0.00922571,-0.00922571,-0.00922571,-0.00922571,-0.00922571,-0.00922571,-0.00922571,-0.00922571,-0.00922571,-0.00922571,-0.00922571,-0.00295222,-0.0029696,-0.00302288,-0.00311529,-0.00325285,-0.00344539,-0.00370837,-0.00406645,-0.00442525,-0.00373151,-0.00283834,-0.00175152,-0.00095405,-0.000827466,-0.000766019,-0.000766019,-0.000827466,-0.00922571,-0.00922571,-0.00922571,-0.00922571,-0.00922571,-0.00922571,-0.00922571,-0.00922571,-0.00922571,-0.00922571,-0.00922571,-0.00922571,-0.00922571,-0.00295222,-0.0029696,-0.00302288,-0.00311529,-0.00325285,-0.00344539,-0.00370837,-0.00406645,-0.0043189,-0.00350557,-0.00225313,-0.000646987,0.000535548,0.000687159,0.000760758,0.000760758,0.000687159,-0.00922571,-0.00922571,-0.00922571,-0.00922571,-0.00922571,-0.00922571,-0.00922571,-0.00922571,-0.00922571,-0.00922571,-0.00922571,-0.00922571,-0.00922571,-0.00295222,-0.0029696,-0.00302288,-0.00311529,-0.00325285,-0.00344539,-0.00370837,-0.00406645,-0.00396179,-0.00285376,-0.00163064,-4.71529e-05,0.00111988,0.00125857,0.00132588,0.00132588,0.00125857,-0.00922571,-0.00922571,-0.00922571,-0.00922571,-0.00922571,-0.00922571,-0.00922571,-0.00922571,-0.00922571,-0.00922571,-0.00922571,-0.00922571,-0.00922571,-0.00295222,-0.0029696,-0.00302288,-0.00311529,-0.00325285,-0.00344539,-0.00370837,-0.00388823,-0.00240395,0.00019522,0.00351975,0.00886374,0.0128206,0.013124,0.0132711,0.0132711,0.0111281,-0.00619818,-0.00922571,-0.00922571,-0.00922571,-0.00922571,-0.00922571,-0.00922571,-0.00922571,-0.00922571,-0.00922571,-0.00922571,-0.00922571,-0.00922571,-0.00295222,-0.0029696,-0.00302288,-0.00311529,-0.00325285,-0.00344539,-0.00370837,-0.003501,-0.00127095,0.00147718,0.00532916,0.0110365,0.0152657,0.0155609,0.0157042,0.0157042,0.0147818,-0.00136224,-0.00922571,-0.00922571,-0.00922571,-0.00922571,-0.00922571,-0.00922571,-0.00922571,-0.00922571,-0.00922571,-0.00922571,-0.00922571,-0.00922571,-0.00295222,-0.0029696,-0.00302288,-0.00311529,-0.00325285,-0.00344539,-0.00365671,-0.00294123,-0.000736783,0.00193386,0.00679648,0.0141514,0.0196016,0.0199832,0.0201686,0.0201686,0.0173278,0.00291826,-0.00922571,-0.00922571,-0.00922571,-0.00922571,-0.00922571,-0.00922571,-0.00922571,-0.00922571,-0.00922571,-0.00922571,-0.00922571,-0.00922571,-0.00295222,-0.0029696,-0.00302288,-0.00311529,-0.00325285,-0.00344539,-0.0035227,-0.00243318,-0.000603029,0.00184831,0.00652295,0.0143183,0.0201023,0.0205204,0.0207232,0.0207232,0.0174705,0.0083602,-0.00922571,-0.00922571,-0.00922571,-0.00922571,-0.00922571,-0.00922571,-0.00922571,-0.00922571,-0.00922571,-0.00922571,-0.00922571,-0.00922571,-0.00295222,-0.0029696,-0.00302288,-0.00311529,-0.00325285,-0.00344539,-0.00338062,-0.00210997,-0.00052016,0.00146709,0.00651095,0.014041,0.01962,0.0200191,0.0202129,0.0202129,0.0177569,0.00763614,-0.00922571,-0.00922571,-0.00922571,-0.00922571,-0.00922571,-0.00922571,-0.00922571,-0.00922571,-0.00922571,-0.00922571,-0.00922571,-0.00922571,-0.00295222,-0.0029696,-0.00302288,-0.00311529,-0.00325285,-0.00344539,-0.00320757,-0.00207359,-0.000747075,0.000844725,0.00486788,0.0118019,0.0169402,0.0173287,0.0175172,0.0175172,0.010794,0.00585177,-0.00922571,-0.00922571,-0.00922571,-0.00922571,-0.00922571,-0.00922571,-0.00922571,-0.00922571,-0.00922571,-0.00922571,-0.00922571,-0.00922571,-0.00295222,-0.0029696,-0.00302288,-0.00311529,-0.00325285,-0.00344539,-0.00353083,-0.00301182,-0.00231607,-0.00135588,0.00136547,0.00617882,0.00973913,0.0100452,0.0101938,0.0101938,0.00451507,9.12067e-05,-0.00922571,-0.00922571,-0.00922571,-0.00922571,-0.00922571,-0.00922571,-0.00922571,-0.00922571,-0.00922571,-0.00922571,-0.00922571,-0.00922571,-0.00295222,-0.0029696,-0.00302288,-0.00311529,-0.00325285,-0.00344539,-0.00358561,-0.0037115,-0.00396599,-0.00432227,-0.00365373,-0.00153225,2.83006e-05,0.000240952,0.000344161,0.000344161,-0.00406077,-0.00702823,-0.00922571,-0.00922571,-0.00922571,-0.00922571,-0.00922571,-0.00922571,-0.00922571,-0.00922571,-0.00922571,-0.00922571,-0.00922571,-0.00922571,-0.00295222,-0.0029696,-0.00302288,-0.00311529,-0.00325285,-0.00344539,-0.00370837,-0.00406645,-0.00456021,-0.00522749,-0.0050631,-0.00441848,-0.00395237,-0.00381557,-0.00374917,-0.00374917,-0.00715493,-0.00922571,-0.00922571,-0.00922571,-0.00922571,-0.00922571,-0.00922571,-0.00922571,-0.00922571,-0.00922571,-0.00922571,-0.00922571,-0.00922571,-0.00922571,-0.00295222,-0.0029696,-0.00302288,-0.00311529,-0.00325285,-0.00344539,-0.00370837,-0.00406645,-0.00456021,-0.00522542,-0.00522429,-0.00459058,-0.00413295,-0.00399397,-0.00392651,-0.00392651,-0.00707058,-0.00922571,-0.00922571,-0.00922571,-0.00922571,-0.00922571,-0.00922571,-0.00922571,-0.00922571,-0.00922571,-0.00922571,-0.00922571,-0.00922571,-0.00922571,]