[-0.00123156,-0.00123883,-0.00126105,-0.00129958,-0.00135698,-0.00143729,-0.001547,-0.00169637,-0.00190235,-0.00217852,0.00058355,0.00680685,0.0114077,0.0118251,0.0120278,0.0120278,0.00167062,-0.00384862,-0.00384862,-0.00384862,-0.00384862,-0.00384862,-0.00384862,-0.00384862,-0.00384862,-0.00384862,-0.00384862,-0.00384862,-0.00384862,-0.00384862,-0.00123156,-0.00123883,-0.00126105,-0.00129958,-0.00135698,-0.00143729,-0.001547,-0.00169637,-0.00190235,-0.0020998,0.000579467,0.00676586,0.0113394,0.0117544,0.0119558,0.0119558,0.00264097,-0.00384862,-0.00384862,-0.00384862,-0.00384862,-0.00384862,-0.00384862,-0.00384862,-0.00384862,-0.00384862,-0.00384862,-0.00384862,-0.00384862,-0.00384862,-0.00123156,-0.00123883,-0.00126105,-0.00129958,-0.00135698,-0.00143729,-0.001547,-0.00169637,-0.00190235,-0.00210297,0.000677137,0.00614391,0.0101858,0.0105495,0.010726,0.010726,0.00170484,-0.00384862,-0.00384862,-0.00384862,-0.00384862,-0.00384862,-0.00384862,-0.00384862,-0.00384862,-0.00384862,-0.00384862,-0.00384862,-0.00384862,-0.00384862,-0.00123156,-0.00123883,-0.00126105,-0.00129958,-0.00135698,-0.00143729,-0.00136068,-0.00115762,-0.00100038,-0.000690139,0.00252733,0.00979195,0.0151665,0.01562,0.01584,0.01584,0.00654304,-0.000513041,-0.00384862,-0.00384862,-0.00384862,-0.00384862,-0.00384862,-0.00384862,-0.00384862,-0.00384862,-0.00384862,-0.00384862,-0.00384862,-0.00384862,-0.00123156,-0.00123883,-0.00126105,-0.00129958,-0.00135698,-0.00143729,-0.00125794,-0.000367573,0.000802956,0.00264214,0.00806434,0.0179732,0.0253136,0.0258479,0.0261072,0.0261072,0.0149981,0.00671791,-0.00384862,-0.00384862,-0.00384862,-0.00384862,-0.00384862,-0.00384862,-0.00384862,-0.00384862,-0.00384862,-0.00384862,-0.00384862,-0.00384862,-0.00123156,-0.00123883,-0.00126105,-0.00129958,-0.00135698,-0.00143729,-0.00113791,0.00075448,0.00319072,0.00627471,0.0144009,0.0287003,0.0393085,0.0400301,0.0403804,0.0403804,0.025694,0.0169455,-0.00384862,-0.00384862,-0.00384862,-0.00384862,-0.00384862,-0.00384862,-0.00384862,-0.00384862,-0.00384862,-0.00384862,-0.00384862,-0.00384862,-0.00123156,-0.00123883,-0.00126105,-0.00129958,-0.00135698,-0.00143729,-0.00134885,0.000813146,0.00379662,0.00787009,0.0178459,0.0326692,0.0436619,0.0443551,0.0446921,0.0446921,0.0412091,0.0207787,-0.00384862,-0.00384862,-0.00384862,-0.00384862,-0.00384862,-0.00384862,-0.00384862,-0.00384862,-0.00384862,-0.00384862,-0.00384862,-0.00384862,-0.00123156,-0.00123883,-0.00126105,-0.00129958,-0.00135698,-0.00143729,-0.00147898,0.000364841,0.00389069,0.00911592,0.0185707,0.0341403,0.045701,0.0464348,0.046791,0.046791,0.0412838,0.0226518,-0.00384862,-0.00384862,-0.00384862,-0.00384862,-0.00384862,-0.00384862,-0.00384862,-0.00384862,-0.00384862,-0.00384862,-0.00384862,-0.00384862,-0.00123156,-0.00123883,-0.00126105,-0.00129958,-0.00135698,-0.00143729,-0.001547,-0.000382806,0.00417974,0.00989398,0.020599,0.0367734,0.0487698,0.0495061,0.0498635,0.0498635,0.0457262,0.0122012,-0.00384862,-0.00384862,-0.00384862,-0.00384862,-0.00384862,-0.00384862,-0.00384862,-0.00384862,-0.00384862,-0.00384862,-0.00384862,-0.00384862,-0.00123156,-0.00123883,-0.00126105,-0.00129958,-0.00135698,-0.00143729,-0.001547,-0.00121431,0.00354784,0.00965066,0.0179421,0.0302919,0.039456,0.0399778,0.0402311,0.0402311,0.0388829,0.00480996,-0.00384862,-0.00384862,-0.00384862,-0.00384862,-0.00384862,-0.00384862,-0.00384862,-0.00384862,-0.00384862,-0.00384862,-0.00384862,-0.00384862,-0.00123156,-0.00123883,-0.00126105,-0.00129958,-0.00135698,-0.00143729,-0.001547,-0.00164407,0.00167554,0.00819136,0.0167813,0.0300832,0.039949,0.0405572,0.0408528,0.0408528,0.0371651,-0.00384862,-0.00384862,-0.00384862,-0.00384862,-0.00384862,-0.00384862,-0.00384862,-0.00384862,-0.00384862,-0.00384862,-0.00384862,-0.00384862,-0.00384862,-0.00123156,-0.00123883,-0.00126105,-0.00129958,-0.00135698,-0.00143729,-0.001547,-0.00169637,-0.000111558,0.00470671,0.0106688,0.0191726,0.0254798,0.0258697,0.0260592,0.0260592,0.0258697,-0.00384862,-0.00384862,-0.00384862,-0.00384862,-0.00384862,-0.00384862,-0.00384862,-0.00384862,-0.00384862,-0.00384862,-0.00384862,-0.00384862,-0.00384862,-0.00123156,-0.00123883,-0.00126105,-0.00129958,-0.00135698,-0.00143729,-0.001547,-0.00169637,-0.00114768,0.00310809,0.00947065,0.0184906,0.0251767,0.0256243,0.0258414,0.0258414,0.0256243,-0.00384862,-0.00384862,-0.00384862,-0.00384862,-0.00384862,-0.00384862,-0.00384862,-0.00384862,-0.00384862,-0.00384862,-0.00384862,-0.00384862,-0.00384862,-0.00123156,-0.00123883,-0.00126105,-0.00129958,-0.00135698,-0.00143729,-0.001547,-0.00169637,-0.00151126,0.00227459,0.00740912,0.0146576,0.0200302,0.0203934,0.0205696,0.0205696,0.0203934,-0.00384862,-0.00384862,-0.00384862,-0.00384862,-0.00384862,-0.00384862,-0.00384862,-0.00384862,-0.00384862,-0.00384862,-0.00384862,-0.00384862,-0.00384862,-0.00123156,-0.00123883,-0.00126105,-0.00129958,-0.00135698,-0.00143729,-0.001547,-0.00169637,-0.00178133,0.00134973,0.00664841,0.0150347,0.0212466,0.021702,0.0219232,0.0219232,0.0172388,-0.00384862,-0.00384862,-0.00384862,-0.00384862,-0.00384862,-0.00384862,-0.00384862,-0.00384862,-0.00384862,-0.00384862,-0.00384862,-0.00384862,-0.00384862,-0.00123156,-0.00123883,-0.00126105,-0.00129958,-0.00135698,-0.00143729,-0.001547,-0.00169637,-0.00190235,0.000711535,0.00552819,0.0122679,0.0172606,0.0176232,0.0177991,0.0177991,0.0176232,-0.00384862,-0.00384862,-0.00384862,-0.00384862,-0.00384862,-0.00384862,-0.00384862,-0.00384862,-0.00384862,-0.00384862,-0.00384862,-0.00384862,-0.00384862,-0.00123156,-0.00123883,-0.00126105,-0.00129958,-0.00135698,-0.00143729,-0.001547,-0.00169637,-0.00190235,7.61928e-05,0.00542192,0.0135773,0.0196162,0.0200781,0.0203023,0.0203023,0.0162826,-0.00384862,-0.00384862,-0.00384862,-0.00384862,-0.00384862,-0.00384862,-0.00384862,-0.00384862,-0.00384862,-0.00384862,-0.00384862,-0.00384862,-0.00384862,-0.00123156,-0.00123883,-0.00126105,-0.00129958,-0.00135698,-0.00143729,-0.001547,-0.00169637,-0.00190235,-0.000237624,0.00535354,0.0135366,0.0195959,0.0200609,0.0202866,0.0202866,0.0181798,-0.00384862,-0.00384862,-0.00384862,-0.00384862,-0.00384862,-0.00384862,-0.00384862,-0.00384862,-0.00384862,-0.00384862,-0.00384862,-0.00384862,-0.00384862,-0.00123156,-0.00123883,-0.00126105,-0.00129958,-0.00135698,-0.00143729,-0.001547,-0.00169637,-0.00190235,-0.000601837,0.00482396,0.0123947,0.0180001,0.0184328,0.0186428,0.0186428,0.0184328,-0.00384862,-0.00384862,-0.00384862,-0.00384862,-0.00384862,-0.00384862,-0.00384862,-0.00384862,-0.00384862,-0.00384862,-0.00384862,-0.00384862,-0.00384862,-0.00123156,-0.00123883,-0.00126105,-0.00129958,-0.00135698,-0.00143729,-0.001547,-0.00169637,-0.00190235,-0.00173508,-7.35639e-05,-0.0109573,-0.0223805,-0.0235268,-0.0240831,-0.0240831,0.0108195,-0.00384862,-0.00384862,-0.00384862,-0.00384862,-0.00384862,-0.00384862,-0.00384862,-0.00384862,-0.00384862,-0.00384862,-0.00384862,-0.00384862,-0.00384862,-0.00123156,-0.00123883,-0.00126105,-0.00129958,-0.00135698,-0.00143729,-0.001547,-0.00169637,-0.00190235,-0.00219458,-0.0051466,-0.0295961,-0.0530773,-0.0553033,-0.0563832,-0.0563832,-0.00181399,-0.00384862,-0.00384862,-0.00384862,-0.00384862,-0.00384862,-0.00384862,-0.00384862,-0.00384862,-0.00384862,-0.00384862,-0.00384862,-0.00384862,-0.00384862,-0.00123156,-0.00123883,-0.00126105,-0.00129958,-0.00135698,-0.00143729,-0.001547,-0.00169637,-0.00190235,-0.00219458,-0.0113498,-0.0494268,-0.0896223,-0.0933229,-0.0950294,-0.0950294,-0.00384862,-0.00384862,-0.00384862,-0.00384862,-0.00384862,-0.00384862,-0.00384862,-0.00384862,-0.00384862,-0.00384862,-0.00384862,-0.00384862,-0.00384862,-0.00384862,-0.00123156,-0.00123883,-0.00126105,-0.00129958,-0.00135698,-0.00143729,-0.001547,-0.00169637,-0.00190235,-0.00219458,-0.00589378,-0.0466618,-0.081955,-0.0849818,-0.0862328,-0.0862328,-0.00384862,-0.00384862,-0.00384862,-0.00384862,-0.00384862,-0.00384862,-0.00384862,-0.00384862,-0.00384862,-0.00384862,-0.00384862,-0.00384862,-0.00384862,-0.00384862,-0.00123156,-0.00123883,-0.00126105,-0.00129958,-0.00135698,-0.00143729,-0.001547,-0.00169637,-0.00190235,-0.00219458,-0.00269532,-0.0195427,-0.0328719,-0.0332719,-0.0334327,-0.0334327,-0.00384862,-0.00384862,-0.00384862,-0.00384862,-0.00384862,-0.00384862,-0.00384862,-0.00384862,-0.00384862,-0.00384862,-0.00384862,-0.00384862,-0.00384862,-0.00384862,-0.00123156,-0.00123883,-0.00126105,-0.00129958,-0.00135698,-0.00143729,-0.001547,0.000365941,0.00417753,0.00843011,0.0138316,0.0192818,0.0224166,0.0234953,0.0241344,0.0241344,0.0278536,0.0211556,-0.00384862,-0.00384862,-0.00384862,-0.00384862,-0.00384862,-0.00384862,-0.00384862,-0.00384862,-0.00384862,-0.00384862,-0.00384862,-0.00384862,-0.00123156,-0.00123883,-0.00126105,-0.00129958,-0.00135698,-0.00143729,-0.000586273,0.00380549,0.00875528,0.0127717,0.0177044,0.0252843,0.0313478,0.0316738,0.0320737,0.0320737,0.0308139,0.0404805,-0.00384862,-0.00384862,-0.00384862,-0.00384862,-0.00384862,-0.00384862,-0.00384862,-0.00384862,-0.00384862,-0.00384862,-0.00384862,-0.00384862,-0.00123156,-0.00123883,-0.00126105,-0.00129958,-0.00135698,-0.00128409,0.00214374,0.00772343,0.0135816,0.0147311,0.0149555,0.0158896,0.01425,0.0138364,0.0136356,0.0136356,0.0164018,0.0527677,0.0191642,-0.00384862,-0.00384862,-0.00384862,-0.00384862,-0.00384862,-0.00384862,-0.00384862,-0.00384862,-0.00384862,-0.00384862,-0.00384862,-0.00123156,-0.00123883,-0.00126105,-0.00129958,-0.00135698,0.000229913,0.00542925,0.0117134,0.0182633,0.0126476,-0.00648591,-0.0334599,-0.0557465,-0.0581446,-0.0593088,-0.0593088,-0.0418822,0.06584,0.041694,-0.00384862,-0.00384862,-0.00384862,-0.00384862,-0.00384862,-0.00384862,-0.00384862,-0.00384862,-0.00384862,-0.00384862,-0.00384862,-0.00123156,-0.00123883,-0.00126105,-0.00129958,-0.00122917,0.00277178,0.00935881,0.0161966,0.0210398,0.00820089,-0.0248248,-0.050344,-0.0618031,-0.0624131,-0.062709,-0.062709,-0.0900223,0.0746162,0.0595177,0.00991034,-0.00384862,-0.00384862,-0.00384862,-0.00384862,-0.00384862,-0.00384862,-0.00384862,-0.00384862,-0.00384862,-0.00384862,-0.00123156,-0.00123883,-0.00126105,-0.00129958,0.000121989,0.00619231,0.0138835,0.0223052,0.0232462,0.00318206,-0.0417516,-0.0626396,-0.0658871,-0.065055,-0.0646504,-0.0646504,-0.132922,0.0982535,0.0796187,0.041132,-0.00384862,-0.00384862,-0.00384862,-0.00384862,-0.00384862,-0.00384862,-0.00384862,-0.00384862,-0.00384862,-0.00384862,-0.00123156,-0.00123883,-0.00126105,-0.00129958,0.0018093,0.00908745,0.0181693,0.0265312,0.0214584,-0.00630333,-0.0662675,-0.0819857,-0.0790438,-0.0771796,-0.0762746,-0.0762746,-0.211982,0.106368,0.0998789,0.060289,-0.00384862,-0.00384862,-0.00384862,-0.00384862,-0.00384862,-0.00384862,-0.00384862,-0.00384862,-0.00384862,-0.00384862,-0.00123156,-0.00123883,-0.00126105,-0.00129958,0.000103685,0.00608656,0.014003,0.022492,0.0238441,0.00551248,-0.0405779,-0.0624214,-0.0633121,-0.0622043,-0.0616674,-0.0616674,-0.121432,0.0977749,0.077953,0.0404758,-0.00384862,-0.00384862,-0.00384862,-0.00384862,-0.00384862,-0.00384862,-0.00384862,-0.00384862,-0.00384862,-0.00384862,-0.00123156,-0.00123883,-0.00126105,-0.00129958,-0.00123372,0.00262328,0.00920521,0.016412,0.0218745,0.00968664,-0.0233644,-0.0564954,-0.0740829,-0.0753087,-0.075904,-0.075904,-0.0827641,0.0775633,0.0573036,0.00938793,-0.00384862,-0.00384862,-0.00384862,-0.00384862,-0.00384862,-0.00384862,-0.00384862,-0.00384862,-0.00384862,-0.00384862,-0.00123156,-0.00123883,-0.00126105,-0.00129958,-0.00135698,0.000136851,0.00512013,0.0117245,0.0188506,0.0137786,-0.00393922,-0.0308042,-0.0535751,-0.0560762,-0.05729,-0.05729,-0.0363785,0.0682117,0.0394211,-0.00384862,-0.00384862,-0.00384862,-0.00384862,-0.00384862,-0.00384862,-0.00384862,-0.00384862,-0.00384862,-0.00384862,-0.00384862,-0.00123156,-0.00123883,-0.00126105,-0.00129958,-0.00135698,-0.00129218,0.00188514,0.0076026,0.0137759,0.0158622,0.0169617,0.019162,0.0184664,0.0180961,0.0179163,0.0179163,0.0206648,0.0545062,0.0176083,-0.00384862,-0.00384862,-0.00384862,-0.00384862,-0.00384862,-0.00384862,-0.00384862,-0.00384862,-0.00384862,-0.00384862,-0.00384862,-0.00123156,-0.00123883,-0.00126105,-0.00129958,-0.00135698,-0.00143729,-0.000658931,0.00361335,0.00881641,0.0147371,0.0223756,0.0338048,0.0440553,0.0447719,0.0453604,0.0453604,0.0423731,0.0420071,-0.00384862,-0.00384862,-0.00384862,-0.00384862,-0.00384862,-0.00384862,-0.00384862,-0.00384862,-0.00384862,-0.00384862,-0.00384862,-0.00384862,-0.00123156,-0.00123883,-0.00126105,-0.00129958,-0.00135698,-0.00143729,-0.001547,0.000182136,0.00362115,0.00745252,0.0123135,0.0169281,0.0196626,0.0210116,0.0217846,0.0217846,0.024924,0.0190173,-0.00384862,-0.00384862,-0.00384862,-0.00384862,-0.00384862,-0.00384862,-0.00384862,-0.00384862,-0.00384862,-0.00384862,-0.00384862,-0.00384862,-0.00123156,-0.00123883,-0.00126105,-0.00129958,-0.00135698,-0.00143729,-0.001547,-0.00169637,-0.00190235,-0.00219458,-0.00269576,-0.0222382,-0.0399283,-0.0409842,-0.0414621,-0.0414621,-0.00384862,-0.00384862,-0.00384862,-0.00384862,-0.00384862,-0.00384862,-0.00384862,-0.00384862,-0.00384862,-0.00384862,-0.00384862,-0.00384862,-0.00384862,-0.00384862,-0.00123156,-0.00123883,-0.00126105,-0.00129958,-0.00135698,-0.00143729,-0.001547,-0.00169637,-0.00190235,-0.00219458,-0.00605095,-0.0412864,-0.0774473,-0.0806888,-0.0819533,-0.0819533,-0.00384862,-0.00384862,-0.00384862,-0.00384862,-0.00384862,-0.00384862,-0.00384862,-0.00384862,-0.00384862,-0.00384862,-0.00384862,-0.00384862,-0.00384862,-0.00384862,-0.00123156,-0.00123883,-0.00126105,-0.00129958,-0.00135698,-0.00143729,-0.001547,-0.00169637,-0.00190235,-0.00219458,-0.00638694,-0.0368516,-0.0707739,-0.0740981,-0.0757107,-0.0757107,-0.00384862,-0.00384862,-0.00384862,-0.00384862,-0.00384862,-0.00384862,-0.00384862,-0.00384862,-0.00384862,-0.00384862,-0.00384862,-0.00384862,-0.00384862,-0.00384862,-0.00123156,-0.00123883,-0.00126105,-0.00129958,-0.00135698,-0.00143729,-0.001547,-0.00169637,-0.00190235,-0.00219458,-0.00213963,-0.0191052,-0.0369526,-0.0387068,-0.0395582,-0.0395582,-0.00161094,-0.00384862,-0.00384862,-0.00384862,-0.00384862,-0.00384862,-0.00384862,-0.00384862,-0.00384862,-0.00384862,-0.00384862,-0.00384862,-0.00384862,-0.00384862,-0.00123156,-0.00123883,-0.00126105,-0.00129958,-0.00135698,-0.00143729,-0.001547,-0.00169637,-0.00190235,-0.00184711,0.000985266,-0.000880039,-0.00394361,-0.00428915,-0.00445682,-0.00445682,0.00821739,-0.00384862,-0.00384862,-0.00384862,-0.00384862,-0.00384862,-0.00384862,-0.00384862,-0.00384862,-0.00384862,-0.00384862,-0.00384862,-0.00384862,-0.00384862,-0.00123156,-0.00123883,-0.00126105,-0.00129958,-0.00135698,-0.00143729,-0.001547,-0.00169637,-0.00190235,-0.000886754,0.00400819,0.0108316,0.015883,0.0162791,0.0164713,0.0164713,0.0162791,-0.00384862,-0.00384862,-0.00384862,-0.00384862,-0.00384862,-0.00384862,-0.00384862,-0.00384862,-0.00384862,-0.00384862,-0.00384862,-0.00384862,-0.00384862,-0.00123156,-0.00123883,-0.00126105,-0.00129958,-0.00135698,-0.00143729,-0.001547,-0.00169637,-0.00190235,-1.52599e-05,0.00513042,0.0125837,0.0181028,0.0185219,0.0187252,0.0187252,0.0164531,-0.00384862,-0.00384862,-0.00384862,-0.00384862,-0.00384862,-0.00384862,-0.00384862,-0.00384862,-0.00384862,-0.00384862,-0.00384862,-0.00384862,-0.00384862,-0.00123156,-0.00123883,-0.00126105,-0.00129958,-0.00135698,-0.00143729,-0.001547,-0.00169637,-0.00190235,0.00025749,0.00612287,0.0151134,0.0217709,0.0222775,0.0225234,0.0225234,0.0179099,-0.00384862,-0.00384862,-0.00384862,-0.00384862,-0.00384862,-0.00384862,-0.00384862,-0.00384862,-0.00384862,-0.00384862,-0.00384862,-0.00384862,-0.00384862,-0.00123156,-0.00123883,-0.00126105,-0.00129958,-0.00135698,-0.00143729,-0.001547,-0.00169637,-0.00190235,0.000912515,0.00610885,0.0133859,0.018777,0.0191659,0.0193547,0.0193547,0.0191659,-0.00384862,-0.00384862,-0.00384862,-0.00384862,-0.00384862,-0.00384862,-0.00384862,-0.00384862,-0.00384862,-0.00384862,-0.00384862,-0.00384862,-0.00384862,-0.00123156,-0.00123883,-0.00126105,-0.00129958,-0.00135698,-0.00143729,-0.001547,-0.00169637,-0.00177506,0.00150488,0.00708268,0.0159545,0.0225262,0.0230071,0.0232404,0.0232404,0.0181313,-0.00384862,-0.00384862,-0.00384862,-0.00384862,-0.00384862,-0.00384862,-0.00384862,-0.00384862,-0.00384862,-0.00384862,-0.00384862,-0.00384862,-0.00384862,-0.00123156,-0.00123883,-0.00126105,-0.00129958,-0.00135698,-0.00143729,-0.001547,-0.00169637,-0.00149624,0.00237824,0.00761851,0.0150186,0.0205036,0.0208736,0.0210529,0.0210529,0.0208736,-0.00384862,-0.00384862,-0.00384862,-0.00384862,-0.00384862,-0.00384862,-0.00384862,-0.00384862,-0.00384862,-0.00384862,-0.00384862,-0.00384862,-0.00384862,-0.00123156,-0.00123883,-0.00126105,-0.00129958,-0.00135698,-0.00143729,-0.001547,-0.00169637,-0.00114062,0.0030769,0.00944079,0.0184622,0.0251494,0.0255974,0.0258148,0.0258148,0.0255974,-0.00384862,-0.00384862,-0.00384862,-0.00384862,-0.00384862,-0.00384862,-0.00384862,-0.00384862,-0.00384862,-0.00384862,-0.00384862,-0.00384862,-0.00384862,-0.00123156,-0.00123883,-0.00126105,-0.00129958,-0.00135698,-0.00143729,-0.001547,-0.00169637,-0.000140593,0.0045468,0.0103444,0.0186123,0.0247443,0.0251241,0.0253083,0.0253083,0.0251241,-0.00384862,-0.00384862,-0.00384862,-0.00384862,-0.00384862,-0.00384862,-0.00384862,-0.00384862,-0.00384862,-0.00384862,-0.00384862,-0.00384862,-0.00384862,-0.00123156,-0.00123883,-0.00126105,-0.00129958,-0.00135698,-0.00143729,-0.001547,-0.00139485,0.00231682,0.00914502,0.018178,0.0322271,0.0426484,0.0432825,0.0435903,0.0435903,0.0396121,0.00137155,-0.00384862,-0.00384862,-0.00384862,-0.00384862,-0.00384862,-0.00384862,-0.00384862,-0.00384862,-0.00384862,-0.00384862,-0.00384862,-0.00384862,-0.00123156,-0.00123883,-0.00126105,-0.00129958,-0.00135698,-0.00143729,-0.001547,-0.000751433,0.00424797,0.010579,0.0192456,0.0322055,0.0418238,0.0423638,0.0426259,0.0426259,0.0411321,0.00915479,-0.00384862,-0.00384862,-0.00384862,-0.00384862,-0.00384862,-0.00384862,-0.00384862,-0.00384862,-0.00384862,-0.00384862,-0.00384862,-0.00384862,-0.00123156,-0.00123883,-0.00126105,-0.00129958,-0.00135698,-0.00143729,-0.00145793,0.000189818,0.00498143,0.0109669,0.0212453,0.0368222,0.0483787,0.049062,0.0493938,0.0493938,0.0447812,0.0159472,-0.00384862,-0.00384862,-0.00384862,-0.00384862,-0.00384862,-0.00384862,-0.00384862,-0.00384862,-0.00384862,-0.00384862,-0.00384862,-0.00384862,-0.00123156,-0.00123883,-0.00126105,-0.00129958,-0.00135698,-0.00143729,-0.00123511,0.00100352,0.00479419,0.00997109,0.0191387,0.0345356,0.0459719,0.0466836,0.0470288,0.0470288,0.0410421,0.02562,-0.00384862,-0.00384862,-0.00384862,-0.00384862,-0.00384862,-0.00384862,-0.00384862,-0.00384862,-0.00384862,-0.00384862,-0.00384862,-0.00384862,-0.00123156,-0.00123883,-0.00126105,-0.00129958,-0.00135698,-0.00143729,-0.00100285,0.00150654,0.00478315,0.00905998,0.0188528,0.0335321,0.04442,0.0450856,0.0454084,0.0454084,0.0416195,0.0239391,-0.00384862,-0.00384862,-0.00384862,-0.00384862,-0.00384862,-0.00384862,-0.00384862,-0.00384862,-0.00384862,-0.00384862,-0.00384862,-0.00384862,-0.00123156,-0.00123883,-0.00126105,-0.00129958,-0.00135698,-0.00143729,-0.000734096,0.00151866,0.00428248,0.00777407,0.0159275,0.0302411,0.0408632,0.0415578,0.041895,0.041895,0.0296938,0.020478,-0.00384862,-0.00384862,-0.00384862,-0.00384862,-0.00384862,-0.00384862,-0.00384862,-0.00384862,-0.00384862,-0.00384862,-0.00384862,-0.00384862,-0.00123156,-0.00123883,-0.00126105,-0.00129958,-0.00135698,-0.00143729,-0.0012918,-6.60362e-05,0.00161077,0.00397986,0.0103358,0.021768,0.0302388,0.0308366,0.0311265,0.0311265,0.01913,0.0108539,-0.00384862,-0.00384862,-0.00384862,-0.00384862,-0.00384862,-0.00384862,-0.00384862,-0.00384862,-0.00384862,-0.00384862,-0.00384862,-0.00384862,-0.00123156,-0.00123883,-0.00126105,-0.00129958,-0.00135698,-0.00143729,-0.00137759,-0.0012065,-0.00108222,-0.000801254,0.00256507,0.0102507,0.0159365,0.0164183,0.0166521,0.0166521,0.00667832,-0.000815703,-0.00384862,-0.00384862,-0.00384862,-0.00384862,-0.00384862,-0.00384862,-0.00384862,-0.00384862,-0.00384862,-0.00384862,-0.00384862,-0.00384862,-0.00123156,-0.00123883,-0.00126105,-0.00129958,-0.00135698,-0.00143729,-0.001547,-0.00169637,-0.00190235,-0.00209955,0.000848134,0.0066169,0.0108823,0.0112636,0.0114487,0.0114487,0.00201602,-0.00384862,-0.00384862,-0.00384862,-0.00384862,-0.00384862,-0.00384862,-0.00384862,-0.00384862,-0.00384862,-0.00384862,-0.00384862,-0.00384862,-0.00384862,-0.00123156,-0.00123883,-0.00126105,-0.00129958,-0.00135698,-0.00143729,-0.001547,-0.00169637,-0.00190235,-0.00209337,0.000693993,0.00704037,0.0117326,0.0121564,0.0123621,0.0123621,0.0028902,-0.00384862,-0.00384862,-0.00384862,-0.00384862,-0.00384862,-0.00384862,-0.00384862,-0.00384862,-0.00384862,-0.00384862,-0.00384862,-0.00384862,-0.00384862,]