[-0.00490497,-0.0049339,-0.00502237,-0.00517594,-0.0054045,-0.00572434,-0.00616133,-0.00675623,-0.00757662,-0.00876355,-0.0113238,-0.0153169,-0.0223626,-0.0387461,-0.039133,-0.039133,-0.0391036,-0.039042,-0.0383566,-0.0115528,0.000483376,0.00199356,0.00303391,0.00374109,0.0042605,0.00464072,0.00491238,0.00509492,0.00520001,0.00523444,-0.00490497,-0.0049339,-0.00502237,-0.00517594,-0.0054045,-0.00572434,-0.00616133,-0.00675623,-0.00757662,-0.00875968,-0.0112873,-0.0152645,-0.0221991,-0.0382961,-0.0386745,-0.0386745,-0.0386472,-0.0385921,-0.0382908,-0.0115354,0.000483376,0.00199356,0.00303391,0.00374109,0.0042605,0.00464072,0.00491238,0.00509492,0.00520001,0.00523444,-0.00490497,-0.0049339,-0.00502237,-0.00517594,-0.0054045,-0.00572434,-0.00616133,-0.00675623,-0.00757662,-0.0087557,-0.0111966,-0.01517,-0.0221789,-0.0384965,-0.0388832,-0.0388832,-0.0388526,-0.0387892,-0.0381604,-0.0086356,0.000515762,0.00199356,0.00303391,0.00374109,0.0042605,0.00464072,0.00491238,0.00509492,0.00520001,0.00523444,-0.00490497,-0.0049339,-0.00502237,-0.00517594,-0.0054045,-0.00572434,-0.00616133,-0.00675623,-0.00757662,-0.00874614,-0.0110348,-0.0148759,-0.0216189,-0.0373412,-0.0377111,-0.0377111,-0.0376844,-0.0376285,-0.0285266,-0.00860442,0.000515762,0.00202553,0.00303391,0.00374109,0.0042605,0.00464072,0.00491238,0.00509492,0.00520001,0.00523444,-0.00490497,-0.0049339,-0.00502237,-0.00517594,-0.0054045,-0.00572434,-0.00616133,-0.00675623,-0.00757662,-0.00872962,-0.010792,-0.0145664,-0.0216962,-0.0382696,-0.0386708,-0.0386708,-0.0386304,-0.0385472,-0.0271113,-0.00593722,0.000515762,0.00202553,0.00303391,0.00374109,0.0042605,0.00464072,0.00491238,0.00509492,0.00520001,0.00523444,-0.00490497,-0.0049339,-0.00502237,-0.00517594,-0.0054045,-0.00572434,-0.00616133,-0.00675623,-0.00757345,-0.00870054,-0.0104561,-0.0132931,-0.0191026,-0.032784,-0.0331027,-0.0331027,-0.0330828,-0.0330409,-0.0208052,-0.00632318,0.000764876,0.00205876,0.00303391,0.00374109,0.0042605,0.00464072,0.00491238,0.00509492,0.00520001,0.00523444,-0.00490497,-0.0049339,-0.00502237,-0.00517594,-0.0054045,-0.00572434,-0.00616133,-0.00675623,-0.00755885,-0.00860743,-0.00972031,-0.0106463,-0.0128882,-0.0188759,-0.0189675,-0.0189675,-0.0190087,-0.0190936,-0.00758306,-0.00396054,-0.00254717,0.00223985,0.00303391,0.00374109,0.0042605,0.00464072,0.00491238,0.00509492,0.00520001,0.00523444,-0.00490497,-0.0049339,-0.00502237,-0.00517594,-0.0054045,-0.00572434,-0.00616133,-0.00675056,-0.00752865,-0.00842952,-0.00916609,-0.00894235,-0.00804286,-0.00671801,-0.00658272,-0.00658272,-0.00669398,-0.00692321,-0.00244594,-0.00210047,-0.00230786,0.00225026,0.00303391,0.00374109,0.0042605,0.00464072,0.00491238,0.00509492,0.00520001,0.00523444,-0.00490497,-0.0049339,-0.00502237,-0.00517594,-0.0054045,-0.00572434,-0.00616133,-0.00674214,-0.00746907,-0.00815218,-0.00849688,-0.0071757,-0.00323402,0.00486627,0.00520857,0.00520857,0.00503588,0.00468013,0.00525221,-0.000181255,-0.00141178,-0.00125077,0.00321826,0.00374109,0.0042605,0.00464072,0.00491238,0.00509492,0.00520001,0.00523444,-0.00490497,-0.0049339,-0.00502237,-0.00517594,-0.0054045,-0.00572434,-0.00616133,-0.00673218,-0.00735511,-0.00784058,-0.00778305,-0.00557436,0.00239881,0.019958,0.0206009,0.0206009,0.0203306,0.0197735,0.00899666,0.00305497,0.000823952,-0.000519678,0.0032245,0.00374109,0.0042605,0.00464072,0.00491238,0.00509492,0.00520001,0.00523444,-0.00490497,-0.0049339,-0.00502237,-0.00517594,-0.0054045,-0.00572434,-0.00615665,-0.00670635,-0.00723123,-0.00753627,-0.00709997,-0.0036388,0.00632603,0.0280592,0.0288195,0.0288195,0.0285221,0.0279092,0.0130192,0.00623129,0.00108874,0.000855455,0.00322908,0.00374109,0.0042605,0.00464072,0.00491238,0.00509492,0.00520001,0.00523444,-0.00490497,-0.0049339,-0.00502237,-0.00517594,-0.0054045,-0.00572434,-0.00615293,-0.00667801,-0.00708462,-0.00722011,-0.00649864,-0.00199169,0.00878744,0.0325003,0.03331,0.03331,0.033006,0.0323802,0.0162854,0.0064393,0.002357,-0.000179506,0.00323236,0.00374109,0.0042605,0.00464072,0.00491238,0.00509492,0.00520001,0.00523444,-0.00490497,-0.0049339,-0.00502237,-0.00517594,-0.0054045,-0.00572434,-0.00615041,-0.00662945,-0.00697139,-0.0069669,-0.00598333,-0.000738021,0.0100857,0.033968,0.0347702,0.0347702,0.0344782,0.0338757,0.0338258,0.00880258,0.00300489,0.000317389,0.00371232,0.00374109,0.0042605,0.00464072,0.00491238,0.00509492,0.00520001,0.00523444,-0.00490497,-0.0049339,-0.00502237,-0.00517594,-0.0054045,-0.00572434,-0.00614897,-0.00659203,-0.006865,-0.00675911,-0.00559024,5.02461e-05,0.010716,0.034293,0.0350768,0.0350768,0.0347968,0.0342196,0.0342895,0.00918614,0.00528775,0.00204724,0.000196818,0.00392876,0.0042605,0.00464072,0.00491238,0.00509492,0.00520001,0.00523444,-0.00490497,-0.0049339,-0.00502237,-0.00517594,-0.0054045,-0.00572434,-0.0061485,-0.0065666,-0.00679918,-0.00662999,-0.0053408,0.000583658,0.0113607,0.0352142,0.036002,0.036002,0.0357244,0.0351522,0.0335869,0.0123829,0.00494654,0.00169615,0.000618622,0.00392924,0.0042605,0.00464072,0.00491238,0.00509492,0.00520001,0.00523444,-0.00490497,-0.0049339,-0.00502237,-0.00517594,-0.0054045,-0.00572434,-0.0061485,-0.00655657,-0.00676946,-0.00657514,-0.00521249,0.000789956,0.0113825,0.0348401,0.0356125,0.0356125,0.0353419,0.0347841,0.0337695,0.0121091,0.00490485,0.00165724,0.000619482,0.00392924,0.0042605,0.00464072,0.00491238,0.00509492,0.00520001,0.00523444,-0.00490497,-0.0049339,-0.00502237,-0.00517594,-0.0054045,-0.00572434,-0.00614897,-0.00656156,-0.00677828,-0.00659089,-0.00523969,0.00075166,0.0113838,0.0349266,0.0357023,0.0357023,0.03543,0.0348695,0.0336906,0.0120607,0.00486354,0.00154157,0.000201065,0.00392876,0.0042605,0.00464072,0.00491238,0.00509492,0.00520001,0.00523444,-0.00490497,-0.0049339,-0.00502237,-0.00517594,-0.0054045,-0.00572434,-0.00615041,-0.0065833,-0.00682769,-0.00667954,-0.00542637,0.000422678,0.0109544,0.0342566,0.0350274,0.0350274,0.0347547,0.0341924,0.0333195,0.0120274,0.00475462,0.00149556,0.00398563,0.00374109,0.0042605,0.00464072,0.00491238,0.00509492,0.00520001,0.00523444,-0.00490497,-0.0049339,-0.00502237,-0.00517594,-0.0054045,-0.00572434,-0.00615293,-0.00662054,-0.00691675,-0.00684156,-0.00569114,-0.000284441,0.00987217,0.0323055,0.0330548,0.0330548,0.0327848,0.032228,0.0324166,0.00950774,0.00482119,0.00155354,0.0034482,0.00374109,0.0042605,0.00464072,0.00491238,0.00509492,0.00520001,0.00523444,-0.00490497,-0.0049339,-0.00502237,-0.00517594,-0.0054045,-0.00572434,-0.00615665,-0.0066707,-0.00704393,-0.00701722,-0.0061201,-0.00238652,0.00492398,0.0209477,0.0215055,0.0215055,0.0212891,0.0208429,0.0275572,0.00379946,0.00317997,-0.000290287,0.00310199,0.00374109,0.0042605,0.00464072,0.00491238,0.00509492,0.00520001,0.00523444,-0.00490497,-0.0049339,-0.00502237,-0.00517594,-0.0054045,-0.00572434,-0.00616133,-0.00672083,-0.00714828,-0.00708678,-0.0065173,-0.00531256,-0.00261873,0.00303512,0.00327781,0.00327781,0.00315332,0.00289677,-0.00245711,0.000641698,0.00359349,7.89098e-05,0.00303897,0.00374109,0.0042605,0.00464072,0.00491238,0.00509492,0.00520001,0.00523444,-0.00490497,-0.0049339,-0.00502237,-0.00517594,-0.0054045,-0.00572434,-0.00616133,-0.00673982,-0.00711177,-0.00695847,-0.00669144,-0.00691381,-0.00738443,-0.00881572,-0.00879226,-0.00879226,-0.00884967,-0.00896793,-0.0106979,-0.0051884,-0.00211272,0.0023618,0.00301525,0.00374109,0.0042605,0.00464072,0.00491238,0.00509492,0.00520001,0.00523444,-0.00490497,-0.0049339,-0.00502237,-0.00517594,-0.0054045,-0.00572434,-0.00616133,-0.00669726,-0.00687147,-0.00679927,-0.00706067,-0.00795571,-0.0094337,-0.0131291,-0.0131702,-0.0131702,-0.0132121,-0.0132981,-0.0142662,-0.0104921,-0.00193002,-0.00342816,0.00288498,0.00374109,0.0042605,0.00464072,0.00491238,0.00509492,0.00520001,0.00523444,-0.00490497,-0.0049339,-0.00502237,-0.00517594,-0.0054045,-0.00572434,-0.00616133,-0.00653018,-0.00656947,-0.00665145,-0.00724385,-0.00830085,-0.0102241,-0.0149451,-0.0150169,-0.0150169,-0.0150499,-0.0151183,-0.0156255,-0.0143249,-0.0108895,-0.000394702,0.00484598,0.00374109,0.0042605,0.00464072,0.00491238,0.00509492,0.00520001,0.00523444,-0.00490497,-0.0049339,-0.00502237,-0.00517594,-0.0054045,-0.00572434,-0.00616133,-0.0062864,-0.0062252,-0.00656267,-0.00758683,-0.00913389,-0.0119704,-0.0187571,-0.018889,-0.018889,-0.0189063,-0.0189424,-0.0192037,-0.0204996,-0.0120516,-0.00070832,-0.00255595,0.00374109,0.0042605,0.00464072,0.00491238,0.00509492,0.00520001,0.00523444,-0.00490497,-0.0049339,-0.00502237,-0.00517594,-0.0054045,-0.00572434,-0.00610398,-0.00607367,-0.00600281,-0.00648374,-0.00774097,-0.00964698,-0.0131252,-0.0213591,-0.0215337,-0.0215337,-0.0215394,-0.0215515,-0.0215706,-0.0224269,-0.0138578,-0.00473091,0.00048499,0.00374109,0.0042605,0.00464072,0.00491238,0.00509492,0.00520001,0.00523444,-0.00490497,-0.0049339,-0.00502237,-0.00517594,-0.0054045,-0.00572434,-0.00602739,-0.00588517,-0.00586514,-0.00647361,-0.00770998,-0.00948467,-0.0127572,-0.0205271,-0.020688,-0.020688,-0.0206975,-0.0207171,-0.0207488,-0.0224331,-0.0164358,-0.00697005,0.0044187,0.00374109,0.0042605,0.00464072,0.00491238,0.00509492,0.00520001,0.00523444,-0.00490497,-0.0049339,-0.00502237,-0.00517594,-0.0054045,-0.00572434,-0.00595135,-0.0057246,-0.00577921,-0.00648359,-0.00768998,-0.00942435,-0.012631,-0.0202525,-0.020409,-0.020409,-0.0204197,-0.0204418,-0.0204767,-0.0218804,-0.0187521,-0.00924304,0.000379147,0.00374109,0.0042605,0.00464072,0.00491238,0.00509492,0.00520001,0.00523444,-0.00490497,-0.0049339,-0.00502237,-0.00517594,-0.0054045,-0.00570462,-0.00581029,-0.00552767,-0.00558207,-0.00628975,-0.00740325,-0.00902334,-0.0120382,-0.0192129,-0.0193586,-0.0193586,-0.0193704,-0.0193943,-0.0194327,-0.0206136,-0.0176623,-0.00757638,0.00143312,0.00633413,0.00461506,0.00464072,0.00491238,0.00509492,0.00520001,0.00523444,-0.00490497,-0.0049339,-0.00502237,-0.00517594,-0.0054045,-0.00568557,-0.00567142,-0.00529985,-0.00524729,-0.00571582,-0.00635673,-0.00729187,-0.00912927,-0.0136029,-0.0136767,-0.0136767,-0.0137021,-0.013754,-0.013836,-0.0150885,-0.0136185,-0.00521576,0.00332718,0.000285825,0.0048807,0.00464072,0.00491238,0.00509492,0.00520001,0.00523444,-0.00490497,-0.0049339,-0.00502237,-0.00517594,-0.0054045,-0.00565786,-0.00559249,-0.00518172,-0.00506392,-0.00516521,-0.00501302,-0.00477013,-0.00459894,-0.00449048,-0.00443786,-0.00443786,-0.00449048,-0.00459894,-0.00477013,-0.00644919,-0.00903185,-0.00380423,-0.000891886,0.000841859,0.00601977,0.00464072,0.00491238,0.00509492,0.00520001,0.00523444,-0.00490497,-0.0049339,-0.00502237,-0.00517594,-0.0054045,-0.00567953,-0.00568615,-0.0053116,-0.00529999,-0.0058211,-0.00656061,-0.00761651,-0.00966176,-0.0146134,-0.0146999,-0.0146999,-0.014723,-0.0147705,-0.0148453,-0.0162426,-0.0142405,-0.00549518,-0.00177741,-6.67358e-05,0.00518968,0.00464072,0.00491238,0.00509492,0.00520001,0.00523444,-0.00490497,-0.0049339,-0.00502237,-0.00517594,-0.0054045,-0.00571718,-0.00586755,-0.005584,-0.00567506,-0.0064272,-0.00759471,-0.00929216,-0.0124367,-0.0199132,-0.0200663,-0.0200663,-0.0200774,-0.0201001,-0.0201357,-0.021548,-0.0183583,-0.00827819,0.00075998,0.00405673,0.0042605,0.00464072,0.00491238,0.00509492,0.00520001,0.00523444,-0.00490497,-0.0049339,-0.00502237,-0.00517594,-0.0054045,-0.00572434,-0.00598702,-0.00572022,-0.00577557,-0.00649026,-0.0077054,-0.00944722,-0.0126532,-0.0202742,-0.0204304,-0.0204304,-0.0204414,-0.020464,-0.0204996,-0.0218859,-0.0191168,-0.00876592,0.00452403,0.00374109,0.0042605,0.00464072,0.00491238,0.00509492,0.00520001,0.00523444,-0.00490497,-0.0049339,-0.00502237,-0.00517594,-0.0054045,-0.00572434,-0.0060816,-0.00588104,-0.00584664,-0.00647906,-0.00772831,-0.00949129,-0.0126957,-0.0203155,-0.0204713,-0.0204713,-0.0204827,-0.0205062,-0.0205436,-0.0221365,-0.0137543,-0.00697607,0.00437385,0.00374109,0.0042605,0.00464072,0.00491238,0.00509492,0.00520001,0.00523444,-0.00490497,-0.0049339,-0.00502237,-0.00517594,-0.0054045,-0.00572434,-0.00616133,-0.00610489,-0.00598927,-0.00649083,-0.00774937,-0.00963113,-0.0130248,-0.0210709,-0.0212393,-0.0212393,-0.0212473,-0.0212635,-0.0214907,-0.0227274,-0.014253,-0.00474475,0.00130371,0.00374109,0.0042605,0.00464072,0.00491238,0.00509492,0.00520001,0.00523444,-0.00490497,-0.0049339,-0.00502237,-0.00517594,-0.0054045,-0.00572434,-0.00616133,-0.00637496,-0.00620489,-0.00652749,-0.00753258,-0.00914205,-0.0120131,-0.0188759,-0.0190099,-0.0190099,-0.0190269,-0.0190613,-0.0195094,-0.0201793,-0.00964622,-0.00505305,0.00488693,0.00374109,0.0042605,0.00464072,0.00491238,0.00509492,0.00520001,0.00523444,-0.00490497,-0.0049339,-0.00502237,-0.00517594,-0.0054045,-0.00572434,-0.00616133,-0.00665089,-0.00656416,-0.0065805,-0.00716705,-0.00837058,-0.0104745,-0.0155751,-0.0156587,-0.0156587,-0.0156882,-0.015749,-0.0164155,-0.0150879,-0.0101243,0.000146413,0.00296282,0.00374109,0.0042605,0.00464072,0.00491238,0.00509492,0.00520001,0.00523444,-0.00490497,-0.0049339,-0.00502237,-0.00517594,-0.0054045,-0.00572434,-0.00616133,-0.00674732,-0.00700449,-0.00673535,-0.00686795,-0.00771299,-0.00913869,-0.0126959,-0.012735,-0.012735,-0.0127758,-0.01286,-0.0140013,-0.00984574,-0.0054721,-0.00379595,0.00287071,0.00374109,0.0042605,0.00464072,0.00491238,0.00509492,0.00520001,0.00523444,-0.00490497,-0.0049339,-0.00502237,-0.00517594,-0.0054045,-0.00572434,-0.00616133,-0.00670095,-0.00717514,-0.00701227,-0.00686913,-0.0074252,-0.008572,-0.0115266,-0.0115486,-0.0115486,-0.0115933,-0.0116856,-0.0111451,-0.00681755,-0.00150322,0.00295095,0.00283456,0.00374109,0.0042605,0.00464072,0.00491238,0.00509492,0.00520001,0.00523444,-0.00490497,-0.0049339,-0.00502237,-0.00517594,-0.0054045,-0.00572434,-0.00616133,-0.00665612,-0.00706065,-0.00706312,-0.00637807,-0.00541296,-0.00326173,0.00118699,0.00139065,0.00139065,0.00127941,0.0010502,-0.00411394,0.000516482,0.0032136,0.00135337,0.00442068,0.00374109,0.0042605,0.00464072,0.00491238,0.00509492,0.00520001,0.00523444,-0.00490497,-0.0049339,-0.00502237,-0.00517594,-0.0054045,-0.00572434,-0.00616133,-0.00659112,-0.00693423,-0.00700028,-0.00612605,-0.00306533,0.00331467,0.0172432,0.017738,0.017738,0.0175392,0.0171296,0.0182763,0.00952751,0.00401676,0.00126778,0.00448173,0.00374109,0.0042605,0.00464072,0.00491238,0.00509492,0.00520001,0.00523444,-0.00490497,-0.0049339,-0.00502237,-0.00517594,-0.0054045,-0.00572434,-0.00615001,-0.00654281,-0.00681346,-0.00678989,-0.00586298,-0.000257805,0.0106632,0.0347875,0.0355923,0.0355923,0.0353023,0.0347049,0.0351444,0.00843499,0.00550223,0.00341925,0.00478025,0.00374109,0.0042605,0.00464072,0.00491238,0.00509492,0.00520001,0.00523444,-0.00490497,-0.0049339,-0.00502237,-0.00517594,-0.0054045,-0.00572434,-0.00613744,-0.00650823,-0.00673348,-0.00664937,-0.00558546,0.000304776,0.011085,0.0349297,0.0357196,0.0357196,0.0354391,0.0348613,0.0339914,0.0111714,0.00528188,0.0028874,0.00482968,0.00374109,0.0042605,0.00464072,0.00491238,0.00509492,0.00520001,0.00523444,-0.00490497,-0.0049339,-0.00502237,-0.00517594,-0.0054045,-0.00572434,-0.00613132,-0.00649033,-0.00669159,-0.00657593,-0.00541694,0.000621115,0.0115486,0.0357366,0.0365348,0.0365348,0.0362535,0.0356741,0.0343211,0.0109996,0.00539794,0.00300102,0.00250246,0.00374109,0.0042605,0.00464072,0.00491238,0.00509492,0.00520001,0.00523444,-0.00490497,-0.0049339,-0.00502237,-0.00517594,-0.0054045,-0.00572434,-0.00613132,-0.00648962,-0.0066875,-0.00656965,-0.00540387,0.000635651,0.011487,0.0355079,0.0363004,0.0363004,0.0360212,0.0354462,0.0343626,0.0110376,0.00545029,0.00305429,0.00250233,0.00374109,0.0042605,0.00464072,0.00491238,0.00509492,0.00520001,0.00523444,-0.00490497,-0.0049339,-0.00502237,-0.00517594,-0.0054045,-0.00572434,-0.00613744,-0.00650547,-0.00672122,-0.00662707,-0.00554099,0.000384776,0.0113321,0.0355508,0.0363524,0.0363524,0.0360683,0.0354829,0.0341608,0.0113098,0.00544103,0.00310573,0.00219362,0.00374109,0.0042605,0.00464072,0.00491238,0.00509492,0.00520001,0.00523444,-0.00490497,-0.0049339,-0.00502237,-0.00517594,-0.0054045,-0.00572434,-0.00615001,-0.00653888,-0.00679296,-0.00674928,-0.005784,-0.000207208,0.010634,0.0345846,0.0353834,0.0353834,0.035096,0.034504,0.0350281,0.00819655,0.00582315,0.00344025,0.00218085,0.00374109,0.0042605,0.00464072,0.00491238,0.00509492,0.00520001,0.00523444,-0.00490497,-0.0049339,-0.00502237,-0.00517594,-0.0054045,-0.00572434,-0.00616133,-0.00659053,-0.00690524,-0.00694477,-0.00616869,-0.00103035,0.0100241,0.0343997,0.0352213,0.0352213,0.0349198,0.0342992,0.0347445,0.00779683,0.00344833,0.00167601,0.00460998,0.00374109,0.0042605,0.00464072,0.00491238,0.00509492,0.00520001,0.00523444,-0.00490497,-0.0049339,-0.00502237,-0.00517594,-0.0054045,-0.00572434,-0.00616133,-0.00665739,-0.00702633,-0.00718712,-0.00664998,-0.00231764,0.00874577,0.0330684,0.0339014,0.0339014,0.0335869,0.0329392,0.0143308,0.00561527,0.00320539,0.00157203,0.00458505,0.00374109,0.0042605,0.00464072,0.00491238,0.00509492,0.00520001,0.00523444,-0.00490497,-0.0049339,-0.00502237,-0.00517594,-0.0054045,-0.00572434,-0.00616133,-0.00669821,-0.0071847,-0.00749153,-0.00719571,-0.00405682,0.00696056,0.0310833,0.0319277,0.0319277,0.0315966,0.0309152,0.0113756,0.0057387,0.00225137,0.0029825,0.00303391,0.00374109,0.0042605,0.00464072,0.00491238,0.00509492,0.00520001,0.00523444,-0.00490497,-0.0049339,-0.00502237,-0.00517594,-0.0054045,-0.00572434,-0.00616133,-0.00674732,-0.00733541,-0.00779883,-0.00785177,-0.0060684,0.0020576,0.0199953,0.0206562,0.0206562,0.0203756,0.0197977,0.00759067,0.00367213,0.00185528,0.00123487,0.00303391,0.00374109,0.0042605,0.00464072,0.00491238,0.00509492,0.00520001,0.00523444,-0.00490497,-0.0049339,-0.00502237,-0.00517594,-0.0054045,-0.00572434,-0.00616133,-0.00675623,-0.00747769,-0.00812239,-0.00850271,-0.00763036,-0.00355021,0.00538337,0.00576064,0.00576064,0.0055704,0.00517846,0.00431932,0.000877235,0.000491154,-0.000501469,0.00303391,0.00374109,0.0042605,0.00464072,0.00491238,0.00509492,0.00520001,0.00523444,-0.00490497,-0.0049339,-0.00502237,-0.00517594,-0.0054045,-0.00572434,-0.00616133,-0.00675623,-0.00756866,-0.00843253,-0.00916657,-0.00937821,-0.00883539,-0.00810034,-0.00797909,-0.00797909,-0.00808921,-0.00831591,-0.00339598,-0.000681159,-0.000525965,0.00205876,0.00303391,0.00374109,0.0042605,0.00464072,0.00491238,0.00509492,0.00520001,0.00523444,-0.00490497,-0.0049339,-0.00502237,-0.00517594,-0.0054045,-0.00572434,-0.00616133,-0.00675623,-0.00757662,-0.00866181,-0.00976361,-0.0110431,-0.0134591,-0.0194734,-0.0195602,-0.0195602,-0.0196072,-0.0197042,-0.0079039,-0.00232635,-0.00183874,0.00205876,0.00303391,0.00374109,0.0042605,0.00464072,0.00491238,0.00509492,0.00520001,0.00523444,-0.00490497,-0.0049339,-0.00502237,-0.00517594,-0.0054045,-0.00572434,-0.00616133,-0.00675623,-0.00757662,-0.00874028,-0.0105603,-0.013715,-0.0189363,-0.0312491,-0.0315177,-0.0315177,-0.0315186,-0.0315209,-0.0194592,-0.00523837,0.000548963,0.00202553,0.00303391,0.00374109,0.0042605,0.00464072,0.00491238,0.00509492,0.00520001,0.00523444,-0.00490497,-0.0049339,-0.00502237,-0.00517594,-0.0054045,-0.00572434,-0.00616133,-0.00675623,-0.00757662,-0.00874028,-0.010894,-0.0152669,-0.0227544,-0.0401453,-0.0405667,-0.0405667,-0.0405241,-0.040436,-0.0257589,-0.00599042,0.000548963,0.00202553,0.00303391,0.00374109,0.0042605,0.00464072,0.00491238,0.00509492,0.00520001,0.00523444,-0.00490497,-0.0049339,-0.00502237,-0.00517594,-0.0054045,-0.00572434,-0.00616133,-0.00675623,-0.00757662,-0.00874028,-0.0110604,-0.0151751,-0.0220343,-0.0380323,-0.0384084,-0.0384084,-0.0383813,-0.038326,-0.0377651,-0.0088976,0.000483376,0.00199356,0.00303391,0.00374109,0.0042605,0.00464072,0.00491238,0.00509492,0.00520001,0.00523444,-0.00490497,-0.0049339,-0.00502237,-0.00517594,-0.0054045,-0.00572434,-0.00616133,-0.00675623,-0.00757662,-0.00874213,-0.0112016,-0.0152956,-0.0222122,-0.0382723,-0.0386489,-0.0386489,-0.0386226,-0.0385692,-0.0382932,-0.0115292,0.000483376,0.00199356,0.00303391,0.00374109,0.0042605,0.00464072,0.00491238,0.00509492,0.00520001,0.00523444,-0.00490497,-0.0049339,-0.00502237,-0.00517594,-0.0054045,-0.00572434,-0.00616133,-0.00675623,-0.00757662,-0.00875851,-0.0112958,-0.0153264,-0.022361,-0.0387282,-0.0391148,-0.0391148,-0.0390855,-0.0390245,-0.0383495,-0.0115397,0.000483376,0.00199356,0.00303391,0.00374109,0.0042605,0.00464072,0.00491238,0.00509492,0.00520001,0.00523444,]