[0.021416,0.0215424,0.0219287,0.022599,0.023597,0.0249938,0.0269015,0.0294989,0.0330807,0.0381968,0.0465867,0.0391041,0.0221065,-0.0132164,-0.0147935,-0.0147935,-0.0139522,-0.0122186,-0.00390377,0.0195773,0.011487,0.00714968,0.00401992,0.00129562,-0.000705254,-0.00217019,-0.00321687,-0.00391993,-0.00432521,-0.00445765,0.021416,0.0215424,0.0219287,0.022599,0.023597,0.0249938,0.0269015,0.0294989,0.0330807,0.0381928,0.046586,0.0397329,0.022792,-0.012342,-0.0139191,-0.0139191,-0.0130733,-0.0113308,-0.00322793,0.019562,0.011487,0.00714968,0.00401992,0.00129562,-0.000705254,-0.00217019,-0.00321687,-0.00391993,-0.00432521,-0.00445765,0.021416,0.0215424,0.0219287,0.022599,0.023597,0.0249938,0.0269015,0.0294989,0.0330807,0.0381865,0.0465032,0.0411998,0.0241643,-0.0111369,-0.0127348,-0.0127348,-0.0118711,-0.0100914,-0.00154992,0.0193757,0.011722,0.00714968,0.00401992,0.00129562,-0.000705254,-0.00217019,-0.00321687,-0.00391993,-0.00432521,-0.00445765,0.021416,0.0215424,0.0219287,0.022599,0.023597,0.0249938,0.0269015,0.0294989,0.0330807,0.0381714,0.0460964,0.042416,0.0248196,-0.011659,-0.0133086,-0.0133086,-0.0124178,-0.0105822,-0.00431225,0.0194466,0.011722,0.00741557,0.00401992,0.00129562,-0.000705254,-0.00217019,-0.00321687,-0.00391993,-0.00432521,-0.00445765,0.021416,0.0215424,0.0219287,0.022599,0.023597,0.0249938,0.0269015,0.0294989,0.0330807,0.0379899,0.0447871,0.0422052,0.024502,-0.0122344,-0.0138904,-0.0138904,-0.0129987,-0.0111614,0.0160381,0.0189346,0.011722,0.00741557,0.00401992,0.00129562,-0.000705254,-0.00217019,-0.00321687,-0.00391993,-0.00432521,-0.00445765,0.021416,0.0215424,0.0219287,0.022599,0.023597,0.0249938,0.0269015,0.0294989,0.0330297,0.0375095,0.0421317,0.0420691,0.0254043,-0.00923405,-0.0108198,-0.0108198,-0.00995358,-0.00816884,0.0163341,0.00847649,0.0120749,0.00777677,0.00401992,0.00129562,-0.000705254,-0.00217019,-0.00321687,-0.00391993,-0.00432521,-0.00445765,0.021416,0.0215424,0.0219287,0.022599,0.023597,0.0249938,0.0269015,0.0294989,0.0327938,0.0361843,0.0399695,0.040017,0.0243506,-0.00904799,-0.0105754,-0.0105754,-0.0097418,-0.0080242,0.00773574,0.00526297,0.00254545,0.00777754,0.00401992,0.00129562,-0.000705254,-0.00217019,-0.00321687,-0.00391993,-0.00432521,-0.00445765,0.021416,0.0215424,0.0219287,0.022599,0.023597,0.0249938,0.0269015,0.0294075,0.0323304,0.0350351,0.0373705,0.0351864,0.0190868,-0.0159957,-0.0175316,-0.0175316,-0.0167277,-0.0150712,0.00148606,0.00254418,0.000891983,0.00760948,0.00401992,0.00129562,-0.000705254,-0.00217019,-0.00321687,-0.00391993,-0.00432521,-0.00445765,0.021416,0.0215424,0.0219287,0.022599,0.023597,0.0249938,0.0269015,0.0292713,0.0315626,0.0338174,0.0344434,0.0294476,0.0144782,-0.016846,-0.0181904,-0.0181904,-0.0175009,-0.0160803,-0.00459448,-0.000421442,0.000361429,-0.0024357,0.00405518,0.00129562,-0.000705254,-0.00217019,-0.00321687,-0.00391993,-0.00432521,-0.00445765,0.021416,0.0215424,0.0219287,0.022599,0.023597,0.0249938,0.0269015,0.0291067,0.0309942,0.0325327,0.0316715,0.0241222,0.00959426,-0.0209866,-0.0222514,-0.0222514,-0.0216284,-0.0203448,-0.0115792,-0.0014726,-0.00136252,-0.00261708,0.00395461,0.00129562,-0.000705254,-0.00217019,-0.00321687,-0.00391993,-0.00432521,-0.00445765,0.021416,0.0215424,0.0219287,0.022599,0.023597,0.0249938,0.0268262,0.0287604,0.030394,0.031321,0.0294023,0.0204819,0.00625458,-0.0240275,-0.0252455,-0.0252455,-0.0246645,-0.0234675,-0.0173803,-0.00445669,-0.00202289,-0.00397427,0.00388067,0.00129562,-0.000705254,-0.00217019,-0.00321687,-0.00391993,-0.00432521,-0.00445765,0.021416,0.0215424,0.0219287,0.022599,0.023597,0.0249938,0.026766,0.0285016,0.0298798,0.0301404,0.027276,0.0180658,0.00413791,-0.0256254,-0.0268016,-0.0268016,-0.0262528,-0.025122,-0.0232812,-0.00619659,-0.00452204,-0.00469565,0.00382769,0.00129562,-0.000705254,-0.00217019,-0.00321687,-0.00391993,-0.00432521,-0.00445765,0.021416,0.0215424,0.0219287,0.022599,0.023597,0.0249938,0.0267254,0.0282971,0.0294233,0.0292675,0.025669,0.0164264,0.00267877,-0.0267786,-0.0279279,-0.0279279,-0.0274003,-0.0263133,-0.0236877,-0.00973478,-0.00497825,-0.00480163,0.00397178,0.00129562,-0.000705254,-0.00217019,-0.00321687,-0.00391993,-0.00432521,-0.00445765,0.021416,0.0215424,0.0219287,0.022599,0.023597,0.0249938,0.0267021,0.0281982,0.0291029,0.0286403,0.0245356,0.0153331,0.00153259,-0.0281036,-0.0292472,-0.0292472,-0.0287296,-0.0276624,-0.0248801,-0.0107532,-0.00553531,-0.00493186,-0.00614199,0.00134086,-0.000705254,-0.00217019,-0.00321687,-0.00391993,-0.00432521,-0.00445765,0.021416,0.0215424,0.0219287,0.022599,0.023597,0.0249938,0.0266944,0.0281311,0.0289548,0.0283252,0.023958,0.0148609,0.00117519,-0.0282336,-0.0293652,-0.0293652,-0.0288549,-0.0278038,-0.0262078,-0.0111285,-0.00605472,-0.00531253,-0.00606256,0.00133321,-0.000705254,-0.00217019,-0.00321687,-0.00391993,-0.00432521,-0.00445765,0.021416,0.0215424,0.0219287,0.022599,0.023597,0.0249938,0.0266944,0.0281264,0.0289135,0.0282743,0.0238444,0.0147878,0.000982066,-0.0286963,-0.0298359,-0.0298359,-0.0293235,-0.0282674,-0.0264283,-0.0114815,-0.0063564,-0.00546852,-0.00604569,0.00133321,-0.000705254,-0.00217019,-0.00321687,-0.00391993,-0.00432521,-0.00445765,0.021416,0.0215424,0.0219287,0.022599,0.023597,0.0249938,0.0267021,0.0281861,0.0290042,0.0284715,0.0241745,0.0151589,0.00137015,-0.0282499,-0.0293912,-0.0293912,-0.0288756,-0.0278125,-0.0261932,-0.011346,-0.00633479,-0.00571949,-0.0061148,0.00134086,-0.000705254,-0.00217019,-0.00321687,-0.00391993,-0.00432521,-0.00445765,0.021416,0.0215424,0.0219287,0.022599,0.023597,0.0249938,0.0267254,0.0283375,0.0292774,0.0289559,0.0250179,0.0160792,0.00216494,-0.0276806,-0.0288389,-0.0288389,-0.0283104,-0.0272216,-0.0254511,-0.0108293,-0.0061565,-0.00558066,0.00412578,0.00129562,-0.000705254,-0.00217019,-0.00321687,-0.00391993,-0.00432521,-0.00445765,0.021416,0.0215424,0.0219287,0.022599,0.023597,0.0249938,0.026766,0.0285938,0.0297157,0.0297258,0.0255748,0.0168545,0.00422296,-0.0227431,-0.0238134,-0.0238134,-0.0233112,-0.0222758,-0.0199183,-0.0075299,-0.00560512,-0.00529859,0.00379581,0.00129562,-0.000705254,-0.00217019,-0.00321687,-0.00391993,-0.00432521,-0.00445765,0.021416,0.0215424,0.0219287,0.022599,0.023597,0.0249938,0.0268262,0.0289281,0.0302591,0.0296225,0.0246766,0.0182815,0.00992727,-0.00750449,-0.00827234,-0.00827234,-0.007868,-0.00703487,-0.00492883,-0.00449399,-0.00343574,-0.00534755,0.00347877,0.00129562,-0.000705254,-0.00217019,-0.00321687,-0.00391993,-0.00432521,-0.00445765,0.021416,0.0215424,0.0219287,0.022599,0.023597,0.0249938,0.0269015,0.0291546,0.0305239,0.0274685,0.0229448,0.0173587,0.0104302,-0.00390228,-0.00455756,-0.00455756,-0.00420005,-0.00346334,-0.00334599,-0.00232318,-0.00441034,-0.00376147,0.00339861,0.00129562,-0.000705254,-0.00217019,-0.00321687,-0.00391993,-0.00432521,-0.00445765,0.021416,0.0215424,0.0219287,0.022599,0.023597,0.0249938,0.0269015,0.0292985,0.0284454,0.0254097,0.0206714,0.0159091,0.010088,-0.00187846,-0.00244012,-0.00244012,-0.00212639,-0.00147993,-0.00142651,-0.00032523,-0.000730593,-0.00321617,0.00345185,0.00129562,-0.000705254,-0.00217019,-0.00321687,-0.00391993,-0.00432521,-0.00445765,0.021416,0.0215424,0.0219287,0.022599,0.023597,0.0249938,0.0269015,0.028469,0.0263693,0.0223705,0.0181895,0.0140675,0.00870183,-0.00231692,-0.00282792,-0.00282792,-0.00254552,-0.00196365,-0.00162438,-0.00100133,-0.000417534,0.00732588,0.00360165,0.00129562,-0.000705254,-0.00217019,-0.00321687,-0.00391993,-0.00432521,-0.00445765,0.021416,0.0215424,0.0219287,0.022599,0.023597,0.0249938,0.0269015,0.0263784,0.0233421,0.0194302,0.0159984,0.0126237,0.00811764,-0.00112834,-0.00156573,-0.00156573,-0.00131975,-0.000812906,-0.000334734,-2.15976e-05,0.00156177,0.00635484,0.00415739,0.00129562,-0.000705254,-0.00217019,-0.00321687,-0.00391993,-0.00432521,-0.00445765,0.021416,0.0215424,0.0219287,0.022599,0.023597,0.0249938,0.0269015,0.0245632,0.0207709,0.017307,0.014413,0.011518,0.00757263,-0.000496739,-0.000883603,-0.000883603,-0.000663525,-0.000210095,0.000320282,0.00067529,0.00643963,0.00624796,0.00622567,0.00129562,-0.000705254,-0.00217019,-0.00321687,-0.00391993,-0.00432521,-0.00445765,0.021416,0.0215424,0.0219287,0.022599,0.023597,0.0249938,0.0259856,0.022831,0.0189149,0.0158341,0.013605,0.0114909,0.00871168,0.00321848,0.00291759,0.00291759,0.0031067,0.00349635,0.00411116,0.00524725,0.00529123,0.00694909,0.00618363,0.00129562,-0.000705254,-0.00217019,-0.00321687,-0.00391993,-0.00432521,-0.00445765,0.021416,0.0215424,0.0219287,0.022599,0.023597,0.0249938,0.0249257,0.0214071,0.0176109,0.0148065,0.0127554,0.0108945,0.00845922,0.00369266,0.00342211,0.00342211,0.00359612,0.00395473,0.00452054,0.00434452,0.00468071,0.0062293,0.00688443,0.00129562,-0.000705254,-0.00217019,-0.00321687,-0.00391993,-0.00432521,-0.00445765,0.021416,0.0215424,0.0219287,0.022599,0.023597,0.0249938,0.0242162,0.0203192,0.016716,0.0141223,0.0121634,0.0104071,0.00810633,0.0036096,0.00335301,0.00335301,0.00351858,0.00385975,0.00439803,0.00407494,0.00447847,0.00597558,0.00641394,0.00129562,-0.000705254,-0.00217019,-0.00321687,-0.00391993,-0.00432521,-0.00445765,0.021416,0.0215424,0.0219287,0.022599,0.023597,0.0249994,0.0237001,0.0196627,0.0161963,0.0137561,0.0118789,0.0101848,0.00795392,0.00359902,0.00334946,0.00334946,0.00351093,0.00384369,0.0043687,0.00420342,0.00451866,0.00611295,0.00615578,0.00193165,-0.000609728,-0.00217019,-0.00321687,-0.00391993,-0.00432521,-0.00445765,0.021416,0.0215424,0.0219287,0.022599,0.023597,0.0250054,0.023427,0.0193722,0.0160325,0.013789,0.0121874,0.01086,0.00924448,0.00628798,0.00607797,0.00607797,0.0062301,0.00654348,0.00703799,0.00681239,0.00653871,0.00663667,0.00649867,0.00558962,-0.000524597,-0.00217019,-0.00321687,-0.00391993,-0.00432521,-0.00445765,0.021416,0.0215424,0.0219287,0.022599,0.023597,0.0250142,0.0233671,0.0192993,0.0160219,0.0140099,0.0128833,0.0122486,0.0118091,0.0115306,0.0113954,0.0113954,0.0115306,0.0118091,0.0122486,0.0118114,0.00884913,0.00711475,0.0089389,0.00575396,-0.000163535,-0.00217019,-0.00321687,-0.00391993,-0.00432521,-0.00445765,0.021416,0.0215424,0.0219287,0.022599,0.023597,0.0250073,0.0234779,0.019389,0.0160306,0.0137596,0.0120899,0.0106835,0.00893441,0.00567272,0.00545434,0.00545434,0.00560822,0.00592519,0.00642541,0.00614661,0.00622692,0.00661707,0.00878239,0.00561208,-0.000427552,-0.00217019,-0.00321687,-0.00391993,-0.00432521,-0.00445765,0.021416,0.0215424,0.0219287,0.022599,0.023597,0.024996,0.0238764,0.0197664,0.0162869,0.0138201,0.0119204,0.0101917,0.00791964,0.00347425,0.00322159,0.00322159,0.00338423,0.00371937,0.00424815,0.00389036,0.0043617,0.0059407,0.00614369,0.00139476,-0.000705254,-0.00217019,-0.00321687,-0.00391993,-0.00432521,-0.00445765,0.021416,0.0215424,0.0219287,0.022599,0.023597,0.0249938,0.0246453,0.0205583,0.0169358,0.0143174,0.0123434,0.0105627,0.00825638,0.00375611,0.0034978,0.0034978,0.0036651,0.00400979,0.00455368,0.0042581,0.0044384,0.00629271,0.00632341,0.00129562,-0.000705254,-0.00217019,-0.00321687,-0.00391993,-0.00432521,-0.00445765,0.021416,0.0215424,0.0219287,0.022599,0.023597,0.0249938,0.0257469,0.0217717,0.0179336,0.0151005,0.0130314,0.0111807,0.0088521,0.00433775,0.00407262,0.00407262,0.00424673,0.0046055,0.00517154,0.00479463,0.00443822,0.00646459,0.00732218,0.00129562,-0.000705254,-0.00217019,-0.00321687,-0.00391993,-0.00432521,-0.00445765,0.021416,0.0215424,0.0219287,0.022599,0.023597,0.0249938,0.0269015,0.0234764,0.0193855,0.0162533,0.014013,0.0119584,0.00935254,0.00426946,0.00397739,0.00397739,0.00416667,0.00455662,0.00499111,0.00548096,0.00556067,0.00735102,0.00757762,0.00129562,-0.000705254,-0.00217019,-0.00321687,-0.00391993,-0.00432521,-0.00445765,0.021416,0.0215424,0.0219287,0.022599,0.023597,0.0249938,0.0269015,0.0254566,0.0213889,0.0178966,0.0150102,0.0120593,0.00811361,7.43961e-05,-0.00031704,-0.00031704,-9.15042e-05,0.000373206,0.000779676,0.00223229,0.00658525,0.0093386,0.00426469,0.00129562,-0.000705254,-0.00217019,-0.00321687,-0.00391993,-0.00432521,-0.00445765,0.021416,0.0215424,0.0219287,0.022599,0.023597,0.0249938,0.0269015,0.028125,0.0241979,0.0201607,0.0165981,0.0129508,0.00804484,-0.00202535,-0.0024933,-0.0024933,-0.00223419,-0.00170032,-0.0012898,-0.000581037,0.0029548,0.0079029,0.00383061,0.00129562,-0.000705254,-0.00217019,-0.00321687,-0.00391993,-0.00432521,-0.00445765,0.021416,0.0215424,0.0219287,0.022599,0.023597,0.0249938,0.0269015,0.0294952,0.0277917,0.0233982,0.0191609,0.0148942,0.00930729,-0.00215021,-0.00268424,-0.00268424,-0.00238775,-0.00177679,-0.00149756,-0.000525068,0.0035446,0.00953328,0.00354778,0.00129562,-0.000705254,-0.00217019,-0.00321687,-0.00391993,-0.00432521,-0.00445765,0.021416,0.0215424,0.0219287,0.022599,0.023597,0.0249938,0.0269015,0.0294759,0.0317105,0.0271358,0.0220705,0.0168969,0.0103679,-0.00310727,-0.00372931,-0.00372931,-0.00338697,-0.0026816,-0.00263103,-0.00110224,0.000987931,0.000283093,0.00341954,0.00129562,-0.000705254,-0.00217019,-0.00321687,-0.00391993,-0.00432521,-0.00445765,0.021416,0.0215424,0.0219287,0.022599,0.023597,0.0249938,0.0269015,0.0293333,0.0316896,0.0312881,0.0252685,0.0189372,0.0108082,-0.00608791,-0.0068447,-0.0068447,-0.00643963,-0.00560508,-0.00562584,-0.00318488,-0.0025475,-0.000729362,0.00375204,0.00129562,-0.000705254,-0.00217019,-0.00321687,-0.00391993,-0.00432521,-0.00445765,0.021416,0.0215424,0.0219287,0.022599,0.023597,0.0249938,0.0269015,0.0291818,0.0311267,0.031957,0.0283065,0.0202194,0.00894773,-0.0148225,-0.0158211,-0.0158211,-0.0153205,-0.0142889,-0.0117487,-0.00561268,-0.00285395,-0.001993,0.00383684,0.00129562,-0.000705254,-0.00217019,-0.00321687,-0.00391993,-0.00432521,-0.00445765,0.021416,0.0215424,0.0219287,0.022599,0.023597,0.0249938,0.0268968,0.029073,0.0306528,0.0310493,0.0281177,0.0188733,0.0045103,-0.0261691,-0.027384,-0.027384,-0.0268154,-0.0256442,-0.0230046,-0.00781803,-0.00512711,-0.00270931,0.00413985,0.00129562,-0.000705254,-0.00217019,-0.00321687,-0.00391993,-0.00432521,-0.00445765,0.021416,0.0215424,0.0219287,0.022599,0.023597,0.0249938,0.0268917,0.0289363,0.030342,0.0303632,0.0268729,0.0174609,0.00309127,-0.0276827,-0.028886,-0.028886,-0.0283316,-0.0271893,-0.0252354,-0.0111872,-0.00566009,-0.00496502,0.00422379,0.00129562,-0.000705254,-0.00217019,-0.00321687,-0.00391993,-0.00432521,-0.00445765,0.021416,0.0215424,0.0219287,0.022599,0.023597,0.0249938,0.0268891,0.0288499,0.0301486,0.0299616,0.0261019,0.0167013,0.00248715,-0.0279861,-0.0291719,-0.0291719,-0.0286293,-0.0275109,-0.0259169,-0.0116798,-0.00572313,-0.00481929,-0.00252394,0.00129562,-0.000705254,-0.00217019,-0.00321687,-0.00391993,-0.00432521,-0.00445765,0.021416,0.0215424,0.0219287,0.022599,0.023597,0.0249938,0.0268891,0.0288339,0.0301018,0.0298723,0.0258875,0.0165032,0.00222979,-0.0283857,-0.0295743,-0.0295743,-0.0290319,-0.0279147,-0.0260316,-0.0117179,-0.00563536,-0.00467608,-0.00252625,0.00129562,-0.000705254,-0.00217019,-0.00321687,-0.00391993,-0.00432521,-0.00445765,0.021416,0.0215424,0.0219287,0.022599,0.023597,0.0249938,0.0268917,0.0288789,0.030204,0.0300368,0.0261441,0.0168049,0.00258761,-0.0278866,-0.0290734,-0.0290734,-0.0285297,-0.0274093,-0.0255257,-0.0113062,-0.00543556,-0.00440843,-0.00268163,0.00129562,-0.000705254,-0.00217019,-0.00321687,-0.00391993,-0.00432521,-0.00445765,0.021416,0.0215424,0.0219287,0.022599,0.023597,0.0249938,0.0268968,0.0289873,0.0304292,0.0304503,0.0268673,0.0175762,0.0032339,-0.0274729,-0.0286753,-0.0286753,-0.0281204,-0.0269774,-0.0230578,-0.0102977,-0.00442765,-0.00404556,-0.00264673,0.00129562,-0.000705254,-0.00217019,-0.00321687,-0.00391993,-0.00432521,-0.00445765,0.021416,0.0215424,0.0219287,0.022599,0.023597,0.0249938,0.0269015,0.0291403,0.0307913,0.0311481,0.028137,0.0190491,0.00477745,-0.0256901,-0.0268996,-0.0268996,-0.0263318,-0.0251617,-0.021251,-0.00928868,-0.0041602,-0.00293307,0.00424792,0.00129562,-0.000705254,-0.00217019,-0.00321687,-0.00391993,-0.00432521,-0.00445765,0.021416,0.0215424,0.0219287,0.022599,0.023597,0.0249938,0.0269015,0.0293079,0.0312391,0.0320572,0.0299234,0.021178,0.00674223,-0.0239672,-0.0252069,-0.0252069,-0.0246131,-0.0233901,-0.0207819,-0.00547173,-0.00327295,-0.000777652,0.0042583,0.00129562,-0.000705254,-0.00217019,-0.00321687,-0.00391993,-0.00432521,-0.00445765,0.021416,0.0215424,0.0219287,0.022599,0.023597,0.0249938,0.0269015,0.0294273,0.0317869,0.0331691,0.0321517,0.0242085,0.00947632,-0.0217173,-0.0230038,-0.0230038,-0.0223718,-0.0210697,-0.0171852,-0.00270137,-0.000546425,0.000273956,0.00401992,0.00129562,-0.000705254,-0.00217019,-0.00321687,-0.00391993,-0.00432521,-0.00445765,0.021416,0.0215424,0.0219287,0.022599,0.023597,0.0249938,0.0269015,0.0294952,0.0323748,0.0345829,0.0347005,0.0283327,0.0133416,-0.0184469,-0.0197969,-0.0197969,-0.0191121,-0.0177013,-0.0102804,0.000660109,0.00107313,0.00128487,0.00401992,0.00129562,-0.000705254,-0.00217019,-0.00321687,-0.00391993,-0.00432521,-0.00445765,0.021416,0.0215424,0.0219287,0.022599,0.023597,0.0249938,0.0269015,0.0294989,0.0328343,0.0358472,0.0373274,0.0337242,0.0189626,-0.0132428,-0.0146681,-0.0146681,-0.0139141,-0.0123607,-0.00256638,0.00211872,0.00455016,0.00108414,0.00401992,0.00129562,-0.000705254,-0.00217019,-0.00321687,-0.00391993,-0.00432521,-0.00445765,0.021416,0.0215424,0.0219287,0.022599,0.023597,0.0249938,0.0269015,0.0294989,0.0330774,0.0370441,0.0401427,0.0397344,0.0216345,-0.0182201,-0.0199644,-0.0199644,-0.0190518,-0.0171711,0.00503371,0.00546456,0.00502036,0.00777677,0.00401992,0.00129562,-0.000705254,-0.00217019,-0.00321687,-0.00391993,-0.00432521,-0.00445765,0.021416,0.0215424,0.0219287,0.022599,0.023597,0.0249938,0.0269015,0.0294989,0.0330807,0.0379132,0.0429,0.0433837,0.025494,-0.0114994,-0.0131757,-0.0131757,-0.0122687,-0.0103999,0.0112785,0.00855285,0.00609672,0.00777677,0.00401992,0.00129562,-0.000705254,-0.00217019,-0.00321687,-0.00391993,-0.00432521,-0.00445765,0.021416,0.0215424,0.0219287,0.022599,0.023597,0.0249938,0.0269015,0.0294989,0.0330807,0.0381623,0.0450633,0.0445145,0.0259997,-0.0124035,-0.0141387,-0.0141387,-0.0132022,-0.0112728,0.0191397,0.0121524,0.011999,0.00741557,0.00401992,0.00129562,-0.000705254,-0.00217019,-0.00321687,-0.00391993,-0.00432521,-0.00445765,0.021416,0.0215424,0.0219287,0.022599,0.023597,0.0249938,0.0269015,0.0294989,0.0330807,0.0381623,0.0461211,0.0434995,0.0245119,-0.0149821,-0.0167432,-0.0167432,-0.0158048,-0.0138712,-0.00177986,0.0190354,0.011999,0.00741557,0.00401992,0.00129562,-0.000705254,-0.00217019,-0.00321687,-0.00391993,-0.00432521,-0.00445765,0.021416,0.0215424,0.0219287,0.022599,0.023597,0.0249938,0.0269015,0.0294989,0.0330807,0.0381623,0.0463476,0.0418352,0.0244765,-0.0115098,-0.0131371,-0.0131371,-0.0122583,-0.0104477,-0.00201625,0.0191634,0.011487,0.00714968,0.00401992,0.00129562,-0.000705254,-0.00217019,-0.00321687,-0.00391993,-0.00432521,-0.00445765,0.021416,0.0215424,0.0219287,0.022599,0.023597,0.0249938,0.0269015,0.0294989,0.0330807,0.0381644,0.0464882,0.0401146,0.0231667,-0.0119688,-0.01355,-0.01355,-0.0127,-0.0109488,-0.00273418,0.0193962,0.011487,0.00714968,0.00401992,0.00129562,-0.000705254,-0.00217019,-0.00321687,-0.00391993,-0.00432521,-0.00445765,0.021416,0.0215424,0.0219287,0.022599,0.023597,0.0249938,0.0269015,0.0294989,0.0330807,0.0381883,0.0465546,0.0392046,0.0222049,-0.0131238,-0.0147021,-0.0147021,-0.0138597,-0.0121237,-0.0037501,0.0195614,0.011487,0.00714968,0.00401992,0.00129562,-0.000705254,-0.00217019,-0.00321687,-0.00391993,-0.00432521,-0.00445765,]