[-0.00513125,-0.00516152,-0.00525406,-0.00541467,-0.00565378,-0.00598849,-0.00644564,-0.00706803,-0.00792627,-0.00911762,-0.00988339,0.00111638,0.0238297,0.0741793,0.0758429,0.0758429,0.0752551,0.0740441,0.0265649,0.0248622,0.00607166,-0.00613327,-0.0134178,-0.013027,-0.0127399,-0.0125299,-0.0123797,-0.0122789,-0.0122208,-0.0122017,-0.00513125,-0.00516152,-0.00525406,-0.00541467,-0.00565378,-0.00598849,-0.00644564,-0.00706803,-0.00792627,-0.00912346,-0.00995045,0.000687379,0.023643,0.0745925,0.0762813,0.0762813,0.075681,0.0744453,0.026428,0.0248375,0.00607166,-0.00613327,-0.0134178,-0.013027,-0.0127399,-0.0125299,-0.0123797,-0.0122789,-0.0122208,-0.0122017,-0.00513125,-0.00516152,-0.00525406,-0.00541467,-0.00565378,-0.00598849,-0.00644564,-0.00706803,-0.00792627,-0.00912761,-0.0100797,-0.000367273,0.0225238,0.0731573,0.0748451,0.0748451,0.0742384,0.0729875,0.0215326,0.0206136,0.00266664,-0.00613327,-0.0134178,-0.013027,-0.0127399,-0.0125299,-0.0123797,-0.0122789,-0.0122208,-0.0122017,-0.00513125,-0.00516152,-0.00525406,-0.00541467,-0.00565378,-0.00598849,-0.00644564,-0.00706803,-0.00792627,-0.0091376,-0.0102419,-0.00270709,0.0177785,0.062954,0.064485,0.064485,0.0639178,0.0627489,0.0202045,0.0147231,0.00266664,-0.0099438,-0.0134178,-0.013027,-0.0127399,-0.0125299,-0.0123797,-0.0122789,-0.0122208,-0.0122017,-0.00513125,-0.00516152,-0.00525406,-0.00541467,-0.00565378,-0.00598849,-0.00644564,-0.00706803,-0.00792627,-0.00912141,-0.0103717,-0.00666161,0.00874929,0.042464,0.0436544,0.0436544,0.0431812,0.042206,0.0237094,0.0112608,0.00266664,-0.0099438,-0.0134178,-0.013027,-0.0127399,-0.0125299,-0.0123797,-0.0122789,-0.0122208,-0.0122017,-0.00513125,-0.00516152,-0.00525406,-0.00541467,-0.00565378,-0.00598849,-0.00644564,-0.00706803,-0.00791968,-0.00905912,-0.010749,-0.00753868,0.00699752,0.0391215,0.0402695,0.0402695,0.0398037,0.0388445,0.023543,0.0206613,-0.00396459,-0.0139565,-0.0134178,-0.013027,-0.0127399,-0.0125299,-0.0123797,-0.0122789,-0.0122208,-0.0122017,-0.00513125,-0.00516152,-0.00525406,-0.00541467,-0.00565378,-0.00598849,-0.00644564,-0.00706803,-0.00788921,-0.00915128,-0.00991264,-0.00689906,0.00728113,0.0394052,0.0405502,0.0405502,0.0400879,0.0391346,0.0247493,0.0163083,0.0157297,-0.0139415,-0.0134178,-0.013027,-0.0127399,-0.0125299,-0.0123797,-0.0122789,-0.0122208,-0.0122017,-0.00513125,-0.00516152,-0.00525406,-0.00541467,-0.00565378,-0.00598849,-0.00644564,-0.00705621,-0.00787354,-0.00879878,-0.00886512,-0.00549368,0.00562035,0.0298091,0.03067,0.03067,0.0303233,0.0296085,0.0243108,0.0189717,0.0133448,-0.0139198,-0.0134178,-0.013027,-0.0127399,-0.0125299,-0.0123797,-0.0122789,-0.0122208,-0.0122017,-0.00513125,-0.00516152,-0.00525406,-0.00541467,-0.00565378,-0.00598849,-0.00644564,-0.00703863,-0.00791233,-0.00825356,-0.00765672,-0.00366214,0.00908406,0.038241,0.0392543,0.0392543,0.0388617,0.0380529,0.0210602,0.0190809,0.00738762,0.0104343,-0.0134068,-0.013027,-0.0127399,-0.0125299,-0.0123797,-0.0122789,-0.0122208,-0.0122017,-0.00513125,-0.00516152,-0.00525406,-0.00541467,-0.00565378,-0.00598849,-0.00644564,-0.00701726,-0.00764873,-0.00769539,-0.00629846,-0.00171648,0.00694864,0.0259005,0.0265483,0.0265483,0.0263046,0.0258028,0.0253021,0.0171208,0.00947377,0.0104183,-0.0133938,-0.013027,-0.0127399,-0.0125299,-0.0123797,-0.0122789,-0.0122208,-0.0122017,-0.00513125,-0.00516152,-0.00525406,-0.00541467,-0.00565378,-0.00598849,-0.00643591,-0.00707619,-0.00740168,-0.0071842,-0.00530464,-0.000388843,0.00734394,0.0244218,0.0249939,0.0249939,0.0247866,0.024359,0.0234596,0.0121352,0.00927563,0.0115136,-0.0133843,-0.013027,-0.0127399,-0.0125299,-0.0123797,-0.0122789,-0.0122208,-0.0122017,-0.00513125,-0.00516152,-0.00525406,-0.00541467,-0.00565378,-0.00598849,-0.00642813,-0.0069916,-0.00713958,-0.00667029,-0.00448241,-0.00062098,0.0041726,0.0147327,0.0150905,0.0150905,0.014958,0.0146853,0.0160294,0.0102183,0.0100773,0.00912331,-0.0133774,-0.013027,-0.0127399,-0.0125299,-0.0123797,-0.0122789,-0.0122208,-0.0122017,-0.00513125,-0.00516152,-0.00525406,-0.00541467,-0.00565378,-0.00598849,-0.00642289,-0.00688585,-0.00693449,-0.00628426,-0.00376041,-0.000424443,0.00379381,0.0130936,0.0134074,0.0134074,0.013292,0.0130545,0.0172572,0.0118296,0.00900186,0.00928896,-0.0133484,-0.013027,-0.0127399,-0.0125299,-0.0123797,-0.0122789,-0.0122208,-0.0122017,-0.00513125,-0.00516152,-0.00525406,-0.00541467,-0.00565378,-0.00598849,-0.00641987,-0.00680105,-0.00676834,-0.00592496,-0.00335305,-0.000478086,0.00335437,0.0117984,0.0120841,0.0120841,0.0119785,0.0117608,0.0173922,0.00970443,0.00656414,0.00836293,0.0117222,-0.013017,-0.0127399,-0.0125299,-0.0123797,-0.0122789,-0.0122208,-0.0122017,-0.00513125,-0.00516152,-0.00525406,-0.00541467,-0.00565378,-0.00598849,-0.00641888,-0.00674147,-0.00665942,-0.00575502,-0.00300344,-0.000355154,0.00383246,0.0130684,0.0133793,0.0133793,0.0132656,0.0130311,0.0149592,0.00905864,0.00506109,0.00636858,0.0117797,-0.013016,-0.0127399,-0.0125299,-0.0123797,-0.0122789,-0.0122208,-0.0122017,-0.00513125,-0.00516152,-0.00525406,-0.00541467,-0.00565378,-0.00598849,-0.00641888,-0.00670875,-0.00660765,-0.00570468,-0.00285537,-0.000414904,0.00344046,0.0119386,0.0122256,0.0122256,0.01212,0.0119023,0.0137608,0.00781005,0.00269923,0.0052761,0.011802,-0.013016,-0.0127399,-0.0125299,-0.0123797,-0.0122789,-0.0122208,-0.0122017,-0.00513125,-0.00516152,-0.00525406,-0.00541467,-0.00565378,-0.00598849,-0.00641987,-0.00670125,-0.00661683,-0.00576485,-0.00292204,-0.00051793,0.00342988,0.0121266,0.0124212,0.0124212,0.0123121,0.0120873,0.0125434,0.00720859,0.00206808,0.00273788,0.0117934,-0.013017,-0.0127399,-0.0125299,-0.0123797,-0.0122789,-0.0122208,-0.0122017,-0.00513125,-0.00516152,-0.00525406,-0.00541467,-0.00565378,-0.00598849,-0.00642289,-0.00672169,-0.00668238,-0.0059429,-0.00321428,-0.000751195,0.00286299,0.0108091,0.0110812,0.0110812,0.0109784,0.0107669,0.0108153,0.00620386,0.0010972,0.00238595,-0.0132465,-0.013027,-0.0127399,-0.0125299,-0.0123797,-0.0122789,-0.0122208,-0.0122017,-0.00513125,-0.00516152,-0.00525406,-0.00541467,-0.00565378,-0.00598849,-0.00642813,-0.00676368,-0.00680317,-0.00618406,-0.00364198,-0.00127471,0.00143065,0.00733831,0.00754795,0.00754795,0.0074639,0.00729074,0.0093692,0.00240327,0.0011553,0.00221863,-0.0149746,-0.013027,-0.0127399,-0.0125299,-0.0123797,-0.0122789,-0.0122208,-0.0122017,-0.00513125,-0.00516152,-0.00525406,-0.00541467,-0.00565378,-0.00598849,-0.00643591,-0.00682078,-0.0069768,-0.00636903,-0.00478188,-0.0038058,-0.00389073,-0.0042937,-0.00426797,-0.00426797,-0.00430413,-0.00437868,-0.00228902,-3.56342e-05,-0.00168525,-7.25845e-05,-0.0168009,-0.013027,-0.0127399,-0.0125299,-0.0123797,-0.0122789,-0.0122208,-0.0122017,-0.00513125,-0.00516152,-0.00525406,-0.00541467,-0.00565378,-0.00598849,-0.00644564,-0.00687258,-0.00710518,-0.00662949,-0.00503709,-0.00330638,-0.00331074,-0.00350748,-0.00348002,-0.00348002,-0.00351327,-0.00358182,-0.00326622,-0.00496969,-0.00199866,-0.00140697,-0.017812,-0.013027,-0.0127399,-0.0125299,-0.0123797,-0.0122789,-0.0122208,-0.0122017,-0.00513125,-0.00516152,-0.00525406,-0.00541467,-0.00565378,-0.00598849,-0.00644564,-0.00697675,-0.00731696,-0.0066734,-0.00404297,-0.00220818,-0.00219797,-0.00230034,-0.00228106,-0.00228106,-0.00230361,-0.00235008,-0.00309132,-0.0058132,-0.00371098,0.000276328,-0.0180809,-0.013027,-0.0127399,-0.0125299,-0.0123797,-0.0122789,-0.0122208,-0.0122017,-0.00513125,-0.00516152,-0.00525406,-0.00541467,-0.00565378,-0.00598849,-0.00644564,-0.00693566,-0.00695105,-0.00526834,-0.00272488,-0.000346416,0.000258088,0.00128017,0.00131633,0.00131633,0.00130191,0.00127218,8.25347e-05,-0.0025565,-0.00232722,-0.0232218,-0.0164109,-0.013027,-0.0127399,-0.0125299,-0.0123797,-0.0122789,-0.0122208,-0.0122017,-0.00513125,-0.00516152,-0.00525406,-0.00541467,-0.00565378,-0.00598849,-0.00644564,-0.00705129,-0.00654172,-0.00413991,-0.00197795,-0.000195359,0.000220655,0.00112912,0.00116135,0.00116135,0.00114843,0.00112182,0.00048725,-0.00175938,-0.000972145,-0.0227654,-0.0145364,-0.013027,-0.0127399,-0.0125299,-0.0123797,-0.0122789,-0.0122208,-0.0122017,-0.00513125,-0.00516152,-0.00525406,-0.00541467,-0.00565378,-0.00598849,-0.00644564,-0.0067807,-0.00526958,-0.00307776,-0.00123974,-0.000243878,7.65753e-05,0.000771098,0.000796709,0.000796709,0.000785817,0.000763367,0.000599634,-0.00122591,-0.0208458,-0.0217269,-0.0124146,-0.013027,-0.0127399,-0.0125299,-0.0123797,-0.0122789,-0.0122208,-0.0122017,-0.00513125,-0.00516152,-0.00525406,-0.00541467,-0.00565378,-0.00598849,-0.00641063,-0.00636407,-0.00431041,-0.00248457,-0.00134857,-0.00165485,-0.0028286,-0.00551652,-0.00558894,-0.00558894,-0.00557473,-0.00554555,-0.00549942,-0.0198891,-0.0199463,-0.0182631,-0.011895,-0.013027,-0.0127399,-0.0125299,-0.0123797,-0.0122789,-0.0122208,-0.0122017,-0.00513125,-0.00516152,-0.00525406,-0.00541467,-0.00565378,-0.00598849,-0.00653163,-0.00581119,-0.00368215,-0.00204168,-0.00145311,-0.00339011,-0.00698811,-0.0151326,-0.0153686,-0.0153686,-0.0153082,-0.0151836,-0.014987,-0.0196005,-0.0188458,-0.0149272,-0.0112925,-0.013027,-0.0127399,-0.0125299,-0.0123797,-0.0122789,-0.0122208,-0.0122017,-0.00513125,-0.00516152,-0.00525406,-0.00541467,-0.00565378,-0.00598849,-0.00651962,-0.00525753,-0.00321376,-0.00172179,-0.00151498,-0.00402175,-0.00846651,-0.0185185,-0.0188115,-0.0188115,-0.0187351,-0.0185778,-0.0183295,-0.0193593,-0.0180148,-0.0112582,-0.0109369,-0.013027,-0.0127399,-0.0125299,-0.0123797,-0.0122789,-0.0122208,-0.0122017,-0.00513125,-0.00516152,-0.00525406,-0.00541467,-0.00565378,-0.00598473,-0.00640335,-0.00486939,-0.00290768,-0.00152996,-0.00157588,-0.00413752,-0.00853918,-0.0185023,-0.0187912,-0.0187912,-0.0187171,-0.0185643,-0.0183237,-0.0190553,-0.0154629,-0.00845195,-0.0106119,-0.0127695,-0.0126724,-0.0125299,-0.0123797,-0.0122789,-0.0122208,-0.0122017,-0.00513125,-0.00516152,-0.00525406,-0.00541467,-0.00565378,-0.00598091,-0.00631035,-0.00461931,-0.00267076,-0.00110511,-0.000773369,-0.00253737,-0.0055477,-0.0123451,-0.0125452,-0.0125452,-0.0124916,-0.012381,-0.0122068,-0.0129031,-0.00806567,-0.00749161,-0.0101738,-0.0113377,-0.0126182,-0.0125299,-0.0123797,-0.0122789,-0.0122208,-0.0122017,-0.00513125,-0.00516152,-0.00525406,-0.00541467,-0.00565378,-0.0059755,-0.00627773,-0.00451446,-0.00252016,-0.000512503,0.000948057,0.000932578,0.000899108,0.000877911,0.000867614,0.000867614,0.000877911,0.000899108,0.000932578,-2.88307e-06,-0.00355513,-0.00689718,-0.00951089,-0.0112377,-0.012397,-0.0125299,-0.0123797,-0.0122789,-0.0122208,-0.0122017,-0.00513125,-0.00516152,-0.00525406,-0.00541467,-0.00565378,-0.00597974,-0.00632611,-0.00457709,-0.00266421,-0.00115119,-0.000990697,-0.00292204,-0.0062317,-0.0137125,-0.0139313,-0.0139313,-0.0138736,-0.013755,-0.0135677,-0.014309,-0.00870076,-0.00726942,-0.00973463,-0.0113887,-0.0125597,-0.0125299,-0.0123797,-0.0122789,-0.0122208,-0.0122017,-0.00513125,-0.00516152,-0.00525406,-0.00541467,-0.00565378,-0.00598713,-0.00645062,-0.00479837,-0.00289099,-0.00148423,-0.00158726,-0.00410692,-0.00853599,-0.018558,-0.0188491,-0.0188491,-0.0187741,-0.0186192,-0.0183751,-0.0191987,-0.015602,-0.00908325,-0.0107783,-0.0129673,-0.0127399,-0.0125299,-0.0123797,-0.0122789,-0.0122208,-0.0122017,-0.00513125,-0.00516152,-0.00525406,-0.00541467,-0.00565378,-0.00598849,-0.00655385,-0.00513452,-0.00315935,-0.00163856,-0.00150103,-0.00390105,-0.00835016,-0.0184048,-0.0186992,-0.0186992,-0.0186215,-0.0184612,-0.0182087,-0.019279,-0.0177257,-0.0110548,-0.0111528,-0.013027,-0.0127399,-0.0125299,-0.0123797,-0.0122789,-0.0122208,-0.0122017,-0.00513125,-0.00516152,-0.00525406,-0.00541467,-0.00565378,-0.00598849,-0.00651892,-0.00564645,-0.00355244,-0.00187997,-0.00139368,-0.00356874,-0.00802978,-0.018092,-0.01839,-0.01839,-0.0183086,-0.0181408,-0.0178764,-0.0194481,-0.0185771,-0.0148849,-0.0113811,-0.013027,-0.0127399,-0.0125299,-0.0123797,-0.0122789,-0.0122208,-0.0122017,-0.00513125,-0.00516152,-0.00525406,-0.00541467,-0.00565378,-0.00598849,-0.00644564,-0.0064461,-0.00415211,-0.00226598,-0.00136388,-0.00288148,-0.0064772,-0.014588,-0.0148282,-0.0148282,-0.0147626,-0.0146275,-0.0145273,-0.019773,-0.0191374,-0.0176904,-0.0118014,-0.013027,-0.0127399,-0.0125299,-0.0123797,-0.0122789,-0.0122208,-0.0122017,-0.00513125,-0.00516152,-0.00525406,-0.00541467,-0.00565378,-0.00598849,-0.00644564,-0.00695524,-0.00497453,-0.00296512,-0.0013553,-0.000902055,-0.00191884,-0.00421714,-0.00428435,-0.00428435,-0.00426668,-0.00423035,-0.00455139,-0.0157085,-0.0200147,-0.0194196,-0.0138458,-0.013027,-0.0127399,-0.0125299,-0.0123797,-0.0122789,-0.0122208,-0.0122017,-0.00513125,-0.00516152,-0.00525406,-0.00541467,-0.00565378,-0.00598849,-0.00644564,-0.00706201,-0.00619754,-0.00404676,-0.0023981,-0.00139367,-0.00245784,-0.00519371,-0.00527186,-0.00527186,-0.00525276,-0.00521345,-0.00605406,-0.00837175,-0.0282604,-0.0216287,-0.014536,-0.013027,-0.0127399,-0.0125299,-0.0123797,-0.0122789,-0.0122208,-0.0122017,-0.00513125,-0.00516152,-0.00525406,-0.00541467,-0.00565378,-0.00598849,-0.00644564,-0.00708508,-0.00751563,-0.00517598,-0.00238477,0.00058451,0.00176465,0.0040423,0.00411032,0.00411032,0.00409132,0.00405216,0.00261341,-0.000268908,-0.0202459,-0.0221739,-0.016688,-0.013027,-0.0127399,-0.0125299,-0.0123797,-0.0122789,-0.0122208,-0.0122017,-0.00513125,-0.00516152,-0.00525406,-0.00541467,-0.00565378,-0.00598849,-0.00644564,-0.00717365,-0.00779035,-0.00695159,-0.00411925,-0.00133419,-0.000702009,0.00061984,0.000677529,0.000677529,0.000647431,0.000585409,-0.000683458,-0.00382884,-0.00355117,-0.0318981,-0.0176319,-0.013027,-0.0127399,-0.0125299,-0.0123797,-0.0122789,-0.0122208,-0.0122017,-0.00513125,-0.00516152,-0.00525406,-0.00541467,-0.00565378,-0.00598849,-0.00644564,-0.00714096,-0.00775692,-0.00728694,-0.00433459,-0.00121646,0.000546918,0.00437573,0.00451559,0.00451559,0.00445694,0.00433604,0.00477373,0.00296974,-6.81908e-08,-0.0352082,-0.0170241,-0.013027,-0.0127399,-0.0125299,-0.0123797,-0.0122789,-0.0122208,-0.0122017,-0.00513125,-0.00516152,-0.00525406,-0.00541467,-0.00565378,-0.00598849,-0.00644564,-0.00711314,-0.00751574,-0.00709043,-0.00460042,-0.000883312,0.0018745,0.00792019,0.00813046,0.00813046,0.00804896,0.00788106,0.0116217,-0.000897307,0.00115555,-0.0368016,-0.0165206,-0.013027,-0.0127399,-0.0125299,-0.0123797,-0.0122789,-0.0122208,-0.0122017,-0.00513125,-0.00516152,-0.00525406,-0.00541467,-0.00565378,-0.00598849,-0.00646721,-0.00709904,-0.00733775,-0.00677455,-0.00442772,-0.00116156,0.00282825,0.0115813,0.0118845,0.0118845,0.0117678,0.0115274,0.0168136,0.00479176,0.00458584,-0.0223717,-0.0143864,-0.013027,-0.0127399,-0.0125299,-0.0123797,-0.0122789,-0.0122208,-0.0122017,-0.00513125,-0.00516152,-0.00525406,-0.00541467,-0.00565378,-0.00598849,-0.00649124,-0.00708343,-0.00722319,-0.00655376,-0.00398474,-0.000906547,0.00306047,0.0117776,0.0120769,0.0120769,0.0119635,0.0117295,0.0128532,0.00926687,0.00419665,0.00505314,-0.0134584,-0.013027,-0.0127399,-0.0125299,-0.0123797,-0.0122789,-0.0122208,-0.0122017,-0.00513125,-0.00516152,-0.00525406,-0.00541467,-0.00565378,-0.00598849,-0.00650291,-0.00707626,-0.00715913,-0.0064212,-0.00377484,-0.000718146,0.00381809,0.0138041,0.0141437,0.0141437,0.0140171,0.0137563,0.0137299,0.00982461,0.00556326,0.0066147,-0.0227516,-0.013027,-0.0127399,-0.0125299,-0.0123797,-0.0122789,-0.0122208,-0.0122017,-0.00513125,-0.00516152,-0.00525406,-0.00541467,-0.00565378,-0.00598849,-0.00650291,-0.00708021,-0.007147,-0.00642697,-0.0037906,-0.000712362,0.00347569,0.0126924,0.0130064,0.0130064,0.012889,0.0126472,0.0143883,0.0104972,0.00657731,0.00783482,-0.0227573,-0.013027,-0.0127399,-0.0125299,-0.0123797,-0.0122789,-0.0122208,-0.0122017,-0.00513125,-0.00516152,-0.00525406,-0.00541467,-0.00565378,-0.00598849,-0.00649124,-0.0070945,-0.00718676,-0.0065485,-0.004024,-0.000739058,0.00378065,0.0137289,0.0140674,0.0140674,0.0139411,0.0136807,0.0164609,0.011766,0.00736305,0.00949613,-0.0227845,-0.013027,-0.0127399,-0.0125299,-0.0123797,-0.0122789,-0.0122208,-0.0122017,-0.00513125,-0.00516152,-0.00525406,-0.00541467,-0.00565378,-0.00598849,-0.00646721,-0.00711993,-0.00727665,-0.00674574,-0.00444776,-0.00102206,0.00305867,0.0120206,0.0123293,0.0123293,0.0122116,0.0119691,0.0163174,0.00753287,0.00466225,0.0111783,-0.0227673,-0.013027,-0.0127399,-0.0125299,-0.0123797,-0.0122789,-0.0122208,-0.0122017,-0.00513125,-0.00516152,-0.00525406,-0.00541467,-0.00565378,-0.00598849,-0.00644564,-0.00715476,-0.00742483,-0.00705779,-0.00505998,-0.0011904,0.00324294,0.0129747,0.0133108,0.0133108,0.0131821,0.012917,0.0167259,0.00859015,0.00580959,-0.00127956,-0.0134245,-0.013027,-0.0127399,-0.0125299,-0.0123797,-0.0122789,-0.0122208,-0.0122017,-0.00513125,-0.00516152,-0.00525406,-0.00541467,-0.00565378,-0.00598849,-0.00644564,-0.00720291,-0.00755634,-0.00743462,-0.00582548,-0.00137261,0.00402415,0.0158751,0.0162835,0.0162835,0.0161276,0.0158065,0.0129415,0.0127793,0.00758268,-0.0289191,-0.0133768,-0.013027,-0.0127399,-0.0125299,-0.0123797,-0.0122789,-0.0122208,-0.0122017,-0.00513125,-0.00516152,-0.00525406,-0.00541467,-0.00565378,-0.00598849,-0.00644564,-0.00716729,-0.00770332,-0.00786884,-0.00665971,-0.0017878,0.00540285,0.0211958,0.0217394,0.0217394,0.0215322,0.0211051,0.0128456,0.00615785,0.00668475,-0.0256524,-0.0134178,-0.013027,-0.0127399,-0.0125299,-0.0123797,-0.0122789,-0.0122208,-0.0122017,-0.00513125,-0.00516152,-0.00525406,-0.00541467,-0.00565378,-0.00598849,-0.00644564,-0.00708508,-0.00797075,-0.00830455,-0.00773812,-0.00360163,0.00665968,0.0288721,0.0296467,0.0296467,0.029345,0.0287229,0.0135071,0.0111685,-0.00527041,-0.0230394,-0.0134178,-0.013027,-0.0127399,-0.0125299,-0.0123797,-0.0122789,-0.0122208,-0.0122017,-0.00513125,-0.00516152,-0.00525406,-0.00541467,-0.00565378,-0.00598849,-0.00644564,-0.00706803,-0.00806476,-0.00865197,-0.00872294,-0.00579954,0.00813861,0.0400431,0.0411711,0.0411711,0.0407218,0.0397957,0.0132043,0.00934025,-0.0251689,-0.0230138,-0.0134178,-0.013027,-0.0127399,-0.0125299,-0.0123797,-0.0122789,-0.0122208,-0.0122017,-0.00513125,-0.00516152,-0.00525406,-0.00541467,-0.00565378,-0.00598849,-0.00644564,-0.00706803,-0.0079414,-0.00907839,-0.00965453,-0.0076972,0.00384015,0.0294282,0.030361,0.030361,0.029971,0.029167,0.00952972,0.00973697,-0.0185149,-0.0139565,-0.0134178,-0.013027,-0.0127399,-0.0125299,-0.0123797,-0.0122789,-0.0122208,-0.0122017,-0.00513125,-0.00516152,-0.00525406,-0.00541467,-0.00565378,-0.00598849,-0.00644564,-0.00706803,-0.00792627,-0.00924017,-0.0102377,-0.00854168,0.00574632,0.036918,0.0380434,0.0380434,0.0375799,0.0366248,0.0108758,0.00708713,-0.0159027,-0.0139565,-0.0134178,-0.013027,-0.0127399,-0.0125299,-0.0123797,-0.0122789,-0.0122208,-0.0122017,-0.00513125,-0.00516152,-0.00525406,-0.00541467,-0.00565378,-0.00598849,-0.00644564,-0.00706803,-0.00792627,-0.00914369,-0.0108191,-0.00722144,0.00943385,0.0458532,0.0471394,0.0471394,0.0466276,0.0455741,0.0195524,-0.00239948,-0.000620239,-0.0099438,-0.0134178,-0.013027,-0.0127399,-0.0125299,-0.0123797,-0.0122789,-0.0122208,-0.0122017,-0.00513125,-0.00516152,-0.00525406,-0.00541467,-0.00565378,-0.00598849,-0.00644564,-0.00706803,-0.00792627,-0.00914369,-0.0104762,-0.00520781,0.0129258,0.0527638,0.0541425,0.0541425,0.0536121,0.0525187,0.0155735,0.0152705,-0.000620239,-0.0099438,-0.0134178,-0.013027,-0.0127399,-0.0125299,-0.0123797,-0.0122789,-0.0122208,-0.0122017,-0.00513125,-0.00516152,-0.00525406,-0.00541467,-0.00565378,-0.00598849,-0.00644564,-0.00706803,-0.00792627,-0.00914369,-0.0102215,-0.0015347,0.0208036,0.0701463,0.071804,0.071804,0.0711997,0.0699546,0.0236267,0.0196431,0.00607166,-0.00613327,-0.0134178,-0.013027,-0.0127399,-0.0125299,-0.0123797,-0.0122789,-0.0122208,-0.0122017,-0.00513125,-0.00516152,-0.00525406,-0.00541467,-0.00565378,-0.00598849,-0.00644564,-0.00706803,-0.00792627,-0.00914116,-0.0100387,0.000188253,0.0232633,0.0744395,0.0761412,0.0761412,0.0755327,0.0742804,0.0276963,0.0238366,0.00607166,-0.00613327,-0.0134178,-0.013027,-0.0127399,-0.0125299,-0.0123797,-0.0122789,-0.0122208,-0.0122017,-0.00513125,-0.00516152,-0.00525406,-0.00541467,-0.00565378,-0.00598849,-0.00644564,-0.00706803,-0.00792627,-0.0091223,-0.00991226,0.000953899,0.0236971,0.0741013,0.0757684,0.0757684,0.0751783,0.0739624,0.0269988,0.0248516,0.00607166,-0.00613327,-0.0134178,-0.013027,-0.0127399,-0.0125299,-0.0123797,-0.0122789,-0.0122208,-0.0122017,]