[-0.00262778,-0.0026433,-0.00269069,-0.00277295,-0.00289541,-0.00306679,-0.00330087,-0.00361959,-0.00405909,-0.00464291,-0.00466606,-0.00148222,0.00426848,0.0166425,0.0170682,0.0170682,0.0169062,0.0165723,0.00077355,-0.0180549,-0.0156466,-0.0133769,-0.0118114,-0.0117153,-0.0116446,-0.0115929,-0.0115561,-0.0115312,-0.0115169,-0.0115122,-0.00262778,-0.0026433,-0.00269069,-0.00277295,-0.00289541,-0.00306679,-0.00330087,-0.00361959,-0.00405909,-0.00464793,-0.00469658,-0.00158016,0.0035211,0.014206,0.0145753,0.0145753,0.0144336,0.0141415,-0.000297877,-0.0180728,-0.0156466,-0.0133769,-0.0118114,-0.0117153,-0.0116446,-0.0115929,-0.0115561,-0.0115312,-0.0115169,-0.0115122,-0.00262778,-0.0026433,-0.00269069,-0.00277295,-0.00289541,-0.00306679,-0.00330087,-0.00361959,-0.00405909,-0.00465509,-0.00477784,-0.00186235,0.00357434,0.0153171,0.0157261,0.0157261,0.0155672,0.0152396,-0.000493858,-0.0163914,-0.0150747,-0.0133769,-0.0118114,-0.0117153,-0.0116446,-0.0115929,-0.0115561,-0.0115312,-0.0115169,-0.0115122,-0.00262778,-0.0026433,-0.00269069,-0.00277295,-0.00289541,-0.00306679,-0.00330087,-0.00361959,-0.00405909,-0.00467213,-0.00490136,-0.0023867,0.00267894,0.0136005,0.0139877,0.0139877,0.0138327,0.0135132,-0.00435053,-0.0112884,-0.0150747,-0.0126467,-0.0118114,-0.0117153,-0.0116446,-0.0115929,-0.0115561,-0.0115312,-0.0115169,-0.0115122,-0.00262778,-0.0026433,-0.00269069,-0.00277295,-0.00289541,-0.00306679,-0.00330087,-0.00361959,-0.00405909,-0.00467375,-0.0050512,-0.00326603,0.000901523,0.00985505,0.0101862,0.0101862,0.0100447,0.00975344,-0.00286585,-0.0109414,-0.0150747,-0.0126467,-0.0118114,-0.0117153,-0.0116446,-0.0115929,-0.0115561,-0.0115312,-0.0115169,-0.0115122,-0.00262778,-0.0026433,-0.00269069,-0.00277295,-0.00289541,-0.00306679,-0.00330087,-0.00361959,-0.00405649,-0.00464964,-0.00509079,-0.00383227,0.000361822,0.00946862,0.00981121,0.00981121,0.00966129,0.00935237,-0.000687578,-0.0190813,-0.0139881,-0.0119442,-0.0118114,-0.0117153,-0.0116446,-0.0115929,-0.0115561,-0.0115312,-0.0115169,-0.0115122,-0.00262778,-0.0026433,-0.00269069,-0.00277295,-0.00289541,-0.00306679,-0.00330087,-0.00361959,-0.00404448,-0.00456543,-0.00495088,-0.00397419,-2.86808e-05,0.00874941,0.00908365,0.00908365,0.00893499,0.00862855,0.000787971,-0.0196064,-0.0238926,-0.0119355,-0.0118114,-0.0117153,-0.0116446,-0.0115929,-0.0115561,-0.0115312,-0.0115169,-0.0115122,-0.00262778,-0.0026433,-0.00269069,-0.00277295,-0.00289541,-0.00306679,-0.00330087,-0.00361494,-0.00401825,-0.00442574,-0.00466853,-0.00373175,4.34839e-05,0.00829657,0.00861009,0.00861009,0.00847111,0.00818466,0.00267449,-0.0214416,-0.0238483,-0.0119269,-0.0118114,-0.0117153,-0.0116446,-0.0115929,-0.0115561,-0.0115312,-0.0115169,-0.0115122,-0.00262778,-0.0026433,-0.00269069,-0.00277295,-0.00289541,-0.00306679,-0.00330087,-0.00360801,-0.00396343,-0.00424581,-0.00443315,-0.00381973,-0.000832725,0.00572169,0.00597983,0.00597983,0.00585987,0.00561263,0.00226161,-0.0240203,-0.024709,-0.0230088,-0.0118042,-0.0117153,-0.0116446,-0.0115929,-0.0115561,-0.0115312,-0.0115169,-0.0115122,-0.00262778,-0.0026433,-0.00269069,-0.00277295,-0.00289541,-0.00306679,-0.00330087,-0.00359976,-0.00388045,-0.00405739,-0.00414232,-0.00375726,-0.00132328,0.00393847,0.00415257,0.00415257,0.004049,0.00383563,0.000948754,-0.0249756,-0.0252118,-0.0229436,-0.0117991,-0.0117153,-0.0116446,-0.0115929,-0.0115561,-0.0115312,-0.0115169,-0.0115122,-0.00262778,-0.0026433,-0.00269069,-0.00277295,-0.00289541,-0.00306679,-0.00329703,-0.00357536,-0.003798,-0.00388356,-0.0038513,-0.00357387,-0.00194138,0.00147994,0.00163058,0.00163058,0.00155129,0.00138793,0.000375635,-0.020314,-0.0252625,-0.0234569,-0.0117953,-0.0117153,-0.0116446,-0.0115929,-0.0115561,-0.0115312,-0.0115169,-0.0115122,-0.00262778,-0.0026433,-0.00269069,-0.00277295,-0.00289541,-0.00306679,-0.00329397,-0.00354941,-0.00371015,-0.00371406,-0.003403,-0.00214671,0.00064623,0.00669842,0.00692188,0.00692188,0.00682674,0.00663062,0.00274661,-0.0135618,-0.0232078,-0.0251329,-0.0117926,-0.0117153,-0.0116446,-0.0115929,-0.0115561,-0.0115312,-0.0115169,-0.0115122,-0.00262778,-0.0026433,-0.00269069,-0.00277295,-0.00289541,-0.00306679,-0.0032919,-0.0035199,-0.00364171,-0.00358781,-0.00324576,-0.00185702,0.0005338,0.00571342,0.00590493,0.00590493,0.00582323,0.005655,-6.15667e-05,-0.0101238,-0.0191578,-0.0250756,-0.0117633,-0.0117153,-0.0116446,-0.0115929,-0.0115561,-0.0115312,-0.0115169,-0.0115122,-0.00262778,-0.0026433,-0.00269069,-0.00277295,-0.00289541,-0.00306679,-0.00329072,-0.00349492,-0.00358726,-0.0034916,-0.00297423,-0.0010367,0.00218676,0.00925311,0.00949879,0.00949879,0.0094035,0.00920713,-0.00085122,-0.00324334,-0.0113923,-0.0221419,-0.0231772,-0.0117084,-0.0116446,-0.0115929,-0.0115561,-0.0115312,-0.0115169,-0.0115122,-0.00262778,-0.0026433,-0.00269069,-0.00277295,-0.00289541,-0.00306679,-0.00329033,-0.0034793,-0.00355394,-0.00343439,-0.0028777,-0.000933082,0.00136584,0.00639454,0.00657141,0.00657141,0.00650152,0.00635746,-0.00130757,-0.000313893,-0.00733654,-0.0182017,-0.0231548,-0.011708,-0.0116446,-0.0115929,-0.0115561,-0.0115312,-0.0115169,-0.0115122,-0.00262778,-0.0026433,-0.00269069,-0.00277295,-0.00289541,-0.00306679,-0.00329033,-0.00347437,-0.00354156,-0.00341505,-0.00284212,-0.000683636,0.00259119,0.00979102,0.0100376,0.0100376,0.00994446,0.00975265,0.00258899,0.00224903,-0.000988006,-0.014651,-0.0231539,-0.011708,-0.0116446,-0.0115929,-0.0115561,-0.0115312,-0.0115169,-0.0115122,-0.00262778,-0.0026433,-0.00269069,-0.00277295,-0.00289541,-0.00306679,-0.00329072,-0.0034799,-0.0035518,-0.00343217,-0.00286927,-0.000695268,0.00225488,0.00873636,0.00895916,0.00895916,0.00887449,0.0087,0.00584226,0.00410347,0.000996625,-0.0068627,-0.0231733,-0.0117084,-0.0116446,-0.0115929,-0.0115561,-0.0115312,-0.0115169,-0.0115122,-0.00262778,-0.0026433,-0.00269069,-0.00277295,-0.00289541,-0.00306679,-0.0032919,-0.00349741,-0.00358392,-0.00348806,-0.00296308,-0.000743055,0.00313944,0.0116791,0.0119708,0.0119708,0.0118611,0.0116352,0.0100992,0.00852396,0.00401552,-0.00580989,-0.0117494,-0.0117153,-0.0116446,-0.0115929,-0.0115561,-0.0115312,-0.0115169,-0.0115122,-0.00262778,-0.0026433,-0.00269069,-0.00277295,-0.00289541,-0.00306679,-0.00329397,-0.00352369,-0.00363797,-0.00358178,-0.00308606,-0.00086705,0.00323856,0.0122643,0.0125735,0.0125735,0.0124567,0.012216,0.0134959,0.0113329,0.0050316,-0.00349304,-0.00725386,-0.0117153,-0.0116446,-0.0115929,-0.0115561,-0.0115312,-0.0115169,-0.0115122,-0.00262778,-0.0026433,-0.00269069,-0.00277295,-0.00289541,-0.00306679,-0.00329703,-0.00355639,-0.00371387,-0.00366454,-0.00267389,9.88917e-05,0.00531785,0.0168588,0.0172418,0.0172418,0.0171055,0.0168246,0.0187713,0.0134593,0.00757238,0.00199934,-0.00211638,-0.0117153,-0.0116446,-0.0115929,-0.0115561,-0.0115312,-0.0115169,-0.0115122,-0.00262778,-0.0026433,-0.00269069,-0.00277295,-0.00289541,-0.00306679,-0.00330087,-0.00358871,-0.00377959,-0.00321997,-0.00175057,0.00132523,0.00737326,0.0208167,0.0212503,0.0212503,0.0211045,0.0208042,0.021571,0.0196534,0.00856104,0.00349668,0.00143598,-0.0117153,-0.0116446,-0.0115929,-0.0115561,-0.0115312,-0.0115169,-0.0115122,-0.00262778,-0.0026433,-0.00269069,-0.00277295,-0.00289541,-0.00306679,-0.00330087,-0.00360604,-0.00353771,-0.00246825,-0.000461781,0.00301334,0.00984184,0.0251054,0.0255822,0.0255822,0.025433,0.0251255,0.0246955,0.0236009,0.0132884,0.00845416,0.00246594,-0.0117153,-0.0116446,-0.0115929,-0.0115561,-0.0115312,-0.0115169,-0.0115122,-0.00262778,-0.0026433,-0.00269069,-0.00277295,-0.00289541,-0.00306679,-0.00330087,-0.00357389,-0.00290894,-0.0014369,0.000803256,0.00461061,0.0116045,0.0273776,0.0278553,0.0278553,0.0277167,0.0274316,0.0270722,0.0270133,0.017332,0.0201173,-0.00206987,-0.0117153,-0.0116446,-0.0115929,-0.0115561,-0.0115312,-0.0115169,-0.0115122,-0.00262778,-0.0026433,-0.00269069,-0.00277295,-0.00289541,-0.00306679,-0.00330087,-0.00322549,-0.00222736,-0.000378728,0.00221303,0.00639951,0.0138222,0.0305909,0.0310831,0.0310831,0.0309524,0.0306831,0.0303036,0.0300134,0.0203983,0.0207131,-0.00712981,-0.0117153,-0.0116446,-0.0115929,-0.0115561,-0.0115312,-0.0115169,-0.0115122,-0.00262778,-0.0026433,-0.00269069,-0.00277295,-0.00289541,-0.00306679,-0.00330087,-0.00280352,-0.00147318,0.00050949,0.00343284,0.00794912,0.0157842,0.0335526,0.0340612,0.0340612,0.0339358,0.0336762,0.0332612,0.0328711,0.0310705,0.0213585,-0.0101685,-0.0117153,-0.0116446,-0.0115929,-0.0115561,-0.0115312,-0.0115169,-0.0115122,-0.00262778,-0.0026433,-0.00269069,-0.00277295,-0.00289541,-0.00306679,-0.00321939,-0.0024265,-0.00089018,0.0012691,0.00479417,0.0101216,0.0192506,0.040002,0.040588,0.040588,0.04045,0.0401653,0.0397167,0.0414466,0.0317087,0.0165678,-0.0108579,-0.0117153,-0.0116446,-0.0115929,-0.0115561,-0.0115312,-0.0115169,-0.0115122,-0.00262778,-0.0026433,-0.00269069,-0.00277295,-0.00289541,-0.00306679,-0.00304411,-0.00205547,-0.000424924,0.00187853,0.00549902,0.011077,0.0206072,0.0422996,0.0429072,0.0429072,0.0427681,0.0424818,0.0420301,0.0420859,0.0309784,0.0100495,-0.0104784,-0.0117153,-0.0116446,-0.0115929,-0.0115561,-0.0115312,-0.0115169,-0.0115122,-0.00262778,-0.0026433,-0.00269069,-0.00277295,-0.00289541,-0.00306679,-0.00289108,-0.00174325,-7.94463e-05,0.00235031,0.00600011,0.0116647,0.0213499,0.0434176,0.0440317,0.0440317,0.0438945,0.0436118,0.0431661,0.0425902,0.0301648,0.000821352,-0.010237,-0.0117153,-0.0116446,-0.0115929,-0.0115561,-0.0115312,-0.0115169,-0.0115122,-0.00262778,-0.0026433,-0.00269069,-0.00277295,-0.00289541,-0.00306212,-0.00275096,-0.00150186,0.000196371,0.00272631,0.00641669,0.0121082,0.0218307,0.0440059,0.0446196,0.0446196,0.0444854,0.0442101,0.0437758,0.0431913,0.0252204,-0.00577724,-0.00985586,-0.01146,-0.0115679,-0.0115929,-0.0115561,-0.0115312,-0.0115169,-0.0115122,-0.00262778,-0.0026433,-0.00269069,-0.00277295,-0.00289541,-0.00305608,-0.00265305,-0.00132449,0.000369495,0.00240599,0.00485982,0.00872165,0.0153412,0.0304661,0.0308797,0.0308797,0.0307934,0.0306161,0.0303358,0.0299501,0.00744141,-0.00599987,-0.009173,-0.0105303,-0.0114809,-0.0115929,-0.0115561,-0.0115312,-0.0115169,-0.0115122,-0.00262778,-0.0026433,-0.00269069,-0.00277295,-0.00289541,-0.0030476,-0.00261778,-0.00125638,0.000265462,0.00123494,0.00100143,0.000946168,0.000912219,0.000890701,0.000880261,0.000880261,0.000890701,0.000912219,0.000946168,0.000848068,-0.00255017,-0.00644923,-0.00861266,-0.0103367,-0.011141,-0.0115929,-0.0115561,-0.0115312,-0.0115169,-0.0115122,-0.00262778,-0.0026433,-0.00269069,-0.00277295,-0.00289541,-0.00305427,-0.00268103,-0.00134375,0.000350195,0.0025237,0.00541949,0.00978088,0.0172548,0.0343279,0.0347955,0.0347955,0.0346975,0.0344957,0.0341769,0.033665,0.00852445,-0.00712028,-0.00893862,-0.0106261,-0.0113959,-0.0115929,-0.0115561,-0.0115312,-0.0115169,-0.0115122,-0.00262778,-0.0026433,-0.00269069,-0.00277295,-0.00289541,-0.00306481,-0.00281893,-0.00155278,0.000148321,0.00266518,0.00635013,0.0120135,0.0217045,0.0438047,0.0444162,0.0444162,0.0442825,0.0440068,0.0435722,0.0429775,0.0259783,-0.00394547,-0.0100778,-0.0116285,-0.0116446,-0.0115929,-0.0115561,-0.0115312,-0.0115169,-0.0115122,-0.00262778,-0.0026433,-0.00269069,-0.00277295,-0.00289541,-0.00306679,-0.00297363,-0.0017937,-0.000119617,0.00230772,0.00596839,0.0116143,0.0213014,0.0433701,0.0439848,0.0439848,0.0438471,0.0435632,0.0431158,0.0425501,0.0307313,0.00125883,-0.010379,-0.0117153,-0.0116446,-0.0115929,-0.0115561,-0.0115312,-0.0115169,-0.0115122,-0.00262778,-0.0026433,-0.00269069,-0.00277295,-0.00289541,-0.00306679,-0.00313929,-0.00212811,-0.000495738,0.00180885,0.00544712,0.0110748,0.0207811,0.0428622,0.0434828,0.0434828,0.0433391,0.0430431,0.0425764,0.042049,0.0313235,0.0111443,-0.0105991,-0.0117153,-0.0116446,-0.0115929,-0.0115561,-0.0115312,-0.0115169,-0.0115122,-0.00262778,-0.0026433,-0.00269069,-0.00277295,-0.00289541,-0.00306679,-0.00330087,-0.00258863,-0.000974917,0.0011771,0.00474068,0.0102733,0.0198292,0.0415326,0.0421486,0.0421486,0.0420011,0.0416961,0.0412063,0.0413467,0.0308265,0.0168803,-0.0109481,-0.0117153,-0.0116446,-0.0115929,-0.0115561,-0.0115312,-0.0115169,-0.0115122,-0.00262778,-0.0026433,-0.00269069,-0.00277295,-0.00289541,-0.00306679,-0.00330087,-0.00303199,-0.00160577,0.000403998,0.00341532,0.00803019,0.0161357,0.0345061,0.0350344,0.0350344,0.0349023,0.0346298,0.0342127,0.0352575,0.0301159,0.0186786,-0.00963287,-0.0117153,-0.0116446,-0.0115929,-0.0115561,-0.0115312,-0.0115169,-0.0115122,-0.00262778,-0.0026433,-0.00269069,-0.00277295,-0.00289541,-0.00306679,-0.00330087,-0.00345111,-0.00239231,-0.000563165,0.00203996,0.0062011,0.0136457,0.0305132,0.0310111,0.0310111,0.0308766,0.0306001,0.0302477,0.0299942,0.0227801,0.0191279,-0.00765173,-0.0117153,-0.0116446,-0.0115929,-0.0115561,-0.0115312,-0.0115169,-0.0115122,-0.00262778,-0.0026433,-0.00269069,-0.00277295,-0.00289541,-0.00306679,-0.00330087,-0.00361535,-0.0032926,-0.00165015,0.000607733,0.00441264,0.0114782,0.0274127,0.0278979,0.0278979,0.0277554,0.0274615,0.0271146,0.0270774,0.0170284,0.0185228,-0.00108187,-0.0117153,-0.0116446,-0.0115929,-0.0115561,-0.0115312,-0.0115169,-0.0115122,-0.00262778,-0.0026433,-0.00269069,-0.00277295,-0.00289541,-0.00306679,-0.00330087,-0.00359327,-0.0038405,-0.00284825,-0.000863963,0.00251525,0.00928321,0.024385,0.0248618,0.0248618,0.0247089,0.0243942,0.0239703,0.024259,0.0125406,0.0109866,0.0018598,-0.0117153,-0.0116446,-0.0115929,-0.0115561,-0.0115312,-0.0115169,-0.0115122,-0.00262778,-0.0026433,-0.00269069,-0.00277295,-0.00289541,-0.00306679,-0.00330087,-0.00356707,-0.00378404,-0.00369819,-0.00233191,0.000574659,0.00644212,0.0194436,0.0198705,0.0198705,0.0197219,0.0194157,0.0201138,0.0163693,0.00924249,0.0091556,-0.00019856,-0.0117153,-0.0116446,-0.0115929,-0.0115561,-0.0115312,-0.0115169,-0.0115122,-0.00262778,-0.0026433,-0.00269069,-0.00277295,-0.00289541,-0.00306679,-0.00330087,-0.00353294,-0.00370778,-0.00373064,-0.00326437,-0.000923786,0.00380443,0.0142031,0.0145587,0.0145587,0.0144249,0.0141494,0.0162618,0.0123574,0.00693539,0.00527377,-0.00225872,-0.0117153,-0.0116446,-0.0115929,-0.0115561,-0.0115312,-0.0115169,-0.0115122,-0.00262778,-0.0026433,-0.00269069,-0.00277295,-0.00289541,-0.00306679,-0.00329549,-0.00350796,-0.00364062,-0.00361949,-0.00323673,-0.00119592,0.00272752,0.0113321,0.0116306,0.0116306,0.0115153,0.0112778,0.0125659,0.0105387,0.00398181,0.000290726,-0.00881084,-0.0117153,-0.0116446,-0.0115929,-0.0115561,-0.0115312,-0.0115169,-0.0115122,-0.00262778,-0.0026433,-0.00269069,-0.00277295,-0.00289541,-0.00306679,-0.0032895,-0.00348885,-0.00359685,-0.00354321,-0.00310618,-0.000948849,0.00296151,0.0115512,0.0118467,0.0118467,0.0117342,0.0115024,0.00732636,0.00644798,0.0026979,-0.0052995,-0.0117454,-0.0117153,-0.0116446,-0.0115929,-0.0115561,-0.0115312,-0.0115169,-0.0115122,-0.00262778,-0.0026433,-0.00269069,-0.00277295,-0.00289541,-0.00306679,-0.00328659,-0.0034786,-0.00357329,-0.00350169,-0.00303228,-0.00095295,0.00159706,0.00717964,0.00737515,0.00737515,0.00729843,0.00714037,0.0052828,0.00291248,-0.00145308,-0.0106556,-0.0178499,-0.0117153,-0.0116446,-0.0115929,-0.0115561,-0.0115312,-0.0115169,-0.0115122,-0.00262778,-0.0026433,-0.00269069,-0.00277295,-0.00289541,-0.00306679,-0.00328659,-0.00347806,-0.00357037,-0.00349769,-0.00302332,-0.000928083,0.00239659,0.00969287,0.00994509,0.00994509,0.00984826,0.0096488,0.00333412,0.000827419,-0.00475368,-0.014347,-0.0178501,-0.0117153,-0.0116446,-0.0115929,-0.0115561,-0.0115312,-0.0115169,-0.0115122,-0.00262778,-0.0026433,-0.00269069,-0.00277295,-0.00289541,-0.00306679,-0.0032895,-0.00348671,-0.00358808,-0.00352725,-0.00307449,-0.00117107,0.00148237,0.00728125,0.00748621,0.00748621,0.00740459,0.00723634,-0.00236775,-0.0011754,-0.00720768,-0.0194819,-0.0178699,-0.0117153,-0.0116446,-0.0115929,-0.0115561,-0.0115312,-0.0115169,-0.0115122,-0.00262778,-0.0026433,-0.00269069,-0.00277295,-0.00289541,-0.00306679,-0.00329549,-0.00350501,-0.00362608,-0.00358915,-0.00317859,-0.00121372,0.00243045,0.0104168,0.0106949,0.0106949,0.0105867,0.0103639,7.65145e-05,-0.00488986,-0.0119902,-0.0216624,-0.0178765,-0.0117153,-0.0116446,-0.0115929,-0.0115561,-0.0115312,-0.0115169,-0.0115122,-0.00262778,-0.0026433,-0.00269069,-0.00277295,-0.00289541,-0.00306679,-0.00330087,-0.00353314,-0.00368609,-0.00368963,-0.00337262,-0.00203672,0.000662107,0.00651244,0.00672802,0.00672802,0.00663644,0.00644775,-0.00243549,-0.00994058,-0.0166485,-0.0229702,-0.01177,-0.0117153,-0.0116446,-0.0115929,-0.0115561,-0.0115312,-0.0115169,-0.0115122,-0.00262778,-0.0026433,-0.00269069,-0.00277295,-0.00289541,-0.00306679,-0.00330087,-0.00356931,-0.00375192,-0.00381671,-0.003644,-0.00283407,-0.000512758,0.00445809,0.00465266,0.00465266,0.00456295,0.00437808,-0.000326867,-0.015466,-0.0228538,-0.020114,-0.0117819,-0.0117153,-0.0116446,-0.0115929,-0.0115561,-0.0115312,-0.0115169,-0.0115122,-0.00262778,-0.0026433,-0.00269069,-0.00277295,-0.00289541,-0.00306679,-0.00330087,-0.00359111,-0.00383822,-0.00397627,-0.00414556,-0.00404822,-0.00235124,0.00117065,0.00132945,0.00132945,0.00124393,0.00106773,-0.000242908,-0.023131,-0.0247392,-0.0182976,-0.0118114,-0.0117153,-0.0116446,-0.0115929,-0.0115561,-0.0115312,-0.0115169,-0.0115122,-0.00262778,-0.0026433,-0.00269069,-0.00277295,-0.00289541,-0.00306679,-0.00330087,-0.00361535,-0.0039281,-0.00415194,-0.00429472,-0.00414736,-0.00178402,0.0033725,0.00358749,0.00358749,0.00348061,0.00326039,0.00298119,-0.024616,-0.0231839,-0.0178308,-0.0118114,-0.0117153,-0.0116446,-0.0115929,-0.0115561,-0.0115312,-0.0115169,-0.0115122,-0.00262778,-0.0026433,-0.00269069,-0.00277295,-0.00289541,-0.00306679,-0.00330087,-0.00361959,-0.0040076,-0.00432893,-0.00462415,-0.00427846,-0.00145527,0.00499991,0.00526083,0.00526083,0.00513566,0.00487771,0.00247408,-0.0238341,-0.0205966,-0.0178916,-0.0118114,-0.0117153,-0.0116446,-0.0115929,-0.0115561,-0.0115312,-0.0115169,-0.0115122,-0.00262778,-0.0026433,-0.00269069,-0.00277295,-0.00289541,-0.00306679,-0.00330087,-0.00361959,-0.00405531,-0.00450689,-0.00484822,-0.00420388,-0.000803806,0.00677872,0.00707565,0.00707565,0.00693859,0.00665621,0.00331895,-0.0210869,-0.0196469,-0.0119442,-0.0118114,-0.0117153,-0.0116446,-0.0115929,-0.0115561,-0.0115312,-0.0115169,-0.0115122,-0.00262778,-0.0026433,-0.00269069,-0.00277295,-0.00289541,-0.00306679,-0.00330087,-0.00361959,-0.00405909,-0.00463979,-0.00513052,-0.00451367,-0.000602925,0.0078539,0.00818202,0.00818202,0.00803237,0.00772406,0.00255025,-0.0193344,-0.0191993,-0.0119442,-0.0118114,-0.0117153,-0.0116446,-0.0115929,-0.0115561,-0.0115312,-0.0115169,-0.0115122,-0.00262778,-0.0026433,-0.00269069,-0.00277295,-0.00289541,-0.00306679,-0.00330087,-0.00361959,-0.00405909,-0.00468253,-0.005286,-0.00425458,-0.000260566,0.00829599,0.00862426,0.00862426,0.00847683,0.00817285,-0.00417988,-0.016034,-0.0145752,-0.0126467,-0.0118114,-0.0117153,-0.0116446,-0.0115929,-0.0115561,-0.0115312,-0.0115169,-0.0115122,-0.00262778,-0.0026433,-0.00269069,-0.00277295,-0.00289541,-0.00306679,-0.00330087,-0.00361959,-0.00405909,-0.00468253,-0.00514993,-0.00352441,0.000944876,0.0104911,0.0108443,0.0108443,0.0106934,0.0103824,-0.00595154,-0.0121005,-0.0145752,-0.0126467,-0.0118114,-0.0117153,-0.0116446,-0.0115929,-0.0115561,-0.0115312,-0.0115169,-0.0115122,-0.00262778,-0.0026433,-0.00269069,-0.00277295,-0.00289541,-0.00306679,-0.00330087,-0.00361959,-0.00405909,-0.00468253,-0.00492324,-0.00238276,0.00264621,0.0134806,0.0138648,0.0138648,0.0137109,0.0133939,-0.00465354,-0.0137581,-0.0156466,-0.0133769,-0.0118114,-0.0117153,-0.0116446,-0.0115929,-0.0115561,-0.0115312,-0.0115169,-0.0115122,-0.00262778,-0.0026433,-0.00269069,-0.00277295,-0.00289541,-0.00306679,-0.00330087,-0.00361959,-0.00405909,-0.00467995,-0.00478686,-0.00183651,0.00309985,0.0134445,0.0138054,0.0138054,0.0136647,0.013375,-0.0041825,-0.0153449,-0.0156466,-0.0133769,-0.0118114,-0.0117153,-0.0116446,-0.0115929,-0.0115561,-0.0115312,-0.0115169,-0.0115122,-0.00262778,-0.0026433,-0.00269069,-0.00277295,-0.00289541,-0.00306679,-0.00330087,-0.00361959,-0.00405909,-0.00465252,-0.00469557,-0.00155923,0.00413291,0.0163908,0.0168134,0.0168134,0.0166519,0.0163191,-0.000746072,-0.0180724,-0.0156466,-0.0133769,-0.0118114,-0.0117153,-0.0116446,-0.0115929,-0.0115561,-0.0115312,-0.0115169,-0.0115122,]