[-0.00577951,-0.00581363,-0.00591789,-0.00609876,-0.00636809,-0.00674505,-0.00725983,-0.00796072,-0.00892741,-0.0102577,-0.0113605,-0.00976185,-0.00400104,0.010382,0.0109713,0.0109713,0.0106839,0.0100919,0.00346784,0.000102122,-0.00359535,-0.00166493,-0.000307997,0.000443543,0.000995521,0.00139963,0.00168839,0.00188235,0.00199411,0.00203067,-0.00577951,-0.00581363,-0.00591789,-0.00609876,-0.00636809,-0.00674505,-0.00725983,-0.00796072,-0.00892741,-0.0102628,-0.0113923,-0.00986919,-0.000471393,0.0231168,0.0240191,0.0240191,0.0236151,0.0227829,0.00354512,8.40964e-05,-0.00359535,-0.00166493,-0.000307997,0.000443543,0.000995521,0.00139963,0.00168839,0.00188235,0.00199411,0.00203067,-0.00577951,-0.00581363,-0.00591789,-0.00609876,-0.00636809,-0.00674505,-0.00725983,-0.00796072,-0.00892741,-0.0102702,-0.0114766,-0.0101698,-0.00314757,0.0129187,0.013563,0.013563,0.0132567,0.0126254,0.00330654,-0.0014838,-0.00347264,-0.00166493,-0.000307997,0.000443543,0.000995521,0.00139963,0.00168839,0.00188235,0.00199411,0.00203067,-0.00577951,-0.00581363,-0.00591789,-0.00609876,-0.00636809,-0.00674505,-0.00725983,-0.00796072,-0.00892741,-0.0102879,-0.0116034,-0.010627,-0.00342476,0.0127514,0.0134029,0.0134029,0.0130917,0.0124503,-0.000438649,-0.00213743,-0.00347264,-0.00150084,-0.000307997,0.000443543,0.000995521,0.00139963,0.00168839,0.00188235,0.00199411,0.00203067,-0.00577951,-0.00581363,-0.00591789,-0.00609876,-0.00636809,-0.00674505,-0.00725983,-0.00796072,-0.00892741,-0.0102888,-0.0117511,-0.0115794,-0.0049602,0.00939018,0.0099885,0.0099885,0.00969114,0.00907837,-0.0027985,-0.00359095,-0.00347264,-0.00150084,-0.000307997,0.000443543,0.000995521,0.00139963,0.00168839,0.00188235,0.00199411,0.00203067,-0.00577951,-0.00581363,-0.00591789,-0.00609876,-0.00636809,-0.00674505,-0.00725983,-0.00796072,-0.00892447,-0.0102617,-0.0117908,-0.0122309,-0.00928276,-0.00320507,-0.00287593,-0.00287593,-0.00308124,-0.00350425,-0.00561631,-0.00723452,-0.00316071,-0.00134437,-0.000307997,0.000443543,0.000995521,0.00139963,0.00168839,0.00188235,0.00199411,0.00203067,-0.00577951,-0.00581363,-0.00591789,-0.00609876,-0.00636809,-0.00674505,-0.00725983,-0.00796072,-0.00891082,-0.0101726,-0.0116629,-0.0124425,-0.0116287,-0.0102247,-0.0100486,-0.0100486,-0.0102008,-0.0105145,-0.0107819,-0.00904172,-0.00593135,-0.00127747,-0.000307997,0.000443543,0.000995521,0.00139963,0.00168839,0.00188235,0.00199411,0.00203067,-0.00577951,-0.00581363,-0.00591789,-0.00609876,-0.00636809,-0.00674505,-0.00725983,-0.00795543,-0.00888223,-0.0100305,-0.0113781,-0.0122135,-0.0115709,-0.0107008,-0.0105457,-0.0105457,-0.0106882,-0.0109819,-0.0110756,-0.00825141,-0.0056536,-0.00126776,-0.000307997,0.000443543,0.000995521,0.00139963,0.00168839,0.00188235,0.00199411,0.00203067,-0.00577951,-0.00581363,-0.00591789,-0.00609876,-0.00636809,-0.00674505,-0.00725983,-0.00794757,-0.00882441,-0.00984528,-0.0104636,-0.00941654,-0.00585785,0.00166038,0.00200818,0.00200818,0.00181639,0.00142117,0.000692923,-0.00742507,-0.00532702,-0.00433482,-0.000241087,0.000443543,0.000995521,0.00139963,0.00168839,0.00188235,0.00199411,0.00203067,-0.00577951,-0.00581363,-0.00591789,-0.00609876,-0.00636809,-0.00674505,-0.00725983,-0.00793829,-0.00873975,-0.00965426,-0.00980637,-0.00674716,0.000393404,0.015892,0.0164776,0.0164776,0.0162199,0.015689,0.0121149,-0.000334134,-0.00477962,-0.00398731,-0.000235275,0.000443543,0.000995521,0.00139963,0.00168839,0.00188235,0.00199411,0.00203067,-0.00577951,-0.00581363,-0.00591789,-0.00609876,-0.00636809,-0.00674505,-0.00725546,-0.00791292,-0.00865367,-0.00947849,-0.00931902,-0.00413526,0.00747784,0.032932,0.0338214,0.0338214,0.0334739,0.0327575,0.0221499,-0.000428747,-0.00453397,-0.00377237,-0.000230999,0.000443543,0.000995521,0.00139963,0.00168839,0.00188235,0.00199411,0.00203067,-0.00577951,-0.00581363,-0.00591789,-0.00609876,-0.00636809,-0.00674505,-0.00725196,-0.00788482,-0.0085635,-0.00931122,-0.00979048,-0.00652835,0.00153007,0.0189727,0.0196201,0.0196201,0.0193422,0.0187695,0.0107509,-0.00708427,-0.00502932,-0.00402581,-0.000227937,0.000443543,0.000995521,0.00139963,0.00168839,0.00188235,0.00199411,0.00203067,-0.00577951,-0.00581363,-0.00591789,-0.00609876,-0.00636809,-0.00674505,-0.00724963,-0.00785375,-0.00849221,-0.00918267,-0.00941527,-0.00522793,0.00553872,0.0290411,0.0298768,0.0298768,0.0295408,0.0288484,0.0193484,-0.00149457,-0.00534035,-0.00375511,1.44894e-05,0.000443543,0.000995521,0.00139963,0.00168839,0.00188235,0.00199411,0.00203067,-0.00577951,-0.00581363,-0.00591789,-0.00609876,-0.00636809,-0.00674505,-0.00724828,-0.00782884,-0.00843632,-0.00908524,-0.00968804,-0.00737486,-0.00140675,0.0113675,0.0118683,0.0118683,0.011637,0.01116,0.00338694,-0.00853057,-0.00635067,-0.00403691,-0.00303377,0.000511323,0.000995521,0.00139963,0.00168839,0.00188235,0.00199411,0.00203067,-0.00577951,-0.00581363,-0.00591789,-0.00609876,-0.00636809,-0.00674505,-0.00724784,-0.00781218,-0.00840295,-0.00902701,-0.00959137,-0.00696266,0.00351146,0.0262689,0.0270978,0.0270978,0.0267519,0.0260392,-0.00281319,-0.00874061,-0.00715208,-0.0048082,-0.00287803,0.000511763,0.000995521,0.00139963,0.00168839,0.00188235,0.00199411,0.00203067,-0.00577951,-0.00581363,-0.00591789,-0.00609876,-0.00636809,-0.00674505,-0.00724784,-0.00780655,-0.00838957,-0.00900647,-0.00955501,-0.00798165,-0.00358211,0.00569084,0.0060814,0.0060814,0.00588509,0.00548052,-0.00341267,-0.00928157,-0.0081317,-0.00542994,-0.00287697,0.000511763,0.000995521,0.00139963,0.00168839,0.00188235,0.00199411,0.00203067,-0.00577951,-0.00581363,-0.00591789,-0.00609876,-0.00636809,-0.00674505,-0.00724828,-0.00781178,-0.00839869,-0.00902215,-0.00958046,-0.00812995,-0.00208814,0.0108064,0.011319,0.011319,0.0110779,0.0105813,-0.0040251,-0.00963277,-0.00848474,-0.00676107,-0.00302913,0.000511323,0.000995521,0.00139963,0.00168839,0.00188235,0.00199411,0.00203067,-0.00577951,-0.00581363,-0.00591789,-0.00609876,-0.00636809,-0.00674505,-0.00724963,-0.00782951,-0.00843132,-0.00907637,-0.00967163,-0.00880531,-0.0073355,-0.00458478,-0.00440275,-0.00440275,-0.00453028,-0.00479307,-0.00496616,-0.0104502,-0.00906408,-0.00696906,0.000197823,0.000443543,0.000995521,0.00139963,0.00168839,0.00188235,0.00199411,0.00203067,-0.00577951,-0.00581363,-0.00591789,-0.00609876,-0.00636809,-0.00674505,-0.00725196,-0.00785737,-0.00848625,-0.00916792,-0.00978624,-0.00896549,-0.00723865,-0.00392865,-0.00372635,-0.00372635,-0.00386229,-0.0041424,-0.00411097,-0.0108152,-0.00928953,-0.00738899,-0.000854038,0.000443543,0.000995521,0.00139963,0.00168839,0.00188235,0.00199411,0.00203067,-0.00577951,-0.00581363,-0.00591789,-0.00609876,-0.00636809,-0.00674505,-0.00725546,-0.00789231,-0.00856288,-0.00924216,-0.00933568,-0.00801372,-0.00509327,0.000908626,0.00119068,0.00119068,0.00103296,0.000707969,0.000411389,-0.00740387,-0.00964101,-0.00848432,-0.00193773,0.000443543,0.000995521,0.00139963,0.00168839,0.00188235,0.00199411,0.00203067,-0.00577951,-0.00581363,-0.00591789,-0.00609876,-0.00636809,-0.00674505,-0.00725983,-0.00792579,-0.00862926,-0.00877789,-0.00838593,-0.00679859,-0.00292229,0.00526097,0.00560315,0.00560315,0.00543253,0.00508096,-0.00160442,-0.00552582,-0.00975261,-0.00858411,-0.00260077,0.000443543,0.000995521,0.00139963,0.00168839,0.00188235,0.00199411,0.00203067,-0.00577951,-0.00581363,-0.00591789,-0.00609876,-0.00636809,-0.00674505,-0.00725983,-0.00794505,-0.0083669,-0.0080067,-0.00702401,-0.00505765,-0.000239305,0.0101246,0.0105213,0.0105213,0.0103434,0.00997716,0.00384678,-0.000530957,-0.00365534,-0.00842378,-0.00281112,0.000443543,0.000995521,0.00139963,0.00168839,0.00188235,0.00199411,0.00203067,-0.00577951,-0.00581363,-0.00591789,-0.00609876,-0.00636809,-0.00674505,-0.00725983,-0.00790979,-0.00772948,-0.00692794,-0.00565234,-0.00326493,0.00173092,0.0127282,0.0131282,0.0131282,0.0129615,0.0126179,0.00815332,0.00302435,-0.00106791,0.000115768,-0.00207236,0.000443543,0.000995521,0.00139963,0.00168839,0.00188235,0.00199411,0.00203067,-0.00577951,-0.00581363,-0.00591789,-0.00609876,-0.00636809,-0.00674505,-0.00725983,-0.00753692,-0.00700689,-0.00579466,-0.00409931,-0.00111961,0.00442037,0.0166026,0.0170195,0.0170195,0.0168625,0.0165389,0.0135721,0.00803462,0.00598673,0.00187787,-0.000478461,0.000443543,0.000995521,0.00139963,0.00168839,0.00188235,0.00199411,0.00203067,-0.00577951,-0.00581363,-0.00591789,-0.00609876,-0.00636809,-0.00674505,-0.00725983,-0.0071064,-0.00621973,-0.00484453,-0.00278433,0.000679309,0.00668208,0.0199887,0.0204247,0.0204247,0.0202735,0.0199623,0.0181281,0.0133043,0.0117696,0.00517862,0.00614441,0.000443543,0.000995521,0.00139963,0.00168839,0.00188235,0.00199411,0.00203067,-0.00577951,-0.00581363,-0.00591789,-0.00609876,-0.00636809,-0.00674505,-0.00717058,-0.00669985,-0.0056083,-0.00403912,-0.00127676,0.0031645,0.010638,0.0273354,0.0278586,0.0278586,0.0276938,0.0273548,0.0268192,0.0220858,0.0138366,0.0108379,0.00800388,0.000443543,0.000995521,0.00139963,0.00168839,0.00188235,0.00199411,0.00203067,-0.00577951,-0.00581363,-0.00591789,-0.00609876,-0.00636809,-0.00674505,-0.00697986,-0.00631176,-0.00511722,-0.00338671,-0.000440389,0.00462261,0.0130878,0.0320602,0.032644,0.032644,0.0324678,0.0321051,0.0315326,0.0227735,0.0165543,0.0134259,0.0101765,0.000443543,0.000995521,0.00139963,0.00168839,0.00188235,0.00199411,0.00203067,-0.00577951,-0.00581363,-0.00591789,-0.00609876,-0.00636809,-0.00674505,-0.00682126,-0.00598614,-0.00474767,-0.00287918,0.000159243,0.0055413,0.0145913,0.0349086,0.0355275,0.0355275,0.0353453,0.0349696,0.0343772,0.0250729,0.0193047,0.016335,0.0114153,0.000443543,0.000995521,0.00139963,0.00168839,0.00188235,0.00199411,0.00203067,-0.00577951,-0.00581363,-0.00591789,-0.00609876,-0.00636809,-0.00702692,-0.0076076,-0.00740342,-0.00690567,-0.00585523,-0.00396914,-0.00039905,0.00538255,0.0181394,0.0185678,0.0185678,0.0184119,0.0180901,0.0175824,0.00943364,0.00340722,0.0013287,-0.00501372,-0.00917457,-0.00342043,0.00139963,0.00168839,0.00188235,0.00199411,0.00203067,-0.00577951,-0.00581363,-0.00591789,-0.00609876,-0.00636809,-0.00736821,-0.00910238,-0.010843,-0.013095,-0.0125657,-0.00974211,-0.00548086,0.00114681,0.0154862,0.0160195,0.0160195,0.0157898,0.0153164,0.0145698,0.00602408,-0.0236422,-0.0534011,-0.0433761,-0.034019,-0.00812137,0.00139963,0.00168839,0.00188235,0.00199411,0.00203067,-0.00577951,-0.00581363,-0.00591789,-0.00609876,-0.00636809,-0.00790762,-0.0104865,-0.013158,-0.014865,-0.0144202,-0.0128178,-0.0122125,-0.0117744,-0.0114966,-0.0113618,-0.0113618,-0.0114966,-0.0117744,-0.0122125,-0.00393205,-0.03492,-0.066276,-0.0590272,-0.0467385,-0.0293569,0.00139963,0.00168839,0.00188235,0.00199411,0.00203067,-0.00577951,-0.00581363,-0.00591789,-0.00609876,-0.00636809,-0.00748424,-0.00908205,-0.0105273,-0.0113638,-0.0103503,-0.00887011,-0.00612858,-0.00196134,0.00690293,0.0072609,0.0072609,0.00708934,0.0067359,0.00617834,0.00581595,-0.00875308,-0.028748,-0.0389919,-0.0293418,-0.0140382,0.00139963,0.00168839,0.00188235,0.00199411,0.00203067,-0.00577951,-0.00581363,-0.00591789,-0.00609876,-0.00636809,-0.00688222,-0.00715335,-0.00645782,-0.00546368,-0.00384645,-0.00121964,0.00348767,0.0113298,0.0288608,0.0294084,0.0294084,0.0292371,0.0288846,0.0283279,0.0190323,0.0138534,0.0115112,0.00533904,-0.00559989,0.000995521,0.00139963,0.00168839,0.00188235,0.00199411,0.00203067,-0.00577951,-0.00581363,-0.00591789,-0.00609876,-0.00636809,-0.00674505,-0.00689925,-0.00602378,-0.00478347,-0.0029338,5.50689e-05,0.00538403,0.0144397,0.0347605,0.0353808,0.0353808,0.035197,0.0348179,0.0342199,0.0250211,0.0184343,0.0165163,0.0103005,0.000443543,0.000995521,0.00139963,0.00168839,0.00188235,0.00199411,0.00203067,-0.00577951,-0.00581363,-0.00591789,-0.00609876,-0.00636809,-0.00674505,-0.00708385,-0.00636687,-0.00517264,-0.00346145,-0.000562303,0.0046448,0.013727,0.0340648,0.0346934,0.0346934,0.0345013,0.0341054,0.0334806,0.0235102,0.0142596,0.0130901,0.0100715,0.000443543,0.000995521,0.00139963,0.00168839,0.00188235,0.00199411,0.00203067,-0.00577951,-0.00581363,-0.00591789,-0.00609876,-0.00636809,-0.00674505,-0.00725983,-0.00684343,-0.0056701,-0.00412812,-0.00136527,0.00319412,0.0112412,0.0292083,0.0297733,0.0297733,0.0295938,0.0292238,0.0267026,0.0213125,0.0133457,0.0105718,0.00840323,0.000443543,0.000995521,0.00139963,0.00168839,0.00188235,0.00199411,0.00203067,-0.00577951,-0.00581363,-0.00591789,-0.00609876,-0.00636809,-0.00674505,-0.00725983,-0.00730603,-0.00632358,-0.00494221,-0.00283565,0.00056311,0.00702377,0.0213358,0.0218063,0.0218063,0.0216422,0.0213036,0.0177174,0.0147657,0.0103063,0.00958713,-1.52347e-05,0.000443543,0.000995521,0.00139963,0.00168839,0.00188235,0.00199411,0.00203067,-0.00577951,-0.00581363,-0.00591789,-0.00609876,-0.00636809,-0.00674505,-0.00725983,-0.00777372,-0.00713441,-0.00595115,-0.00431161,-0.00155769,0.00411638,0.0167877,0.0172263,0.0172263,0.0170577,0.0167102,0.0122373,0.00815056,0.00681064,0.00207955,-0.0010916,0.000443543,0.000995521,0.00139963,0.00168839,0.00188235,0.00199411,0.00203067,-0.00577951,-0.00581363,-0.00591789,-0.00609876,-0.00636809,-0.00674505,-0.00725983,-0.007956,-0.00806572,-0.00707334,-0.00577099,-0.00343028,0.00194242,0.0138259,0.0142573,0.0142573,0.014078,0.0137084,0.00786247,0.00362992,0.00361149,-0.00032044,-0.00225954,0.000443543,0.000995521,0.00139963,0.00168839,0.00188235,0.00199411,0.00203067,-0.00577951,-0.00581363,-0.00591789,-0.00609876,-0.00636809,-0.00674505,-0.00725983,-0.00793154,-0.0086868,-0.00831448,-0.00732978,-0.00537194,-0.000295726,0.0106204,0.0110387,0.0110387,0.010851,0.010464,0.00250306,-0.000704187,-0.00382152,-0.007193,-0.00285029,0.000443543,0.000995521,0.00139963,0.00168839,0.00188235,0.00199411,0.00203067,-0.00577951,-0.00581363,-0.00591789,-0.00609876,-0.00636809,-0.00674505,-0.00725983,-0.00790275,-0.0086313,-0.00923149,-0.00883758,-0.00722337,-0.00312667,0.00551965,0.00588154,0.00588154,0.00570083,0.00532854,-0.00373921,-0.00496234,-0.0101406,-0.0076713,-0.0020701,0.000443543,0.000995521,0.00139963,0.00168839,0.00188235,0.00199411,0.00203067,-0.00577951,-0.00581363,-0.00591789,-0.00609876,-0.00636809,-0.00674505,-0.00725983,-0.00786596,-0.00855237,-0.00930112,-0.00987561,-0.00873101,-0.00583925,5.85718e-05,0.000344556,0.000344556,0.000180338,-0.000158014,-5.51543e-07,-0.0103541,-0.00936679,-0.00711096,-0.00167343,0.000443543,0.000995521,0.00139963,0.00168839,0.00188235,0.00199411,0.00203067,-0.00577951,-0.00581363,-0.00591789,-0.00609876,-0.00636809,-0.00674505,-0.00725389,-0.00783906,-0.00848246,-0.00918632,-0.00988693,-0.00902107,-0.00699115,-0.00301467,-0.00278963,-0.00278963,-0.00293408,-0.00323174,-0.00317894,-0.0108566,-0.00889738,-0.00632498,-0.000423253,0.000443543,0.000995521,0.00139963,0.00168839,0.00188235,0.00199411,0.00203067,-0.00577951,-0.00581363,-0.00591789,-0.00609876,-0.00636809,-0.00674505,-0.00724726,-0.0078184,-0.00843624,-0.00910722,-0.00975169,-0.00874295,-0.00680115,-0.00300368,-0.00278746,-0.00278746,-0.00292679,-0.0032139,-0.00304115,-0.010109,-0.00869073,-0.00664129,0.000175371,0.000443543,0.000995521,0.00139963,0.00168839,0.00188235,0.00199411,0.00203067,-0.00577951,-0.00581363,-0.00591789,-0.00609876,-0.00636809,-0.00674505,-0.00724399,-0.00780734,-0.00841119,-0.00906402,-0.0096738,-0.00798503,0.00025497,0.0180166,0.0186897,0.0186897,0.0183922,0.0177794,-0.00250587,-0.00954909,-0.0079267,-0.00565373,-0.00145518,0.000443543,0.000995521,0.00139963,0.00168839,0.00188235,0.00199411,0.00203067,-0.00577951,-0.00581363,-0.00591789,-0.00609876,-0.00636809,-0.00674505,-0.00724399,-0.00780673,-0.00840771,-0.00905882,-0.00966269,-0.00801363,-0.00323511,0.00687373,0.00729244,0.00729244,0.00708581,0.00666004,-0.0021613,-0.00918836,-0.00734978,-0.00502382,-0.00145536,0.000443543,0.000995521,0.00139963,0.00168839,0.00188235,0.00199411,0.00203067,-0.00577951,-0.00581363,-0.00591789,-0.00609876,-0.00636809,-0.00674505,-0.00724726,-0.00781606,-0.00842576,-0.00908821,-0.00971342,-0.00723986,0.00158924,0.0206951,0.0214052,0.0214052,0.0210998,0.0204705,-0.00140134,-0.00877258,-0.00696548,-0.00413647,-0.0016272,0.000443543,0.000995521,0.00139963,0.00168839,0.00188235,0.00199411,0.00203067,-0.00577951,-0.00581363,-0.00591789,-0.00609876,-0.00636809,-0.00674505,-0.00725389,-0.00783578,-0.00846503,-0.00915121,-0.00981774,-0.00849593,-0.00494122,0.00243535,0.00276812,0.00276812,0.00258883,0.00221943,-0.00107602,-0.00838817,-0.0059331,-0.00366683,-0.00163459,0.000443543,0.000995521,0.00139963,0.00168839,0.00188235,0.00199411,0.00203067,-0.00577951,-0.00581363,-0.00591789,-0.00609876,-0.00636809,-0.00674505,-0.00725983,-0.00786598,-0.00852715,-0.00925331,-0.00985205,-0.0058814,0.00434842,0.0266271,0.0274291,0.0274291,0.0271002,0.0264234,0.0223052,-0.00776375,-0.00566979,-0.00311984,8.52611e-05,0.000443543,0.000995521,0.00139963,0.00168839,0.00188235,0.00199411,0.00203067,-0.00577951,-0.00581363,-0.00591789,-0.00609876,-0.00636809,-0.00674505,-0.00725983,-0.0079048,-0.00859796,-0.00938466,-0.0098682,-0.00536015,0.00544089,0.0290117,0.029851,0.029851,0.0295128,0.0288155,0.0223105,-0.00694498,-0.00473862,-0.00261982,7.20897e-05,0.000443543,0.000995521,0.00139963,0.00168839,0.00188235,0.00199411,0.00203067,-0.00577951,-0.00581363,-0.00591789,-0.00609876,-0.00636809,-0.00674505,-0.00725983,-0.00792904,-0.00868933,-0.00955007,-0.00906025,-0.00421009,0.00658155,0.0301968,0.0310257,0.0310257,0.0306992,0.0300266,0.0262457,0.00550681,-0.00424196,-0.00221718,-0.000307997,0.000443543,0.000995521,0.00139963,0.00168839,0.00188235,0.00199411,0.00203067,-0.00577951,-0.00581363,-0.00591789,-0.00609876,-0.00636809,-0.00674505,-0.00725983,-0.007956,-0.00878476,-0.00973091,-0.0101385,-0.00747511,-0.000921542,0.0133405,0.0138929,0.0138929,0.0136416,0.0131238,0.0102916,-0.000192329,-0.00423465,-0.00262975,-0.000307997,0.000443543,0.000995521,0.00139963,0.00168839,0.00188235,0.00199411,0.00203067,-0.00577951,-0.00581363,-0.00591789,-0.00609876,-0.00636809,-0.00674505,-0.00725983,-0.00796072,-0.00887031,-0.00991915,-0.0105546,-0.00971428,-0.00622685,0.00146813,0.00182657,0.00182657,0.0016277,0.0012179,-0.000431046,-0.00692991,-0.00401417,-0.00309529,-0.000307997,0.000443543,0.000995521,0.00139963,0.00168839,0.00188235,0.00199411,0.00203067,-0.00577951,-0.00581363,-0.00591789,-0.00609876,-0.00636809,-0.00674505,-0.00725983,-0.00796072,-0.00892319,-0.010109,-0.0115284,-0.0126096,-0.0121532,-0.0115144,-0.0113619,-0.0113619,-0.011507,-0.011806,-0.0113694,-0.00782816,-0.00447964,-0.00134437,-0.000307997,0.000443543,0.000995521,0.00139963,0.00168839,0.00188235,0.00199411,0.00203067,-0.00577951,-0.00581363,-0.00591789,-0.00609876,-0.00636809,-0.00674505,-0.00725983,-0.00796072,-0.00892741,-0.0102517,-0.0118343,-0.0129157,-0.0119113,-0.0103545,-0.0101698,-0.0101698,-0.0103276,-0.0106531,-0.0112019,-0.00848528,-0.00479827,-0.00134437,-0.000307997,0.000443543,0.000995521,0.00139963,0.00168839,0.00188235,0.00199411,0.00203067,-0.00577951,-0.00581363,-0.00591789,-0.00609876,-0.00636809,-0.00674505,-0.00725983,-0.00796072,-0.00892741,-0.0102988,-0.0119978,-0.0125972,-0.00963727,-0.00365716,-0.003328,-0.003328,-0.00353554,-0.00396323,-0.0081391,-0.00680643,-0.00336064,-0.00150084,-0.000307997,0.000443543,0.000995521,0.00139963,0.00168839,0.00188235,0.00199411,0.00203067,-0.00577951,-0.00581363,-0.00591789,-0.00609876,-0.00636809,-0.00674505,-0.00725983,-0.00796072,-0.00892741,-0.0102988,-0.0118655,-0.0118676,-0.00695942,0.00402807,0.00451951,0.00451951,0.00425688,0.00371575,-0.00675125,-0.00369923,-0.00336064,-0.00150084,-0.000307997,0.000443543,0.000995521,0.00139963,0.00168839,0.00188235,0.00199411,0.00203067,-0.00577951,-0.00581363,-0.00591789,-0.00609876,-0.00636809,-0.00674505,-0.00725983,-0.00796072,-0.00892741,-0.0102988,-0.0116309,-0.0104934,-0.00304223,0.0136877,0.0143563,0.0143563,0.0140398,0.0133879,0.00261539,-0.00213227,-0.00359535,-0.00166493,-0.000307997,0.000443543,0.000995521,0.00139963,0.00168839,0.00188235,0.00199411,0.00203067,-0.00577951,-0.00581363,-0.00591789,-0.00609876,-0.00636809,-0.00674505,-0.00725983,-0.00796072,-0.00892741,-0.0102961,-0.0114879,-0.0100115,0.000134831,0.0252128,0.0261654,0.0261654,0.025743,0.0248726,0.00378593,-0.000481183,-0.00359535,-0.00166493,-0.000307997,0.000443543,0.000995521,0.00139963,0.00168839,0.00188235,0.00199411,0.00203067,-0.00577951,-0.00581363,-0.00591789,-0.00609876,-0.00636809,-0.00674505,-0.00725983,-0.00796072,-0.00892741,-0.0102677,-0.0113918,-0.00983803,-0.00364681,0.0113974,0.0120081,0.0120081,0.0117135,0.0111065,0.0035901,8.38156e-05,-0.00359535,-0.00166493,-0.000307997,0.000443543,0.000995521,0.00139963,0.00168839,0.00188235,0.00199411,0.00203067,]