[-0.000580901,-0.000584328,-0.00059481,-0.000612994,-0.000640071,-0.000677952,-0.000729702,-0.000800148,-0.00089731,-0.00113875,-0.00350487,-0.00585328,-0.0110718,-0.0228858,-0.0232184,-0.0232184,-0.0231412,-0.0229816,-0.0223825,-0.0106917,0.00952605,0.0101978,0.0106548,0.0109551,0.0111757,0.0113372,0.0114525,0.01153,0.0115747,0.0115893,-0.000580901,-0.000584328,-0.00059481,-0.000612994,-0.000640071,-0.000677952,-0.000729702,-0.000800148,-0.00089731,-0.00112848,-0.00345895,-0.00577817,-0.0108906,-0.0224295,-0.0227535,-0.0227535,-0.0226789,-0.0225247,-0.0222988,-0.0106557,0.00952605,0.0101978,0.0106548,0.0109551,0.0111757,0.0113372,0.0114525,0.01153,0.0115747,0.0115893,-0.000580901,-0.000584328,-0.00059481,-0.000612994,-0.000640071,-0.000677952,-0.000729702,-0.000800148,-0.00089731,-0.00110925,-0.00326693,-0.00555836,-0.0107423,-0.0224841,-0.0228175,-0.0228175,-0.0227378,-0.0225732,-0.0220546,-0.00687214,0.00954881,0.0101978,0.0106548,0.0109551,0.0111757,0.0113372,0.0114525,0.01153,0.0115747,0.0115893,-0.000580901,-0.000584328,-0.00059481,-0.000612994,-0.000640071,-0.000677952,-0.000729702,-0.000800148,-0.00089731,-0.00106329,-0.00283337,-0.00418817,-0.00722427,-0.0141496,-0.0143368,-0.0143368,-0.0142996,-0.0142229,0.011104,-0.00673162,0.00954881,0.0102191,0.0106548,0.0109551,0.0111757,0.0113372,0.0114525,0.01153,0.0115747,0.0115893,-0.000580901,-0.000584328,-0.00059481,-0.000612994,-0.000640071,-0.000677952,-0.000729702,-0.000800148,-0.00089731,-0.000967821,-0.00186751,-0.00255516,-0.00484129,-0.0100305,-0.0101769,-0.0101769,-0.0101427,-0.010072,0.00299574,0.00225753,0.00954881,0.0102191,0.0106548,0.0109551,0.0111757,0.0113372,0.0114525,0.01153,0.0115747,0.0115893,-0.000580901,-0.000584328,-0.00059481,-0.000612994,-0.000640071,-0.000677952,-0.000729702,-0.000800148,-0.000877412,-0.000780198,-0.00128002,-0.000668812,0.003891,0.0135683,0.0138954,0.0138954,0.0137749,0.0135264,-0.00129021,0.00532225,0.0117046,0.0102407,0.0106548,0.0109551,0.0111757,0.0113372,0.0114525,0.01153,0.0115747,0.0115893,-0.000580901,-0.000584328,-0.00059481,-0.000612994,-0.000640071,-0.000677952,-0.000729702,-0.000800148,-0.000785351,-0.00061943,-0.000997524,-0.00174646,2.54612e-05,0.0030489,0.00316368,0.00316368,0.00311283,0.00300812,-0.00540547,0.003669,0.0131994,0.0123778,0.0106548,0.0109551,0.0111757,0.0113372,0.0114525,0.01153,0.0115747,0.0115893,-0.000580901,-0.000584328,-0.00059481,-0.000612994,-0.000640071,-0.000677952,-0.000729702,-0.000764482,-0.000665404,-0.000744678,-0.000452349,-0.00185674,-0.000941237,0.00225027,0.00238164,0.00238164,0.00231727,0.00218468,-0.0045608,0.0135971,0.0122252,0.0124434,0.0106548,0.0109551,0.0111757,0.0113372,0.0114525,0.01153,0.0115747,0.0115893,-0.000580901,-0.000584328,-0.00059481,-0.000612994,-0.000640071,-0.000677952,-0.000729702,-0.000711354,-0.00060608,-0.000597011,-0.000218734,-0.00097791,-0.00680259,-0.0206931,-0.0211498,-0.0211498,-0.0209901,-0.0206612,-0.00898426,0.00784732,0.00197359,0.0139158,0.0128423,0.0109551,0.0111757,0.0113372,0.0114525,0.01153,0.0115747,0.0115893,-0.000580901,-0.000584328,-0.00059481,-0.000612994,-0.000640071,-0.000677952,-0.000729702,-0.000647036,-0.000702605,-0.000580374,-0.000260849,-0.000295979,-0.00574327,-0.0182411,-0.0186558,-0.0186558,-0.0185081,-0.0182035,0.00930479,0.00755962,0.0124902,0.010514,0.0128816,0.0109551,0.0111757,0.0113372,0.0114525,0.01153,0.0115747,0.0115893,-0.000580901,-0.000584328,-0.00059481,-0.000612994,-0.000640071,-0.000677952,-0.00070029,-0.000663225,-0.000716227,-0.00067494,-0.000670133,-0.000799847,-0.00691068,-0.0204231,-0.0208642,-0.0208642,-0.0207121,-0.0203989,0.0101168,0.00697085,0.00799057,0.0109359,0.0129105,0.0109551,0.0111757,0.0113372,0.0114525,0.01153,0.0115747,0.0115893,-0.000580901,-0.000584328,-0.00059481,-0.000612994,-0.000640071,-0.000677952,-0.000676791,-0.00060434,-0.000661774,-0.000732271,-0.00083761,-0.00187195,-0.00752665,-0.0201315,-0.0205313,-0.0205313,-0.0204016,-0.0201339,0.00288647,0.00344535,0.00590176,0.00211386,0.0129311,0.0109551,0.0111757,0.0113372,0.0114525,0.01153,0.0115747,0.0115893,-0.000580901,-0.000584328,-0.00059481,-0.000612994,-0.000640071,-0.000677952,-0.000660973,-0.000608072,-0.000714005,-0.000901585,-0.00103541,-0.0027641,-0.00830583,-0.0207111,-0.0210953,-0.0210953,-0.0209774,-0.0207344,-0.0204201,-0.00308183,0.00300137,0.0089854,0.00648444,0.0109551,0.0111757,0.0113372,0.0114525,0.01153,0.0115747,0.0115893,-0.000580901,-0.000584328,-0.00059481,-0.000612994,-0.000640071,-0.000677952,-0.000651842,-0.00068863,-0.000802428,-0.00102058,-0.00123582,-0.00352903,-0.00916633,-0.0218264,-0.0222112,-0.0222112,-0.0220984,-0.021866,-0.0215271,-0.000591294,-0.000126506,0.00450266,0.009299,0.0131851,0.0111757,0.0113372,0.0114525,0.01153,0.0115747,0.0115893,-0.000580901,-0.000584328,-0.00059481,-0.000612994,-0.000640071,-0.000677952,-0.000648854,-0.000695276,-0.00087209,-0.00118308,-0.00148578,-0.00406087,-0.00955412,-0.021926,-0.0222957,-0.0222957,-0.022192,-0.0219788,-0.0223371,-0.00316803,-0.000293699,0.00441791,0.014459,0.0131881,0.0111757,0.0113372,0.0114525,0.01153,0.0115747,0.0115893,-0.000580901,-0.000584328,-0.00059481,-0.000612994,-0.000640071,-0.000677952,-0.000648854,-0.000687801,-0.000926762,-0.001315,-0.00172623,-0.00444826,-0.0100972,-0.0228353,-0.023213,-0.023213,-0.0231094,-0.0228957,-0.022728,-0.00335763,-0.00040862,0.00437681,0.0144618,0.0131881,0.0111757,0.0113372,0.0114525,0.01153,0.0115747,0.0115893,-0.000580901,-0.000584328,-0.00059481,-0.000612994,-0.000640071,-0.000677952,-0.000651842,-0.000668299,-0.000954565,-0.00141375,-0.00189927,-0.00464653,-0.0102556,-0.0229163,-0.0232897,-0.0232897,-0.0231891,-0.0229816,-0.0229506,-0.0034677,-0.000462461,0.00432143,0.00931926,0.0131851,0.0111757,0.0113372,0.0114525,0.01153,0.0115747,0.0115893,-0.000580901,-0.000584328,-0.00059481,-0.000612994,-0.000640071,-0.000677952,-0.000660973,-0.00064547,-0.000959619,-0.00149843,-0.00204058,-0.00475445,-0.0104648,-0.0233553,-0.0237354,-0.0237354,-0.0236331,-0.0234223,-0.0230803,-0.00557733,-0.000514908,0.00432924,0.0101059,0.0109551,0.0111757,0.0113372,0.0114525,0.01153,0.0115747,0.0115893,-0.000580901,-0.000584328,-0.00059481,-0.000612994,-0.000640071,-0.000677952,-0.000676791,-0.000664061,-0.000953969,-0.00153901,-0.00185113,-0.00438317,-0.0105273,-0.0243557,-0.0247707,-0.0247707,-0.0246531,-0.0244112,-0.0239173,-0.00313846,-0.00245236,0.0022787,0.0165288,0.0109551,0.0111757,0.0113372,0.0114525,0.01153,0.0115747,0.0115893,-0.000580901,-0.000584328,-0.00059481,-0.000612994,-0.000640071,-0.000677952,-0.00070029,-0.000699677,-0.000909387,-0.00108686,-0.000745054,-0.00348724,-0.00977903,-0.0238836,-0.0243168,-0.0243168,-0.0241865,-0.0239179,-0.0267535,0.00604645,0.000631792,0.00673532,0.0128297,0.0109551,0.0111757,0.0113372,0.0114525,0.01153,0.0115747,0.0115893,-0.000580901,-0.000584328,-0.00059481,-0.000612994,-0.000640071,-0.000677952,-0.000729702,-0.000625606,-0.000641573,0.000394438,0.000229455,-0.00155424,-0.00570025,-0.0149522,-0.015244,-0.015244,-0.0151506,-0.0149582,-0.00385568,5.75768e-05,0.017274,0.0150611,0.0127668,0.0109551,0.0111757,0.0113372,0.0114525,0.01153,0.0115747,0.0115893,-0.000580901,-0.000584328,-0.00059481,-0.000612994,-0.000640071,-0.000677952,-0.000729702,-0.000683953,0.000623933,0.00140933,0.000318821,-0.00132443,-0.0047226,-0.0123086,-0.0125473,-0.0125473,-0.0124714,-0.0123147,-0.0117206,-0.00682717,0.0227958,0.0258042,0.0127167,0.0109551,0.0111757,0.0113372,0.0114525,0.01153,0.0115747,0.0115893,-0.000580901,-0.000584328,-0.00059481,-0.000612994,-0.000640071,-0.000677952,-0.000729702,-0.000393876,0.00114785,0.000596862,-0.000420669,-0.00275455,-0.00612065,-0.0136249,-0.0138458,-0.0138458,-0.0137866,-0.0136646,-0.0173443,-0.00629827,0.00165187,0.0421227,0.0105644,0.0109551,0.0111757,0.0113372,0.0114525,0.01153,0.0115747,0.0115893,-0.000580901,-0.000584328,-0.00059481,-0.000612994,-0.000640071,-0.000677952,-0.000729702,0.000286862,0.000839212,1.86947e-05,-0.0011632,-0.00350026,-0.00676573,-0.0141814,-0.0143922,-0.0143922,-0.0143416,-0.0142374,-0.0159262,-0.00866936,-0.00746102,0.0275534,0.0336327,0.0109551,0.0111757,0.0113372,0.0114525,0.01153,0.0115747,0.0115893,-0.000580901,-0.000584328,-0.00059481,-0.000612994,-0.000640071,-0.000677952,-0.000729702,0.000590715,0.000356399,-0.000469693,-0.00194274,-0.00397929,-0.00714167,-0.0143565,-0.0145557,-0.0145557,-0.0145126,-0.0144239,-0.015234,-0.0116228,-0.00955531,0.0115224,0.0395442,0.0109551,0.0111757,0.0113372,0.0114525,0.01153,0.0115747,0.0115893,-0.000580901,-0.000584328,-0.00059481,-0.000612994,-0.000640071,-0.000677952,-0.000385795,0.000566995,-2.3577e-05,-0.000960292,-0.00301213,-0.00543505,-0.00944968,-0.0186311,-0.0188807,-0.0188807,-0.01883,-0.0187253,-0.0185602,-0.0226428,-0.0114704,-0.00751561,0.0250105,0.0109551,0.0111757,0.0113372,0.0114525,0.01153,0.0115747,0.0115893,-0.000580901,-0.000584328,-0.00059481,-0.000612994,-0.000640071,-0.000677952,-2.26168e-05,0.000363106,-0.00030203,-0.00140465,-0.00334539,-0.00518761,-0.00830759,-0.0154973,-0.0156832,-0.0156832,-0.0156534,-0.0155921,-0.0154954,-0.023141,-0.0136509,-0.00749802,0.00712181,0.0109551,0.0111757,0.0113372,0.0114525,0.01153,0.0115747,0.0115893,-0.000580901,-0.000584328,-0.00059481,-0.000612994,-0.000640071,-0.000677952,0.000161351,0.000140002,-0.000524911,-0.00181527,-0.00360719,-0.00528048,-0.00814495,-0.014775,-0.0149413,-0.0149413,-0.0149192,-0.0148738,-0.014802,-0.0209224,-0.0164661,-0.0111871,0.0117069,0.0109551,0.0111757,0.0113372,0.0114525,0.01153,0.0115747,0.0115893,-0.000580901,-0.000584328,-0.00059481,-0.000612994,-0.000640071,-0.000663924,0.000197928,4.79829e-05,-0.000602132,-0.00195877,-0.00359493,-0.00515503,-0.00787284,-0.0141717,-0.0143283,-0.0143283,-0.0143088,-0.0142685,-0.0142053,-0.0191407,-0.0159011,-0.00794074,0.0123908,0.0349061,0.0114242,0.0113372,0.0114525,0.01153,0.0115747,0.0115893,-0.000580901,-0.000584328,-0.00059481,-0.000612994,-0.000640071,-0.00064986,0.000193728,5.28829e-05,-0.000501567,-0.00168845,-0.00286034,-0.00381514,-0.00550902,-0.00946877,-0.0095613,-0.0095613,-0.00955523,-0.00954276,-0.00952293,-0.0145543,-0.0127325,-0.00626738,0.0137587,0.0417021,0.0116193,0.0113372,0.0114525,0.01153,0.0115747,0.0115893,-0.000580901,-0.000584328,-0.00059481,-0.000612994,-0.000640071,-0.000628929,0.000203507,6.44435e-05,-0.000430421,-0.0013158,-0.0017817,-0.00170344,-0.00164233,-0.0016036,-0.0015848,-0.0015848,-0.0016036,-0.00164233,-0.00170344,-0.00709934,-0.00886192,-0.00514985,-0.00802717,0.0421364,0.0124705,0.0113372,0.0114525,0.01153,0.0115747,0.0115893,-0.000580901,-0.000584328,-0.00059481,-0.000612994,-0.000640071,-0.000645153,0.000136197,-3.22689e-05,-0.000620322,-0.00187416,-0.00315128,-0.00421645,-0.00610273,-0.0105104,-0.0106137,-0.0106137,-0.0106065,-0.010592,-0.0105689,-0.0157061,-0.0133643,-0.0065129,-0.0086993,0.0414096,0.0118534,0.0113372,0.0114525,0.01153,0.0115747,0.0115893,-0.000580901,-0.000584328,-0.00059481,-0.000612994,-0.000640071,-0.000672522,3.20199e-05,-0.00017895,-0.000855955,-0.00228091,-0.00396772,-0.00558639,-0.00838908,-0.0149,-0.0150593,-0.0150593,-0.0150418,-0.0150061,-0.0149495,-0.0211149,-0.0165953,-0.00860299,0.0117728,0.0111944,0.0111757,0.0113372,0.0114525,0.01153,0.0115747,0.0115893,-0.000580901,-0.000584328,-0.00059481,-0.000612994,-0.000640071,-0.000677952,-6.0142e-05,-0.000157273,-0.000827802,-0.00217508,-0.00399409,-0.00568195,-0.00853194,-0.0151529,-0.0153147,-0.0153147,-0.0152971,-0.0152607,-0.0152034,-0.0212602,-0.018756,-0.00885478,0.00684876,0.0109551,0.0111757,0.0113372,0.0114525,0.01153,0.0115747,0.0115893,-0.000580901,-0.000584328,-0.00059481,-0.000612994,-0.000640071,-0.000677952,-0.000321501,-7.61672e-05,-0.000684189,-0.00189806,-0.00388302,-0.00566726,-0.00851779,-0.015139,-0.0153011,-0.0153011,-0.0152833,-0.0152465,-0.0151887,-0.0223538,-0.0121751,-0.00790775,0.00681713,0.0109551,0.0111757,0.0113372,0.0114525,0.01153,0.0115747,0.0115893,-0.000580901,-0.000584328,-0.00059481,-0.000612994,-0.000640071,-0.000677952,-0.000729702,4.70813e-05,-0.000551693,-0.0016062,-0.00367247,-0.00601025,-0.00974704,-0.0183467,-0.0185711,-0.0185711,-0.0185333,-0.0184557,-0.0191607,-0.0247023,-0.0144804,-0.00807114,0.0215664,0.0109551,0.0111757,0.0113372,0.0114525,0.01153,0.0115747,0.0115893,-0.000580901,-0.000584328,-0.00059481,-0.000612994,-0.000640071,-0.000677952,-0.000729702,-1.82969e-05,-0.00039292,-0.00125338,-0.00270136,-0.00444872,-0.00690943,-0.0126001,-0.0127437,-0.0127437,-0.0127239,-0.012683,-0.0143157,-0.0175421,-0.00900951,-0.00794221,0.0336556,0.0109551,0.0111757,0.0113372,0.0114525,0.01153,0.0115747,0.0115893,-0.000580901,-0.000584328,-0.00059481,-0.000612994,-0.000640071,-0.000677952,-0.000729702,-0.000401515,-0.000187007,-0.000712998,-0.00157086,-0.00295127,-0.00441351,-0.00772434,-0.00780375,-0.00780375,-0.00779653,-0.00778162,-0.0102589,-0.0092643,-0.00596131,0.0207983,0.0106105,0.0109551,0.0111757,0.0113372,0.0114525,0.01153,0.0115747,0.0115893,-0.000580901,-0.000584328,-0.00059481,-0.000612994,-0.000640071,-0.000677952,-0.000729702,-0.000802022,-0.000230316,-0.000618352,-0.00131695,-0.00286543,-0.00444446,-0.00797693,-0.00806443,-0.00806443,-0.00805387,-0.00803198,-0.0127118,-0.00777855,-0.00620605,0.0376971,0.0105516,0.0109551,0.0111757,0.0113372,0.0114525,0.01153,0.0115747,0.0115893,-0.000580901,-0.000584328,-0.00059481,-0.000612994,-0.000640071,-0.000677952,-0.000729702,-0.000811744,-0.000895834,-0.000366881,-0.000902476,-0.00194844,-0.00333134,-0.00649816,-0.0065835,-0.0065835,-0.0065668,-0.00653227,-0.00845449,-0.00565775,0.0150132,0.00463078,0.0105284,0.0109551,0.0111757,0.0113372,0.0114525,0.01153,0.0115747,0.0115893,-0.000580901,-0.000584328,-0.00059481,-0.000612994,-0.000640071,-0.000677952,-0.000729702,-0.000828822,-0.000979022,-0.000842321,-0.00081372,-0.00196374,-0.00455973,-0.0104088,-0.0105831,-0.0105831,-0.0105347,-0.0104347,-0.00521526,-0.00557225,0.00465784,0.00444194,0.00962796,0.0109551,0.0111757,0.0113372,0.0114525,0.01153,0.0115747,0.0115893,-0.000580901,-0.000584328,-0.00059481,-0.000612994,-0.000640071,-0.000677952,-0.000729702,-0.000867565,-0.000916039,-0.000938475,-0.000118555,-0.00134733,-0.0056165,-0.015129,-0.0154316,-0.0154316,-0.0153329,-0.0151295,-0.0146438,0.00510298,0.0041613,0.0110058,0.00964528,0.0109551,0.0111757,0.0113372,0.0114525,0.01153,0.0115747,0.0115893,-0.000580901,-0.000584328,-0.00059481,-0.000612994,-0.000640071,-0.000677952,-0.000732069,-0.00089373,-0.000896481,-0.000925668,-0.000941902,-0.00379206,-0.00921814,-0.0214261,-0.0217931,-0.0217931,-0.0216886,-0.0214732,-0.0209934,0.0066726,0.00365351,0.00541609,0.0122883,0.0109551,0.0111757,0.0113372,0.0114525,0.01153,0.0115747,0.0115893,-0.000580901,-0.000584328,-0.00059481,-0.000612994,-0.000640071,-0.000677952,-0.000734704,-0.000872385,-0.000904807,-0.000874127,-0.00104796,-0.00470427,-0.0117908,-0.0277201,-0.0282017,-0.0282017,-0.0280626,-0.0277762,-0.0272974,-0.000854863,0.00364584,0.00523602,0.0123264,0.0109551,0.0111757,0.0113372,0.0114525,0.01153,0.0115747,0.0115893,-0.000580901,-0.000584328,-0.00059481,-0.000612994,-0.000640071,-0.000677952,-0.000735987,-0.000845768,-0.000898015,-0.000833063,-0.00109904,-0.00482174,-0.0117558,-0.0273551,-0.0278243,-0.0278243,-0.0276905,-0.0274148,-0.0274113,-0.000891943,0.00369343,0.00528618,0.00581047,0.0109551,0.0111757,0.0113372,0.0114525,0.01153,0.0115747,0.0115893,-0.000580901,-0.000584328,-0.00059481,-0.000612994,-0.000640071,-0.000677952,-0.000735987,-0.000831162,-0.000892793,-0.000853153,-0.00110422,-0.00480823,-0.0118127,-0.0275672,-0.0280416,-0.0280416,-0.0279058,-0.027626,-0.0273822,-0.000903834,0.00373254,0.00531921,0.00581626,0.0109551,0.0111757,0.0113372,0.0114525,0.01153,0.0115747,0.0115893,-0.000580901,-0.000584328,-0.00059481,-0.000612994,-0.000640071,-0.000677952,-0.000734704,-0.000820913,-0.000889219,-0.000833332,-0.00101093,-0.00457769,-0.011499,-0.0270562,-0.0275266,-0.0275266,-0.0273906,-0.0271105,-0.0271287,-0.000839495,0.00378374,0.00537741,0.0119814,0.0109551,0.0111757,0.0113372,0.0114525,0.01153,0.0115747,0.0115893,-0.000580901,-0.000584328,-0.00059481,-0.000612994,-0.000640071,-0.000677952,-0.000732069,-0.000814419,-0.000874715,-0.000772071,-0.000922492,-0.00417882,-0.0112415,-0.0270886,-0.0275728,-0.0275728,-0.0274291,-0.027133,-0.0265269,0.000664249,0.00394335,0.00544855,0.0119707,0.0109551,0.0111757,0.0113372,0.0114525,0.01153,0.0115747,0.0115893,-0.000580901,-0.000584328,-0.00059481,-0.000612994,-0.000640071,-0.000677952,-0.000729702,-0.000803958,-0.000851084,-0.00074682,-0.000851325,-0.0034923,-0.0104016,-0.0258708,-0.0263495,-0.0263495,-0.0262032,-0.0259012,-0.0253033,0.00684423,0.0107807,0.00551912,0.00972735,0.0109551,0.0111757,0.0113372,0.0114525,0.01153,0.0115747,0.0115893,-0.000580901,-0.000584328,-0.00059481,-0.000612994,-0.000640071,-0.000677952,-0.000729702,-0.000765444,-0.000817245,-0.000694289,-0.000747746,-0.002699,-0.00986109,-0.0258446,-0.0263485,-0.0263485,-0.0261874,-0.025855,-0.00272077,0.00336071,0.00864105,0.0113545,0.00973256,0.0109551,0.0111757,0.0113372,0.0114525,0.01153,0.0115747,0.0115893,-0.000580901,-0.000584328,-0.00059481,-0.000612994,-0.000640071,-0.000677952,-0.000729702,-0.000790738,-0.000825458,-0.0006409,-0.000631511,-0.0015659,-0.00931125,-0.0265197,-0.0270759,-0.0270759,-0.0268879,-0.0265005,0.00437609,0.0073974,0.0094027,0.00911893,0.0106548,0.0109551,0.0111757,0.0113372,0.0114525,0.01153,0.0115747,0.0115893,-0.000580901,-0.000584328,-0.00059481,-0.000612994,-0.000640071,-0.000677952,-0.000729702,-0.000802022,-0.000790785,-0.000781243,-0.000562184,-0.000869764,-0.00825969,-0.0252515,-0.0258104,-0.0258104,-0.0256147,-0.0252109,0.00157207,0.00404046,0.00898374,0.011525,0.0106548,0.0109551,0.0111757,0.0113372,0.0114525,0.01153,0.0115747,0.0115893,-0.000580901,-0.000584328,-0.00059481,-0.000612994,-0.000640071,-0.000677952,-0.000729702,-0.000800148,-0.000803187,-0.000810521,-0.000424984,-0.00157262,-0.00613337,-0.0169034,-0.0172484,-0.0172484,-0.0171341,-0.0168986,-0.00152628,0.0136036,0.00540514,0.00990036,0.0106548,0.0109551,0.0111757,0.0113372,0.0114525,0.01153,0.0115747,0.0115893,-0.000580901,-0.000584328,-0.00059481,-0.000612994,-0.000640071,-0.000677952,-0.000729702,-0.000800148,-0.000898977,-0.000787033,-0.000604938,-0.00200358,-0.00470596,-0.0105074,-0.0106785,-0.0106785,-0.0106323,-0.0105374,-0.0115296,0.00859084,0.0148572,0.0102407,0.0106548,0.0109551,0.0111757,0.0113372,0.0114525,0.01153,0.0115747,0.0115893,-0.000580901,-0.000584328,-0.00059481,-0.000612994,-0.000640071,-0.000677952,-0.000729702,-0.000800148,-0.00089731,-0.000909387,-0.0010175,-0.00135545,-0.00425881,-0.0109263,-0.0111351,-0.0111351,-0.0110694,-0.0109341,-0.00107095,0.00817977,0.00928604,0.0102407,0.0106548,0.0109551,0.0111757,0.0113372,0.0114525,0.01153,0.0115747,0.0115893,-0.000580901,-0.000584328,-0.00059481,-0.000612994,-0.000640071,-0.000677952,-0.000729702,-0.000800148,-0.00089731,-0.00103515,-0.00118095,-0.000913434,-0.000786337,-0.000553666,-0.000536501,-0.000536501,-0.000549124,-0.000575149,0.000410455,0.00640678,0.00956995,0.0102191,0.0106548,0.0109551,0.0111757,0.0113372,0.0114525,0.01153,0.0115747,0.0115893,-0.000580901,-0.000584328,-0.00059481,-0.000612994,-0.000640071,-0.000677952,-0.000729702,-0.000800148,-0.00089731,-0.00103515,-0.00225448,-0.00101884,0.0014334,0.00681397,0.00700355,0.00700355,0.00692842,0.00677365,0.0424486,-0.00221313,0.00956995,0.0102191,0.0106548,0.0109551,0.0111757,0.0113372,0.0114525,0.01153,0.0115747,0.0115893,-0.000580901,-0.000584328,-0.00059481,-0.000612994,-0.000640071,-0.000677952,-0.000729702,-0.000800148,-0.00089731,-0.00103515,-0.00286627,-0.00479384,-0.00902145,-0.0186163,-0.0188862,-0.0188862,-0.0188237,-0.0186949,-0.0182668,-0.00607929,0.00952605,0.0101978,0.0106548,0.0109551,0.0111757,0.0113372,0.0114525,0.01153,0.0115747,0.0115893,-0.000580901,-0.000584328,-0.00059481,-0.000612994,-0.000640071,-0.000677952,-0.000729702,-0.000800148,-0.00089731,-0.00104098,-0.00320821,-0.00552285,-0.0106394,-0.0221807,-0.0225076,-0.0225076,-0.02243,-0.0222704,-0.0220266,-0.010539,0.00952605,0.0101978,0.0106548,0.0109551,0.0111757,0.0113372,0.0114525,0.01153,0.0115747,0.0115893,-0.000580901,-0.000584328,-0.00059481,-0.000612994,-0.000640071,-0.000677952,-0.000729702,-0.000800148,-0.00089731,-0.00111177,-0.0034229,-0.00575314,-0.0109728,-0.0227942,-0.0231282,-0.0231282,-0.0230497,-0.0228877,-0.0222727,-0.0106465,0.00952605,0.0101978,0.0106548,0.0109551,0.0111757,0.0113372,0.0114525,0.01153,0.0115747,0.0115893,]