[-0.00635834,-0.00639589,-0.0065106,-0.00670962,-0.00700588,-0.00742056,-0.00798698,-0.00875818,-0.00982172,-0.0112976,-0.0124903,-0.00433402,0.0128336,0.0506714,0.0519754,0.0519754,0.0514775,0.0504523,0.0516557,0.00390105,-0.000463174,0.00165277,0.00307714,0.0039758,0.00463589,0.00511913,0.00546443,0.00569632,0.00583001,0.00587372,-0.00635834,-0.00639589,-0.0065106,-0.00670962,-0.00700588,-0.00742056,-0.00798698,-0.00875818,-0.00982172,-0.0113018,-0.0125391,-0.00468982,0.0127945,0.0514206,0.0527552,0.0527552,0.0522434,0.0511893,0.0513172,0.00388266,-0.000463174,0.00165277,0.00307714,0.0039758,0.00463589,0.00511913,0.00546443,0.00569632,0.00583001,0.00587372,-0.00635834,-0.00639589,-0.0065106,-0.00670962,-0.00700588,-0.00742056,-0.00798698,-0.00875818,-0.00982172,-0.0113076,-0.0126527,-0.00557084,0.0117633,0.0498402,0.0511646,0.0511646,0.0506511,0.0495927,0.0505832,0.00183675,-0.000369971,0.00165277,0.00307714,0.0039758,0.00463589,0.00511913,0.00546443,0.00569632,0.00583001,0.00587372,-0.00635834,-0.00639589,-0.0065106,-0.00670962,-0.00700588,-0.00742056,-0.00798698,-0.00875818,-0.00982172,-0.0113216,-0.0128038,-0.00740395,0.00822551,0.0424148,0.0436288,0.0436288,0.0431421,0.0421381,0.02045,0.00184147,-0.000369971,0.0017383,0.00307714,0.0039758,0.00463589,0.00511913,0.00546443,0.00569632,0.00583001,0.00587372,-0.00635834,-0.00639589,-0.0065106,-0.00670962,-0.00700588,-0.00742056,-0.00798698,-0.00875818,-0.00982172,-0.0113086,-0.0129237,-0.00851538,0.00710287,0.0411658,0.0423868,0.0423868,0.0418896,0.0408649,0.0260648,0.000950829,-0.000369971,0.0017383,0.00307714,0.0039758,0.00463589,0.00511913,0.00546443,0.00569632,0.00583001,0.00587372,-0.00635834,-0.00639589,-0.0065106,-0.00670962,-0.00700588,-0.00742056,-0.00798698,-0.00875818,-0.00981536,-0.0112494,-0.0121384,-0.010267,-0.000582718,0.0205972,0.0214092,0.0214092,0.0210448,0.0202938,0.0201903,0.00372811,0.000188535,0.00183782,0.00307714,0.0039758,0.00463589,0.00511913,0.00546443,0.00569632,0.00583001,0.00587372,-0.00635834,-0.00639589,-0.0065106,-0.00670962,-0.00700588,-0.00742056,-0.00798698,-0.00875818,-0.00978588,-0.0108152,-0.0116851,-0.0103362,-0.00101188,0.0202132,0.0210311,0.0210311,0.0206613,0.0198991,0.00543494,0.00364728,-0.00164482,0.00220464,0.00307714,0.0039758,0.00463589,0.00511913,0.00546443,0.00569632,0.00583001,0.00587372,-0.00635834,-0.00639589,-0.0065106,-0.00670962,-0.00700588,-0.00742056,-0.00798698,-0.00874676,-0.00968324,-0.0102792,-0.0111607,-0.00954591,-0.00254456,0.0121965,0.0127841,0.0127841,0.0125068,0.0119354,0.00259401,-0.00495237,0.00549215,0.00222564,0.00307714,0.0039758,0.00463589,0.00511913,0.00546443,0.00569632,0.00583001,0.00587372,-0.00635834,-0.00639589,-0.0065106,-0.00670962,-0.00700588,-0.00742056,-0.00798698,-0.00872975,-0.00941151,-0.0100527,-0.0102662,-0.00835624,0.00128951,0.0231969,0.0240169,0.0240169,0.0236608,0.0229273,0.0141436,0.0025298,0.00687182,0.000204405,0.00345059,0.0039758,0.00463589,0.00511913,0.00546443,0.00569632,0.00583001,0.00587372,-0.00635834,-0.00639589,-0.0065106,-0.00670962,-0.00700588,-0.00742056,-0.00798698,-0.00870949,-0.00914182,-0.00970279,-0.00954579,-0.00689392,-0.00203662,0.00826255,0.00867585,0.00867585,0.0084792,0.00807413,0.00757389,0.00585925,-0.00244419,0.00747239,0.00346314,0.0039758,0.00463589,0.00511913,0.00546443,0.00569632,0.00583001,0.00587372,-0.00635834,-0.00639589,-0.0065106,-0.00670962,-0.00700588,-0.00742056,-0.00797757,-0.00855883,-0.00896609,-0.0093045,-0.00851172,-0.00606262,-0.00234289,0.00554715,0.00587201,0.00587201,0.00571275,0.00538462,0.0123414,0.00390295,0.00421173,0.00302922,0.00347238,0.0039758,0.00463589,0.00511913,0.00546443,0.00569632,0.00583001,0.00587372,-0.00635834,-0.00639589,-0.0065106,-0.00670962,-0.00700588,-0.00742056,-0.00797006,-0.00849946,-0.00889526,-0.00891021,-0.00792924,-0.00685218,-0.00689583,-0.00737996,-0.00732572,-0.00732572,-0.00739366,-0.00753378,-0.000391012,0.00932472,0.0052503,0.00864603,0.00347899,0.0039758,0.00463589,0.00511913,0.00546443,0.00569632,0.00583001,0.00587372,-0.00635834,-0.00639589,-0.0065106,-0.00670962,-0.00700588,-0.00742056,-0.00796499,-0.00844462,-0.00875273,-0.00860409,-0.00733414,-0.00653154,-0.00636397,-0.00636299,-0.00629583,-0.00629583,-0.00636618,-0.00651111,-0.00712811,0.0161214,0.00602284,0.0033809,0.0104558,0.0039758,0.00463589,0.00511913,0.00546443,0.00569632,0.00583001,0.00587372,-0.00635834,-0.00639589,-0.0065106,-0.00670962,-0.00700588,-0.00742056,-0.00796207,-0.00836133,-0.00863684,-0.00841714,-0.00695667,-0.00657908,-0.00681687,-0.00771437,-0.00767652,-0.00767652,-0.00773675,-0.00786066,-0.0083269,0.0116757,0.00723039,0.00449746,0.00231362,0.00435598,0.00463589,0.00511913,0.00546443,0.00569632,0.00583001,0.00587372,-0.00635834,-0.00639589,-0.0065106,-0.00670962,-0.00700588,-0.00742056,-0.00796113,-0.00835579,-0.00856911,-0.00826097,-0.0066379,-0.00645036,-0.00631771,-0.00638937,-0.00632543,-0.00632543,-0.00639402,-0.00653535,-0.00882177,0.0131541,0.00720379,0.00441225,0.00301851,0.00435694,0.00463589,0.00511913,0.00546443,0.00569632,0.00583001,0.00587372,-0.00635834,-0.00639589,-0.0065106,-0.00670962,-0.00700588,-0.00742056,-0.00796113,-0.00837578,-0.00854976,-0.00819802,-0.00649027,-0.00647892,-0.00682062,-0.0079421,-0.00791291,-0.00791291,-0.00796932,-0.00808548,-0.00882597,0.0131249,0.00714004,0.00433698,0.00300802,0.00435694,0.00463589,0.00511913,0.00546443,0.00569632,0.00583001,0.00587372,-0.00635834,-0.00639589,-0.0065106,-0.00670962,-0.00700588,-0.00742056,-0.00796207,-0.00842063,-0.00858506,-0.00822872,-0.00652257,-0.0064746,-0.00675537,-0.00774222,-0.00770841,-0.00770841,-0.0077665,-0.00788587,-0.00885847,0.0130319,0.00707041,0.00417553,0.00228438,0.00435598,0.00463589,0.00511913,0.00546443,0.00569632,0.00583001,0.00587372,-0.00635834,-0.00639589,-0.0065106,-0.00670962,-0.00700588,-0.00742056,-0.00796499,-0.00849595,-0.00867311,-0.00835831,-0.00674284,-0.00653884,-0.00708439,-0.00865989,-0.00864504,-0.00864504,-0.00869666,-0.00880309,-0.00895472,0.0124939,0.00691782,0.00408059,0.00471607,0.0039758,0.00463589,0.00511913,0.00546443,0.00569632,0.00583001,0.00587372,-0.00635834,-0.00639589,-0.0065106,-0.00670962,-0.00700588,-0.00742056,-0.00797006,-0.00856637,-0.00881368,-0.00862126,-0.00706749,-0.00676634,-0.00802201,-0.01118,-0.0112155,-0.0112155,-0.0112508,-0.0113235,-0.0112674,0.0113682,0.00645661,0.00361696,-0.0023294,0.0039758,0.00463589,0.00511913,0.00546443,0.00569632,0.00583001,0.00587372,-0.00635834,-0.00639589,-0.0065106,-0.00670962,-0.00700588,-0.00742056,-0.00797757,-0.00864601,-0.00900693,-0.00885685,-0.0081356,-0.00856958,-0.0121957,-0.0206952,-0.0208897,-0.0208897,-0.0208809,-0.0208623,-0.0218495,-0.00622111,0.00548322,0.00228043,0.00332637,0.0039758,0.00463589,0.00511913,0.00546443,0.00569632,0.00583001,0.00587372,-0.00635834,-0.00639589,-0.0065106,-0.00670962,-0.00700588,-0.00742056,-0.00798698,-0.00875385,-0.00924668,-0.00940599,-0.00846325,-0.00794162,-0.0111101,-0.0185623,-0.0187288,-0.0187288,-0.0187254,-0.0187188,-0.00358755,-0.0024413,0.00686349,-0.00303477,0.00325497,0.0039758,0.00463589,0.00511913,0.00546443,0.00569632,0.00583001,0.00587372,-0.00635834,-0.00639589,-0.0065106,-0.00670962,-0.00700588,-0.00742056,-0.00798698,-0.00876262,-0.00956714,-0.00956106,-0.00757176,-0.00664429,-0.00927907,-0.0154792,-0.0156172,-0.0156172,-0.015615,-0.0156103,0.00151621,0.0060201,-0.0170821,0.0052585,0.00322391,0.0039758,0.00463589,0.00511913,0.00546443,0.00569632,0.00583001,0.00587372,-0.00635834,-0.00639589,-0.0065106,-0.00670962,-0.00700588,-0.00742056,-0.00798698,-0.00863912,-0.00926274,-0.00774417,-0.00605754,-0.00487842,-0.00693222,-0.0121606,-0.0122863,-0.0122863,-0.0122746,-0.0122502,0.00247424,0.00388373,-0.00412661,-0.0210875,0.00291398,0.0039758,0.00463589,0.00511913,0.00546443,0.00569632,0.00583001,0.00587372,-0.00635834,-0.00639589,-0.0065106,-0.00670962,-0.00700588,-0.00742056,-0.00798698,-0.00864654,-0.00818027,-0.00652538,-0.00541485,-0.00549576,-0.00837802,-0.0150597,-0.0152254,-0.0152254,-0.0152051,-0.0151631,-0.00680091,0.000684404,0.00749871,-0.0108771,0.00670457,0.0039758,0.00463589,0.00511913,0.00546443,0.00569632,0.00583001,0.00587372,-0.00635834,-0.00639589,-0.0065106,-0.00670962,-0.00700588,-0.00742056,-0.00798698,-0.00831563,-0.00707872,-0.00570078,-0.00476912,-0.00572288,-0.00872661,-0.0156896,-0.0158625,-0.0158625,-0.0158413,-0.0157974,-0.0113001,-0.000863366,0.00687059,-0.00469062,-0.0143522,0.0039758,0.00463589,0.00511913,0.00546443,0.00569632,0.00583001,0.00587372,-0.00635834,-0.00639589,-0.0065106,-0.00670962,-0.00700588,-0.00742056,-0.00793838,-0.00787345,-0.00627579,-0.0051894,-0.00504586,-0.00734252,-0.0119299,-0.0224847,-0.0227601,-0.0227601,-0.0227137,-0.0226177,-0.0224662,-0.00522446,0.00568642,0.01187,-0.0102246,0.0039758,0.00463589,0.00511913,0.00546443,0.00569632,0.00583001,0.00587372,-0.00635834,-0.00639589,-0.0065106,-0.00670962,-0.00700588,-0.00742056,-0.00799243,-0.00731482,-0.00575559,-0.00482283,-0.00530955,-0.00970107,-0.0175535,-0.0354593,-0.0359549,-0.0359549,-0.0358465,-0.0356224,-0.0352692,-0.00495689,0.00442789,0.0107142,-0.0030561,0.0039758,0.00463589,0.00511913,0.00546443,0.00569632,0.00583001,0.00587372,-0.00635834,-0.00639589,-0.0065106,-0.00670962,-0.00700588,-0.00742056,-0.00794481,-0.00684251,-0.00540717,-0.00456342,-0.00548702,-0.0107516,-0.020092,-0.0413465,-0.041943,-0.041943,-0.0418055,-0.0415227,-0.0410767,-0.012575,0.00282773,0.0138313,-0.00362748,0.0039758,0.00463589,0.00511913,0.00546443,0.00569632,0.00583001,0.00587372,-0.00635834,-0.00639589,-0.0065106,-0.00670962,-0.00700588,-0.00736223,-0.00764475,-0.00623974,-0.00472549,-0.00381267,-0.00482416,-0.00988139,-0.0186316,-0.0385317,-0.0390919,-0.0390919,-0.0389615,-0.0386927,-0.0382685,-0.0140366,0.00615078,0.0129694,-0.000512288,0.00974324,0.00567756,0.00511913,0.00546443,0.00569632,0.00583001,0.00587372,-0.00635834,-0.00639589,-0.0065106,-0.00670962,-0.00700588,-0.00731127,-0.00732791,-0.00560397,-0.00374762,-0.00213649,-0.00206282,-0.00525399,-0.0107276,-0.0231233,-0.0234819,-0.0234819,-0.0233908,-0.0232033,-0.0229073,0.00128987,0.01721,0.0193098,0.00451606,-0.00739049,0.00636849,0.00511913,0.00546443,0.00569632,0.00583001,0.00587372,-0.00635834,-0.00639589,-0.0065106,-0.00670962,-0.00700588,-0.00723194,-0.00712036,-0.00526321,-0.00320586,-0.000581852,0.00157565,0.00155277,0.00149706,0.00146175,0.0014446,0.0014446,0.00146175,0.00149706,0.00155277,0.0245211,0.0296195,0.0232083,0.0275685,-0.00577788,0.00963312,0.00511913,0.00546443,0.00569632,0.00583001,0.00587372,-0.00635834,-0.00639589,-0.0065106,-0.00670962,-0.00700588,-0.0072939,-0.00736263,-0.00564991,-0.00390176,-0.00239421,-0.00251354,-0.00604737,-0.0121314,-0.0259214,-0.026318,-0.026318,-0.0262188,-0.026015,-0.0256925,-0.00205755,0.0151243,0.0183562,0.0249465,-0.00839998,0.00732888,0.00511913,0.00546443,0.00569632,0.00583001,0.00587372,-0.00635834,-0.00639589,-0.0065106,-0.00670962,-0.00700588,-0.0073983,-0.00778717,-0.00641663,-0.0049677,-0.00406085,-0.00509653,-0.0102989,-0.0194475,-0.040252,-0.0408384,-0.0408384,-0.0407014,-0.0404202,-0.0399757,-0.0113753,0.0041961,0.0109325,-0.00251064,0.00495716,0.00463589,0.00511913,0.00546443,0.00569632,0.00583001,0.00587372,-0.00635834,-0.00639589,-0.0065106,-0.00670962,-0.00700588,-0.00742056,-0.00798252,-0.00682838,-0.00534802,-0.0043632,-0.00509884,-0.01022,-0.0195796,-0.0408464,-0.0414486,-0.0414486,-0.0413056,-0.0410104,-0.0405452,-0.0123853,0.00694569,0.00956263,-0.00288013,0.0039758,0.00463589,0.00511913,0.00546443,0.00569632,0.00583001,0.00587372,-0.00635834,-0.00639589,-0.0065106,-0.00670962,-0.00700588,-0.00742056,-0.00800591,-0.00728942,-0.00575466,-0.00459328,-0.0048571,-0.00955545,-0.0189391,-0.0402205,-0.0408304,-0.0408304,-0.0406796,-0.0403698,-0.0398809,-0.00835499,0.00622986,0.0107148,-0.00313457,0.0039758,0.00463589,0.00511913,0.00546443,0.00569632,0.00583001,0.00587372,-0.00635834,-0.00639589,-0.0065106,-0.00670962,-0.00700588,-0.00742056,-0.00798698,-0.00793965,-0.00629534,-0.00494453,-0.00471375,-0.00716038,-0.0129493,-0.0261494,-0.0265148,-0.0265148,-0.0264348,-0.0262698,-0.0208338,-0.00132729,0.0100032,0.0118676,-0.0073936,0.0039758,0.00463589,0.00511913,0.00546443,0.00569632,0.00583001,0.00587372,-0.00635834,-0.00639589,-0.0065106,-0.00670962,-0.00700588,-0.00742056,-0.00798698,-0.00847071,-0.00703365,-0.00555851,-0.00460751,-0.00532489,-0.00940053,-0.0187103,-0.018965,-0.018965,-0.0189117,-0.0188015,-0.00966235,0.00156968,0.00818027,0.0110419,0.00674749,0.0039758,0.00463589,0.00511913,0.00546443,0.00569632,0.00583001,0.00587372,-0.00635834,-0.00639589,-0.0065106,-0.00670962,-0.00700588,-0.00742056,-0.00798698,-0.00870322,-0.00810024,-0.00665126,-0.00554937,-0.00555451,-0.00966816,-0.0196111,-0.0198873,-0.0198873,-0.0198262,-0.0197,-0.00735882,0.000977347,0.00413578,-0.00860263,0.00300144,0.0039758,0.00463589,0.00511913,0.00546443,0.00569632,0.00583001,0.00587372,-0.00635834,-0.00639589,-0.0065106,-0.00670962,-0.00700588,-0.00742056,-0.00798698,-0.00877233,-0.00920558,-0.00782676,-0.00651816,-0.00578626,-0.0099128,-0.0199237,-0.0201999,-0.0201999,-0.0201403,-0.0200171,-0.00140177,0.00143361,0.00471913,-0.0156395,0.00289691,0.0039758,0.00463589,0.00511913,0.00546443,0.00569632,0.00583001,0.00587372,-0.00635834,-0.00639589,-0.0065106,-0.00670962,-0.00700588,-0.00742056,-0.00798698,-0.00884581,-0.00967006,-0.0091847,-0.00734902,-0.00630506,-0.00996143,-0.0184,-0.0186158,-0.0186158,-0.0185834,-0.0185161,0.00214296,0.00432687,-0.00619214,-0.0016038,0.00285621,0.0039758,0.00463589,0.00511913,0.00546443,0.00569632,0.00583001,0.00587372,-0.00635834,-0.00639589,-0.0065106,-0.00670962,-0.00700588,-0.00742056,-0.00798698,-0.00881066,-0.00964744,-0.00988231,-0.00845769,-0.007986,-0.0116871,-0.0203191,-0.0205242,-0.0205242,-0.0205075,-0.0204729,0.00495179,0.00731685,0.000472633,-0.00179746,-0.0020477,0.0039758,0.00463589,0.00511913,0.00546443,0.00569632,0.00583001,0.00587372,-0.00635834,-0.00639589,-0.0065106,-0.00670962,-0.00700588,-0.00742056,-0.00798698,-0.00878282,-0.00949143,-0.00971819,-0.00922618,-0.00912682,-0.0117732,-0.0181384,-0.0182563,-0.0182563,-0.0182789,-0.018325,-0.0181663,0.000381487,0.00658201,-0.00114037,-0.00204928,0.0039758,0.00463589,0.00511913,0.00546443,0.00569632,0.00583001,0.00587372,-0.00635834,-0.00639589,-0.0065106,-0.00670962,-0.00700588,-0.00742056,-0.0080049,-0.00876834,-0.00934506,-0.00940418,-0.00819778,-0.00796646,-0.0108196,-0.0175767,-0.0177196,-0.0177196,-0.0177249,-0.0177358,-0.0175285,0.0087241,0.00303351,0.000493778,-0.00156522,0.0039758,0.00463589,0.00511913,0.00546443,0.00569632,0.00583001,0.00587372,-0.00635834,-0.00639589,-0.0065106,-0.00670962,-0.00700588,-0.00742056,-0.00802476,-0.00875291,-0.00922394,-0.00917722,-0.00766362,-0.00676744,-0.00705911,-0.00808621,-0.00805087,-0.00805087,-0.00811147,-0.00823652,-0.00838383,0.0120905,0.00315285,-0.000400697,-0.00153723,0.0039758,0.00463589,0.00511913,0.00546443,0.00569632,0.00583001,0.00587372,-0.00635834,-0.00639589,-0.0065106,-0.00670962,-0.00700588,-0.00742056,-0.00803449,-0.00874567,-0.00914801,-0.00903388,-0.00735059,-0.00657341,-0.00646908,-0.00661045,-0.0065476,-0.0065476,-0.00661664,-0.00675902,-0.00819691,0.0123134,0.00330454,-0.000269869,0.00460198,0.0039758,0.00463589,0.00511913,0.00546443,0.00569632,0.00583001,0.00587372,-0.00635834,-0.00639589,-0.0065106,-0.00670962,-0.00700588,-0.00742056,-0.00803449,-0.00874921,-0.00911711,-0.00897545,-0.00725344,-0.00647868,-0.00657,-0.00713839,-0.00709066,-0.00709066,-0.00715361,-0.00728337,-0.00807472,0.0124205,0.00338123,-0.000198824,0.00459687,0.0039758,0.00463589,0.00511913,0.00546443,0.00569632,0.00583001,0.00587372,-0.00635834,-0.00639589,-0.0065106,-0.00670962,-0.00700588,-0.00742056,-0.00802476,-0.00876266,-0.00913,-0.00902499,-0.00735829,-0.00637237,-0.00614334,-0.00599759,-0.00592729,-0.00592729,-0.00599769,-0.00614262,-0.00795958,0.0124467,0.00338742,-0.000124672,-0.00221021,0.0039758,0.00463589,0.00511913,0.00546443,0.00569632,0.00583001,0.00587372,-0.00635834,-0.00639589,-0.0065106,-0.00670962,-0.00700588,-0.00742056,-0.0080049,-0.00878685,-0.00918391,-0.0091649,-0.00762634,-0.00645575,-0.00663366,-0.0073919,-0.00735087,-0.00735087,-0.00741132,-0.00753589,-0.00727943,0.01458,0.00369098,-6.85051e-05,-0.00219636,0.0039758,0.00463589,0.00511913,0.00546443,0.00569632,0.00583001,0.00587372,-0.00635834,-0.00639589,-0.0065106,-0.00670962,-0.00700588,-0.00742056,-0.00798698,-0.00882034,-0.00928455,-0.00937825,-0.00805117,-0.00628515,-0.00595292,-0.00557401,-0.00549683,-0.00549683,-0.00556905,-0.00571775,-0.00549196,0.00889463,0.00183994,0.00463881,-0.00190406,0.0039758,0.00463589,0.00511913,0.00546443,0.00569632,0.00583001,0.00587372,-0.00635834,-0.00639589,-0.0065106,-0.00670962,-0.00700588,-0.00742056,-0.00798698,-0.00886677,-0.00945784,-0.00970225,-0.00867954,-0.00594131,-0.00402173,-0.000115055,7.60594e-05,7.60594e-05,-3.44485e-05,-0.000262046,0.0215776,0.0104234,0.00144138,-0.000804383,-0.00186455,0.0039758,0.00463589,0.00511913,0.00546443,0.00569632,0.00583001,0.00587372,-0.00635834,-0.00639589,-0.0065106,-0.00670962,-0.00700588,-0.00742056,-0.00798698,-0.00883991,-0.00960139,-0.0100765,-0.00936286,-0.0059486,-0.00169703,0.00736401,0.00772662,0.00772662,0.00755469,0.00720046,0.0173222,0.0058337,0.00529012,-0.00101795,0.00307714,0.0039758,0.00463589,0.00511913,0.00546443,0.00569632,0.00583001,0.00587372,-0.00635834,-0.00639589,-0.0065106,-0.00670962,-0.00700588,-0.00742056,-0.00798698,-0.00877233,-0.00984223,-0.0103948,-0.0103063,-0.00724305,-7.98372e-05,0.0153389,0.0159263,0.0159263,0.0156647,0.0151259,0.0159552,0.0072857,-0.00102748,-0.00328606,0.00307714,0.0039758,0.00463589,0.00511913,0.00546443,0.00569632,0.00583001,0.00587372,-0.00635834,-0.00639589,-0.0065106,-0.00670962,-0.00700588,-0.00742056,-0.00798698,-0.00875818,-0.00993352,-0.0108028,-0.0112538,-0.00890689,5.87027e-05,0.0201448,0.0209085,0.0209085,0.0205695,0.0198713,0.0113004,-0.000556907,0.00346754,0.00118282,0.00307714,0.0039758,0.00463589,0.00511913,0.00546443,0.00569632,0.00583001,0.00587372,-0.00635834,-0.00639589,-0.0065106,-0.00670962,-0.00700588,-0.00742056,-0.00798698,-0.00875818,-0.00983429,-0.0112508,-0.0121057,-0.0107359,-0.000369193,0.0225632,0.0234395,0.0234395,0.0230478,0.0222406,0.0120121,0.0019349,-0.0048319,0.00183782,0.00307714,0.0039758,0.00463589,0.00511913,0.00546443,0.00569632,0.00583001,0.00587372,-0.00635834,-0.00639589,-0.0065106,-0.00670962,-0.00700588,-0.00742056,-0.00798698,-0.00875818,-0.00982172,-0.0114068,-0.0128042,-0.0119039,0.00014935,0.0261613,0.0271495,0.0271495,0.0267113,0.0258087,0.00204732,-0.00052338,-0.000724652,0.00183782,0.00307714,0.0039758,0.00463589,0.00511913,0.00546443,0.00569632,0.00583001,0.00587372,-0.00635834,-0.00639589,-0.0065106,-0.00670962,-0.00700588,-0.00742056,-0.00798698,-0.00875818,-0.00982172,-0.0113302,-0.0134484,-0.0111649,0.00157734,0.0291204,0.0301517,0.0301517,0.0297036,0.0287802,0.0120112,-0.00638847,-0.000274614,0.0017383,0.00307714,0.0039758,0.00463589,0.00511913,0.00546443,0.00569632,0.00583001,0.00587372,-0.00635834,-0.00639589,-0.0065106,-0.00670962,-0.00700588,-0.00742056,-0.00798698,-0.00875818,-0.00982172,-0.0113302,-0.0131316,-0.00996356,0.00281393,0.0305425,0.0315676,0.0315676,0.0311303,0.0302284,-0.00144043,-0.000224544,-0.000274614,0.0017383,0.00307714,0.0039758,0.00463589,0.00511913,0.00546443,0.00569632,0.00583001,0.00587372,-0.00635834,-0.00639589,-0.0065106,-0.00670962,-0.00700588,-0.00742056,-0.00798698,-0.00875818,-0.00982172,-0.0113302,-0.0128526,-0.00662805,0.0100404,0.0465648,0.0478486,0.0478486,0.0473426,0.0462987,0.0471045,0.00183093,-0.000463174,0.00165277,0.00307714,0.0039758,0.00463589,0.00511913,0.00546443,0.00569632,0.00583001,0.00587372,-0.00635834,-0.00639589,-0.0065106,-0.00670962,-0.00700588,-0.00742056,-0.00798698,-0.00875818,-0.00982172,-0.011328,-0.012667,-0.00512442,0.0123975,0.0510575,0.052398,0.052398,0.0518812,0.0508171,0.0509098,0.00379255,-0.000463174,0.00165277,0.00307714,0.0039758,0.00463589,0.00511913,0.00546443,0.00569632,0.00583001,0.00587372,-0.00635834,-0.00639589,-0.0065106,-0.00670962,-0.00700588,-0.00742056,-0.00798698,-0.00875818,-0.00982172,-0.0113055,-0.0125321,-0.00447504,0.0127104,0.0505575,0.0518635,0.0518635,0.0513642,0.0503351,0.0515329,0.00388415,-0.000463174,0.00165277,0.00307714,0.0039758,0.00463589,0.00511913,0.00546443,0.00569632,0.00583001,0.00587372,]