[0.00922018,0.00927463,0.00944093,0.00972959,0.0101593,0.0107606,0.0115819,0.0127,0.0142422,0.0163117,0.0169004,0.0148924,0.0104326,0.0014862,0.00103582,0.00103582,0.00130229,0.00185138,0.039798,-0.0206098,-0.0121347,-0.00732604,-0.00477892,-0.00608873,-0.00705072,-0.007755,-0.00825831,-0.00859637,-0.0087911,-0.00885481,0.00922018,0.00927463,0.00944093,0.00972959,0.0101593,0.0107606,0.0115819,0.0127,0.0142422,0.0163301,0.0169942,0.0149701,0.0106759,0.00216132,0.0017248,0.0017248,0.00198665,0.00252625,0.0400505,-0.0205501,-0.0121347,-0.00732604,-0.00477892,-0.00608873,-0.00705072,-0.007755,-0.00825831,-0.00859637,-0.0087911,-0.00885481,0.00922018,0.00927463,0.00944093,0.00972959,0.0101593,0.0107606,0.0115819,0.0127,0.0142422,0.0163506,0.0172572,0.0153807,0.0109849,0.00218258,0.0017318,0.0017318,0.00200196,0.00255862,0.0433758,-0.0184585,-0.0101708,-0.00732604,-0.00477892,-0.00608873,-0.00705072,-0.007755,-0.00825831,-0.00859637,-0.0087911,-0.00885481,0.00922018,0.00927463,0.00944093,0.00972959,0.0101593,0.0107606,0.0115819,0.0127,0.0142422,0.0163998,0.017825,0.0174191,0.0154343,0.0120688,0.011778,0.011778,0.0120054,0.012474,0.0461053,-0.0166855,-0.0101708,-0.00520682,-0.00477892,-0.00608873,-0.00705072,-0.007755,-0.00825831,-0.00859637,-0.0087911,-0.00885481,0.00922018,0.00927463,0.00944093,0.00972959,0.0101593,0.0107606,0.0115819,0.0127,0.0142422,0.0165212,0.0190748,0.0229727,0.0270395,0.037344,0.037451,0.037451,0.0375757,0.0378321,0.00794433,-0.0141895,-0.0101708,-0.00520682,-0.00477892,-0.00608873,-0.00705072,-0.007755,-0.00825831,-0.00859637,-0.0087911,-0.00885481,0.00922018,0.00927463,0.00944093,0.00972959,0.0101593,0.0107606,0.0115819,0.0127,0.0142692,0.0167776,0.0213052,0.0234583,0.0264278,0.0338098,0.033812,0.033812,0.033979,0.0343236,0.00475954,0.00528574,-0.00625533,-0.00297266,-0.00477892,-0.00608873,-0.00705072,-0.007755,-0.00825831,-0.00859637,-0.0087911,-0.00885481,0.00922018,0.00927463,0.00944093,0.00972959,0.0101593,0.0107606,0.0115819,0.0127,0.0143939,0.017681,0.0206386,0.0210495,0.0209768,0.0210291,0.0208098,0.0208098,0.0210407,0.0215163,0.0025504,0.00533139,0.00520374,-0.00293651,-0.00477892,-0.00608873,-0.00705072,-0.007755,-0.00825831,-0.00859637,-0.0087911,-0.00885481,0.00922018,0.00927463,0.00944093,0.00972959,0.0101593,0.0107606,0.0115819,0.0127484,0.0146746,0.0175715,0.0198939,0.0201799,0.0209977,0.0252409,0.0251806,0.0251806,0.0253409,0.025671,0.00562105,0.00686916,0.0103793,-0.00284761,-0.00477892,-0.00608873,-0.00705072,-0.007755,-0.00825831,-0.00859637,-0.0087911,-0.00885481,0.00922018,0.00927463,0.00944093,0.00972959,0.0101593,0.0107606,0.0115819,0.0128204,0.0151488,0.017043,0.0191209,0.0196755,0.0148977,0.00407033,0.00350135,0.00350135,0.00384887,0.00456516,0.0103447,0.0103876,0.00726791,0.00690739,-0.00475987,-0.00608873,-0.00705072,-0.007755,-0.00825831,-0.00859637,-0.0087911,-0.00885481,0.00922018,0.00927463,0.00944093,0.00972959,0.0101593,0.0107606,0.0115819,0.0129085,0.0149055,0.0164898,0.0180682,0.0190048,0.0141788,0.00417895,0.00364889,0.00364889,0.00397461,0.00464566,0.0114119,0.0109693,0.00978186,0.0073114,-0.00470669,-0.00608873,-0.00705072,-0.007755,-0.00825831,-0.00859637,-0.0087911,-0.00885481,0.00922018,0.00927463,0.00944093,0.00972959,0.0101593,0.0107606,0.0116218,0.0131675,0.0147112,0.0159955,0.0170791,0.0173524,0.0119164,0.000928768,0.000385098,0.000385098,0.000702466,0.00135644,0.0167121,0.0157449,0.00822681,0.0101669,-0.00466758,-0.00608873,-0.00705072,-0.007755,-0.00825831,-0.00859637,-0.0087911,-0.00885481,0.00922018,0.00927463,0.00944093,0.00972959,0.0101593,0.0107606,0.0116536,0.0131811,0.0143671,0.015477,0.0162377,0.0155672,0.011115,0.00215487,0.00169676,0.00169676,0.00197107,0.00253617,0.0168848,0.0128432,0.00942093,0.00456076,-0.00463957,-0.00608873,-0.00705072,-0.007755,-0.00825831,-0.00859637,-0.0087911,-0.00885481,0.00922018,0.00927463,0.00944093,0.00972959,0.0101593,0.0107606,0.0116751,0.013078,0.0141599,0.0150782,0.0155997,0.0143359,0.010482,0.00277448,0.00237059,0.00237059,0.00261675,0.00312386,0.0155637,0.0136236,0.00853512,0.00449746,-0.00452698,-0.00608873,-0.00705072,-0.007755,-0.00825831,-0.00859637,-0.0087911,-0.00885481,0.00922018,0.00927463,0.00944093,0.00972959,0.0101593,0.0107606,0.0116875,0.0129233,0.0139293,0.0146534,0.0150705,0.0131969,0.00918378,0.00105958,0.000653636,0.000653636,0.000892402,0.00138443,0.0145526,0.0120517,0.00701856,0.00391853,0.0054605,-0.00607416,-0.00705072,-0.007755,-0.00825831,-0.00859637,-0.0087911,-0.00885481,0.00922018,0.00927463,0.00944093,0.00972959,0.0101593,0.0107606,0.0116915,0.0128271,0.0137312,0.0143883,0.0145946,0.0124932,0.00873221,0.00112586,0.000744378,0.000744378,0.000969448,0.00143319,0.00306741,0.0113096,0.00509031,0.00184005,0.00544447,-0.00607011,-0.00705072,-0.007755,-0.00825831,-0.00859637,-0.0087911,-0.00885481,0.00922018,0.00927463,0.00944093,0.00972959,0.0101593,0.0107606,0.0116915,0.0127645,0.0136303,0.0142435,0.014273,0.0120481,0.00804263,-0.000129118,-0.000524828,-0.000524828,-0.000297871,0.000169892,0.00198935,0.00939691,0.0039146,0.00117502,0.00539934,-0.00607011,-0.00705072,-0.007755,-0.00825831,-0.00859637,-0.0087911,-0.00885481,0.00922018,0.00927463,0.00944093,0.00972959,0.0101593,0.0107606,0.0116875,0.0127307,0.0136121,0.0142149,0.0141782,0.011945,0.0080169,1.01688e-05,-0.000378999,-0.000378999,-0.000155081,0.000306305,0.00131725,0.00904617,0.00355399,-0.000226993,0.00533601,-0.00607416,-0.00705072,-0.007755,-0.00825831,-0.00859637,-0.0087911,-0.00885481,0.00922018,0.00927463,0.00944093,0.00972959,0.0101593,0.0107606,0.0116751,0.0127104,0.0136171,0.0142856,0.0142756,0.0120565,0.00791119,-0.000569387,-0.000975527,-0.000975527,-0.000744736,-0.000269245,0.000685506,0.0096089,0.00304095,-0.000418771,-0.00461683,-0.00608873,-0.00705072,-0.007755,-0.00825831,-0.00859637,-0.0087911,-0.00885481,0.00922018,0.00927463,0.00944093,0.00972959,0.0101593,0.0107606,0.0116536,0.0126655,0.013665,0.0143982,0.0150014,0.0128455,0.00784954,-0.0024666,-0.00294189,-0.00294189,-0.00268078,-0.0021428,0.00922934,0.00646638,0.003997,0.000472924,-0.00543301,-0.00608873,-0.00705072,-0.007755,-0.00825831,-0.00859637,-0.0087911,-0.00885481,0.00922018,0.00927463,0.00944093,0.00972959,0.0101593,0.0107606,0.0116218,0.0126039,0.0138112,0.0152744,0.0158296,0.0121966,0.00522396,-0.00949778,-0.010113,-0.010113,-0.00980644,-0.00917477,0.0017387,0.00676056,0.000614684,-0.000445536,-0.00627183,-0.00608873,-0.00705072,-0.007755,-0.00825831,-0.00859637,-0.0087911,-0.00885481,0.00922018,0.00927463,0.00944093,0.00972959,0.0101593,0.0107606,0.0115819,0.0126456,0.0141086,0.0159133,0.0147844,0.0117727,0.00673527,-0.00373321,-0.00420254,-0.00420254,-0.00395115,-0.00343322,0.00055781,0.0011838,0.00161064,-0.00345539,-0.00690917,-0.00608873,-0.00705072,-0.007755,-0.00825831,-0.00859637,-0.0087911,-0.00885481,0.00922018,0.00927463,0.00944093,0.00972959,0.0101593,0.0107606,0.0115819,0.0127171,0.0154084,0.0150733,0.0124814,0.00962629,0.00557424,-0.00283755,-0.00321638,-0.00321638,-0.00301261,-0.00259271,-0.00264628,-0.00225918,-0.000918045,0.00178781,-0.0071456,-0.00608873,-0.00705072,-0.007755,-0.00825831,-0.00859637,-0.0087911,-0.00885481,0.00922018,0.00927463,0.00944093,0.00972959,0.0101593,0.0107606,0.0115819,0.0132939,0.014441,0.013259,0.010805,0.00731611,0.00351117,-0.00430728,-0.00464167,-0.00464167,-0.00447081,-0.00411853,-0.00346137,-0.00292414,-0.00166597,-0.00449513,-0.00642093,-0.00608873,-0.00705072,-0.007755,-0.00825831,-0.00859637,-0.0087911,-0.00885481,0.00922018,0.00927463,0.00944093,0.00972959,0.0101593,0.0107606,0.0115819,0.0139679,0.014242,0.0116892,0.00896833,0.00524364,0.000974135,-0.00816603,-0.00852409,-0.00852409,-0.00835879,-0.00801824,-0.00743284,-0.00655094,-0.0044148,-0.00450004,-0.00533337,-0.00608873,-0.00705072,-0.007755,-0.00825831,-0.00859637,-0.0087911,-0.00885481,0.00922018,0.00927463,0.00944093,0.00972959,0.0101593,0.0107606,0.0115819,0.0135214,0.0124356,0.00989728,0.00697005,0.00366277,-0.000724276,-0.0102137,-0.0105671,-0.0105671,-0.0104146,-0.0101006,-0.00967969,-0.00861525,-0.00455965,-0.00395215,-0.00173693,-0.00608873,-0.00705072,-0.007755,-0.00825831,-0.00859637,-0.0087911,-0.00885481,0.00922018,0.00927463,0.00944093,0.00972959,0.0101593,0.0107606,0.0120566,0.0131692,0.0110538,0.0085067,0.00489668,0.001158,-0.0044335,-0.0167271,-0.0171479,-0.0171479,-0.0169891,-0.0166619,-0.0161455,-0.00770062,-0.00552058,-0.00277748,-0.000838317,-0.00608873,-0.00705072,-0.007755,-0.00825831,-0.00859637,-0.0087911,-0.00885481,0.00922018,0.00927463,0.00944093,0.00972959,0.0101593,0.0107606,0.0124929,0.0124481,0.0100385,0.00737311,0.00404859,0.00138234,-0.00263623,-0.0114404,-0.0117475,-0.0117475,-0.0116278,-0.0113811,-0.010992,-0.00880095,-0.0059392,-0.00223187,-0.000499432,-0.00608873,-0.00705072,-0.007755,-0.00825831,-0.00859637,-0.0087911,-0.00885481,0.00922018,0.00927463,0.00944093,0.00972959,0.0101593,0.0107606,0.0124986,0.0116608,0.00926684,0.00646477,0.00342161,0.00113259,-0.00234821,-0.00997777,-0.0102433,-0.0102433,-0.0101402,-0.00992795,-0.00959298,-0.00928443,-0.0060978,-0.00116046,-0.00029756,-0.00608873,-0.00705072,-0.007755,-0.00825831,-0.00859637,-0.0087911,-0.00885481,0.00922018,0.00927463,0.00944093,0.00972959,0.0101593,0.0107682,0.01236,0.0111466,0.0088062,0.00595329,0.00313506,0.000957107,-0.00243637,-0.00988291,-0.0101405,-0.0101405,-0.0100415,-0.00983758,-0.00951594,-0.00924967,-0.00529328,5.0696e-05,-4.75371e-05,-0.00565038,-0.00691643,-0.007755,-0.00825831,-0.00859637,-0.0087911,-0.00885481,0.00922018,0.00927463,0.00944093,0.00972959,0.0101593,0.0107757,0.0122861,0.0108699,0.0086168,0.00594691,0.00369118,0.00217649,-0.00011722,-0.0050638,-0.00525075,-0.00525075,-0.0051684,-0.00499883,-0.00473113,-0.00462127,-0.000739531,0.000859074,0.000594048,-0.00254933,-0.00681131,-0.007755,-0.00825831,-0.00859637,-0.0087911,-0.00885481,0.00922018,0.00927463,0.00944093,0.00972959,0.0101593,0.0107868,0.0123089,0.0107975,0.00862096,0.00630313,0.00493512,0.00467476,0.00450705,0.00440071,0.0043491,0.0043491,0.00440071,0.00450705,0.00467476,0.00448768,0.00308471,0.00151846,0.0020744,-0.00231506,-0.00635729,-0.007755,-0.00825831,-0.00859637,-0.0087911,-0.00885481,0.00922018,0.00927463,0.00944093,0.00972959,0.0101593,0.0107781,0.0123809,0.0108627,0.00860587,0.00587166,0.00348938,0.00182429,-0.000719512,-0.00623891,-0.0064413,-0.0064413,-0.00635592,-0.00618007,-0.00590256,-0.00583225,-0.00127412,0.000921769,0.00184228,-0.00272865,-0.00668407,-0.007755,-0.00825831,-0.00859637,-0.0087911,-0.00885481,0.00922018,0.00927463,0.00944093,0.00972959,0.0101593,0.0107635,0.0125001,0.0110762,0.00875089,0.00585839,0.00304373,0.00080408,-0.00263735,-0.0101985,-0.0104583,-0.0104583,-0.0103596,-0.0101563,-0.00983551,-0.00967027,-0.00582767,-0.000583823,-0.000179113,-0.00595873,-0.00705072,-0.007755,-0.00825831,-0.00859637,-0.0087911,-0.00885481,0.00922018,0.00927463,0.00944093,0.00972959,0.0101593,0.0107606,0.0125097,0.0115631,0.00921619,0.00639423,0.00338244,0.0010299,-0.00244721,-0.0100745,-0.0103387,-0.0103387,-0.010237,-0.0100269,-0.00969569,-0.00935318,-0.00650785,-0.00120346,-0.000521931,-0.00608873,-0.00705072,-0.007755,-0.00825831,-0.00859637,-0.0087911,-0.00885481,0.00922018,0.00927463,0.00944093,0.00972959,0.0101593,0.0107606,0.0120982,0.0123012,0.00993335,0.00724279,0.00396303,0.00143829,-0.00205347,-0.00969,-0.00995883,-0.00995883,-0.00985243,-0.00963317,-0.00928724,-0.00876282,-0.00648461,-0.00264911,-0.000233545,-0.00608873,-0.00705072,-0.007755,-0.00825831,-0.00859637,-0.0087911,-0.00885481,0.00922018,0.00927463,0.00944093,0.00972959,0.0101593,0.0107606,0.0115819,0.0133823,0.0108956,0.00831412,0.00484288,0.00182694,-0.00230207,-0.0113252,-0.0116441,-0.0116441,-0.0115171,-0.0112552,-0.0109308,-0.00799437,-0.00570146,-0.00312952,-0.000907094,-0.00608873,-0.00705072,-0.007755,-0.00825831,-0.00859637,-0.0087911,-0.00885481,0.00922018,0.00927463,0.00944093,0.00972959,0.0101593,0.0107606,0.0115819,0.0139717,0.0121736,0.00973498,0.00672257,0.00365647,-3.85283e-05,-0.00799874,-0.00830118,-0.00830118,-0.00816702,-0.00789065,-0.00753012,-0.000931993,-0.00499341,-0.00224018,-0.00491385,-0.00608873,-0.00705072,-0.007755,-0.00825831,-0.00859637,-0.0087911,-0.00885481,0.00922018,0.00927463,0.00944093,0.00972959,0.0101593,0.0107606,0.0115819,0.0132962,0.0139127,0.0116175,0.00921395,0.00620856,0.00331418,-0.00254672,-0.00280463,-0.00280463,-0.00266896,-0.00238937,-0.00184785,-0.000643842,0.0142515,-0.00375053,-0.00549698,-0.00608873,-0.00705072,-0.007755,-0.00825831,-0.00859637,-0.0087911,-0.00885481,0.00922018,0.00927463,0.00944093,0.00972959,0.0101593,0.0107606,0.0115819,0.0126904,0.0155301,0.0133057,0.0103304,0.00594641,0.00114556,-0.00890299,-0.00929739,-0.00929739,-0.00911484,-0.00873876,-0.00803007,-0.00692505,0.0095323,-0.00552152,-0.00663894,-0.00608873,-0.00705072,-0.007755,-0.00825831,-0.00859637,-0.0087911,-0.00885481,0.00922018,0.00927463,0.00944093,0.00972959,0.0101593,0.0107606,0.0115819,0.01264,0.0139523,0.0159014,0.0136464,0.0106767,0.00740406,0.000774626,0.000444323,0.000444323,0.00063819,0.00103764,0.0011439,0.00171581,-0.00157032,0.0188177,-0.00714722,-0.00608873,-0.00705072,-0.007755,-0.00825831,-0.00859637,-0.0087911,-0.00885481,0.00922018,0.00927463,0.00944093,0.00972959,0.0101593,0.0107606,0.0115819,0.012568,0.0135203,0.0149808,0.0149085,0.0121571,0.00784784,-0.000989339,-0.00140834,-0.00140834,-0.00117223,-0.0006858,0.0022359,0.00319936,-0.00808125,0.00988241,-0.00671719,-0.00608873,-0.00705072,-0.007755,-0.00825831,-0.00859637,-0.0087911,-0.00885481,0.00922018,0.00927463,0.00944093,0.00972959,0.0101593,0.0107606,0.0115819,0.0124473,0.0133176,0.0139262,0.0146918,0.0127604,0.00911396,0.00177542,0.00140007,0.00140007,0.00162482,0.00208792,0.0120266,0.00475955,-0.0078274,0.0167382,-0.00638819,-0.00608873,-0.00705072,-0.007755,-0.00825831,-0.00859637,-0.0087911,-0.00885481,0.00922018,0.00927463,0.00944093,0.00972959,0.0101593,0.0107606,0.0115697,0.0123623,0.0131479,0.0137476,0.0140381,0.011793,0.00707087,-0.0026995,-0.00314577,-0.00314577,-0.0029025,-0.00240123,0.00907018,0.00150478,-0.00318544,0.00913017,-0.00523762,-0.00608873,-0.00705072,-0.007755,-0.00825831,-0.00859637,-0.0087911,-0.00885481,0.00922018,0.00927463,0.00944093,0.00972959,0.0101593,0.0107606,0.011556,0.0123492,0.0130427,0.0136898,0.0139213,0.0114164,0.00668859,-0.00311558,-0.00355913,-0.00355913,-0.00331949,-0.00282575,-0.0014012,0.00678395,-0.00468433,-0.00952049,-0.0047188,-0.00608873,-0.00705072,-0.007755,-0.00825831,-0.00859637,-0.0087911,-0.00885481,0.00922018,0.00927463,0.00944093,0.00972959,0.0101593,0.0107606,0.0115493,0.0123579,0.013012,0.0136791,0.0139594,0.0113273,0.0069039,-0.00223208,-0.00265245,-0.00265245,-0.00242174,-0.0019464,-0.0011512,0.00592933,-0.00400095,-0.00862493,0.0228733,-0.00608873,-0.00705072,-0.007755,-0.00825831,-0.00859637,-0.0087911,-0.00885481,0.00922018,0.00927463,0.00944093,0.00972959,0.0101593,0.0107606,0.0115493,0.0123747,0.0130307,0.0137539,0.0141414,0.0114528,0.00686495,-0.00262769,-0.00306124,-0.00306124,-0.00282492,-0.00233803,-0.000693118,0.00638909,-0.00338031,-0.00798728,0.0228825,-0.00608873,-0.00705072,-0.007755,-0.00825831,-0.00859637,-0.0087911,-0.00885481,0.00922018,0.00927463,0.00944093,0.00972959,0.0101593,0.0107606,0.011556,0.0124055,0.0130963,0.0139261,0.0145191,0.0119074,0.00745514,-0.00171188,-0.00213924,-0.00213924,-0.00190193,-0.00141293,0.000664573,0.00842051,-0.00285163,-0.00705757,0.022846,-0.00608873,-0.00705072,-0.007755,-0.00825831,-0.00859637,-0.0087911,-0.00885481,0.00922018,0.00927463,0.00944093,0.00972959,0.0101593,0.0107606,0.0115697,0.0124522,0.0132315,0.014154,0.0149973,0.0126096,0.00790752,-0.00177212,-0.00222376,-0.00222376,-0.00197278,-0.00145564,0.0148346,0.0126822,0.00327598,-0.00481576,0.0228409,-0.00608873,-0.00705072,-0.007755,-0.00825831,-0.00859637,-0.0087911,-0.00885481,0.00922018,0.00927463,0.00944093,0.00972959,0.0101593,0.0107606,0.0115819,0.0125326,0.0134426,0.0144826,0.0156002,0.0137968,0.00930648,0.000161617,-0.000284439,-0.000284439,-2.70459e-05,0.00050333,0.0165926,0.013847,0.0041492,0.00400118,-0.00473794,-0.00608873,-0.00705072,-0.007755,-0.00825831,-0.00859637,-0.0087911,-0.00885481,0.00922018,0.00927463,0.00944093,0.00972959,0.0101593,0.0107606,0.0115819,0.0126691,0.0135813,0.0148436,0.0162324,0.0151778,0.0101626,-6.38902e-05,-0.000560147,-0.000560147,-0.000275002,0.000312547,0.018899,0.00891144,0.00537097,0.0213668,-0.00471084,-0.00608873,-0.00705072,-0.007755,-0.00825831,-0.00859637,-0.0087911,-0.00885481,0.00922018,0.00927463,0.00944093,0.00972959,0.0101593,0.0107606,0.0115819,0.0126677,0.0137818,0.0152885,0.016984,0.0172133,0.0111906,-0.00114788,-0.00173532,-0.00173532,-0.00140312,-0.000718632,0.0274105,0.0188542,0.00322246,0.0302671,-0.00477892,-0.00608873,-0.00705072,-0.007755,-0.00825831,-0.00859637,-0.0087911,-0.00885481,0.00922018,0.00927463,0.00944093,0.00972959,0.0101593,0.0107606,0.0115819,0.0126904,0.0140785,0.0155265,0.017631,0.0192151,0.0125311,-0.00124795,-0.00190437,-0.00190437,-0.00153299,-0.000767801,0.0203856,0.00949661,0.0129908,0.0238519,-0.00477892,-0.00608873,-0.00705072,-0.007755,-0.00825831,-0.00859637,-0.0087911,-0.00885481,0.00922018,0.00927463,0.00944093,0.00972959,0.0101593,0.0107606,0.0115819,0.0127,0.0142668,0.0158293,0.0183582,0.0201193,0.0136417,-0.000706,-0.00139573,-0.00139573,-0.00100251,-0.000192237,0.0154476,0.0123349,0.0208468,0.0237855,-0.00477892,-0.00608873,-0.00705072,-0.007755,-0.00825831,-0.00859637,-0.0087911,-0.00885481,0.00922018,0.00927463,0.00944093,0.00972959,0.0101593,0.0107606,0.0115819,0.0127,0.0142336,0.0162795,0.0188411,0.0203538,0.0243556,0.0350384,0.0351879,0.0351879,0.0352762,0.0354586,0.0142268,0.0077178,0.0271931,-0.00297266,-0.00477892,-0.00608873,-0.00705072,-0.007755,-0.00825831,-0.00859637,-0.0087911,-0.00885481,0.00922018,0.00927463,0.00944093,0.00972959,0.0101593,0.0107606,0.0115819,0.0127,0.0142422,0.0164834,0.0188776,0.0217574,0.0241726,0.0303372,0.0303168,0.0303168,0.0304796,0.0308151,0.00893313,0.00562985,0.0210447,-0.00297266,-0.00477892,-0.00608873,-0.00705072,-0.007755,-0.00825831,-0.00859637,-0.0087911,-0.00885481,0.00922018,0.00927463,0.00944093,0.00972959,0.0101593,0.0107606,0.0115819,0.0127,0.0142422,0.0164299,0.0193192,0.0224169,0.0253138,0.0329921,0.0330172,0.0330172,0.0331672,0.033476,0.00277199,0.0171737,-0.00832063,-0.00520682,-0.00477892,-0.00608873,-0.00705072,-0.007755,-0.00825831,-0.00859637,-0.0087911,-0.00885481,0.00922018,0.00927463,0.00944093,0.00972959,0.0101593,0.0107606,0.0115819,0.0127,0.0142422,0.0164299,0.018301,0.0217919,0.025355,0.0344942,0.0345744,0.0345744,0.0347002,0.034959,0.0483924,-0.0165426,-0.00832063,-0.00520682,-0.00477892,-0.00608873,-0.00705072,-0.007755,-0.00825831,-0.00859637,-0.0087911,-0.00885481,0.00922018,0.00927463,0.00944093,0.00972959,0.0101593,0.0107606,0.0115819,0.0127,0.0142422,0.0164299,0.0176192,0.0171212,0.0134842,0.00644972,0.00603986,0.00603986,0.00630778,0.00685976,0.0450723,-0.0187419,-0.0121347,-0.00732604,-0.00477892,-0.00608873,-0.00705072,-0.007755,-0.00825831,-0.00859637,-0.0087911,-0.00885481,0.00922018,0.00927463,0.00944093,0.00972959,0.0101593,0.0107606,0.0115819,0.0127,0.0142422,0.0164211,0.0172145,0.0158268,0.0115339,0.00305895,0.00261487,0.00261487,0.00288556,0.00344335,0.0414828,-0.0209009,-0.0121347,-0.00732604,-0.00477892,-0.00608873,-0.00705072,-0.007755,-0.00825831,-0.00859637,-0.0087911,-0.00885481,0.00922018,0.00927463,0.00944093,0.00972959,0.0101593,0.0107606,0.0115819,0.0127,0.0142422,0.0163382,0.0169725,0.0151849,0.0107277,0.00179567,0.00134272,0.00134272,0.00161219,0.00216752,0.0403351,-0.020568,-0.0121347,-0.00732604,-0.00477892,-0.00608873,-0.00705072,-0.007755,-0.00825831,-0.00859637,-0.0087911,-0.00885481,]