[0.00188227,0.00189337,0.00192733,0.00198624,0.00207395,0.00219677,0.00236446,0.00259272,0.00290751,0.0033764,0.00455174,-0.00277626,-0.0164368,-0.046773,-0.0477534,-0.0477534,-0.0474224,-0.0467404,-0.0454517,0.0215877,0.0178815,0.0182025,0.0184194,0.01856,0.0186634,0.018739,0.0187929,0.0188292,0.0188501,0.0188569,0.00188227,0.00189337,0.00192733,0.00198624,0.00207395,0.00219677,0.00236446,0.00259272,0.00290751,0.00337428,0.00455364,-0.0026051,-0.0162433,-0.0465115,-0.0474916,-0.0474916,-0.0471594,-0.0464754,-0.0452755,0.0215795,0.0178815,0.0182025,0.0184194,0.01856,0.0186634,0.018739,0.0187929,0.0188292,0.0188501,0.0188569,0.00188227,0.00189337,0.00192733,0.00198624,0.00207395,0.00219677,0.00236446,0.00259272,0.00290751,0.00337011,0.00450286,-0.00214139,-0.0158126,-0.0461413,-0.0471282,-0.0471282,-0.0467904,-0.0460939,-0.0447999,0.0206991,0.017894,0.0182025,0.0184194,0.01856,0.0186634,0.018739,0.0187929,0.0188292,0.0188501,0.0188569,0.00188227,0.00189337,0.00192733,0.00198624,0.00207395,0.00219677,0.00236446,0.00259272,0.00290751,0.00336017,0.00429532,-0.00193077,-0.0160743,-0.0474384,-0.0484623,-0.0484623,-0.0481094,-0.0473832,-0.0485531,0.0206596,0.017894,0.0182136,0.0184194,0.01856,0.0186634,0.018739,0.0187929,0.0188292,0.0188501,0.0188569,0.00188227,0.00189337,0.00192733,0.00198624,0.00207395,0.00219677,0.00236446,0.00259272,0.00290751,0.00327546,0.00364439,-0.00189359,-0.0150458,-0.0442206,-0.0451719,-0.0451719,-0.044845,-0.0441715,-0.0325069,0.0143462,0.017894,0.0182136,0.0184194,0.01856,0.0186634,0.018739,0.0187929,0.0188292,0.0188501,0.0188569,0.00188227,0.00189337,0.00192733,0.00198624,0.00207395,0.00219677,0.00236446,0.00259272,0.00288428,0.00305698,0.00263249,-0.00197534,-0.0164237,-0.0482549,-0.0492928,-0.0492928,-0.0489364,-0.0482016,-0.0248862,0.00477184,0.0150687,0.0182255,0.0184194,0.01856,0.0186634,0.018739,0.0187929,0.0188292,0.0188501,0.0188569,0.00188227,0.00189337,0.00192733,0.00198624,0.00207395,0.00219677,0.00236446,0.00259272,0.00277678,0.00253173,0.00201592,-0.00194602,-0.0164101,-0.0480837,-0.0491155,-0.0491155,-0.0487615,-0.048032,-0.0117779,0.00505641,0.011858,0.0153305,0.0184194,0.01856,0.0186634,0.018739,0.0187929,0.0188292,0.0188501,0.0188569,0.00188227,0.00189337,0.00192733,0.00198624,0.00207395,0.00219677,0.00236446,0.00255107,0.00258018,0.00223008,0.0011986,-0.00286142,-0.0175122,-0.0508951,-0.0519803,-0.0519803,-0.0516095,-0.0508455,-0.0160066,-0.0015306,0.00320712,0.0152539,0.0184194,0.01856,0.0186634,0.018739,0.0187929,0.0188292,0.0188501,0.0188569,0.00188227,0.00189337,0.00192733,0.00198624,0.00207395,0.00219677,0.00236446,0.00248902,0.00229595,0.00191088,0.000204994,-0.00489759,-0.0177374,-0.046268,-0.0471662,-0.0471662,-0.0468799,-0.04629,-0.0300179,-0.00770694,0.00813537,0.0119684,0.0154537,0.01856,0.0186634,0.018739,0.0187929,0.0188292,0.0188501,0.0188569,0.00188227,0.00189337,0.00192733,0.00198624,0.00207395,0.00219677,0.00236446,0.00241416,0.00217579,0.00156711,-0.000571829,-0.00715661,-0.0198277,-0.048128,-0.0489955,-0.0489955,-0.0487361,-0.048202,-0.0405456,-0.015068,0.00134459,0.00631003,0.0154078,0.01856,0.0186634,0.018739,0.0187929,0.0188292,0.0188501,0.0188569,0.00188227,0.00189337,0.00192733,0.00198624,0.00207395,0.00219677,0.00233012,0.00229948,0.00204238,0.00125517,-0.00134912,-0.00863676,-0.0212068,-0.0494755,-0.0503273,-0.0503273,-0.0500838,-0.0495817,-0.0515169,-0.0187699,-0.00198993,0.00630394,0.0153741,0.01856,0.0186634,0.018739,0.0187929,0.0188292,0.0188501,0.0188569,0.00188227,0.00189337,0.00192733,0.00198624,0.00207395,0.00219677,0.00230267,0.00220792,0.00192429,0.00088471,-0.0020414,-0.00958334,-0.0220998,-0.0503075,-0.0511478,-0.0511478,-0.0509149,-0.0504358,-0.053771,-0.0227188,-0.0048671,0.00830918,0.01535,0.01856,0.0186634,0.018739,0.0187929,0.0188292,0.0188501,0.0188569,0.00188227,0.00189337,0.00192733,0.00198624,0.00207395,0.00219677,0.0022842,0.002162,0.00183633,0.000685244,-0.00261669,-0.0102176,-0.0226875,-0.050828,-0.0516591,-0.0516591,-0.0514344,-0.0509705,-0.0502048,-0.027799,-0.00442161,0.00555739,0.0134931,0.01856,0.0186634,0.018739,0.0187929,0.0188292,0.0188501,0.0188569,0.00188227,0.00189337,0.00192733,0.00198624,0.00207395,0.00219677,0.00227354,0.00217016,0.00178751,0.000553196,-0.00304202,-0.0106154,-0.0231041,-0.0513088,-0.0521382,-0.0521382,-0.0519167,-0.0514603,-0.0506848,-0.0277031,-0.00569206,0.00644216,0.0144552,0.0155361,0.0186634,0.018739,0.0187929,0.0188292,0.0188501,0.0188569,0.00188227,0.00189337,0.00192733,0.00198624,0.00207395,0.00219677,0.00227005,0.00217217,0.00177597,0.000506371,-0.00324036,-0.010758,-0.0232057,-0.051328,-0.0521531,-0.0521531,-0.0519342,-0.0514832,-0.0509308,-0.0305469,-0.00574771,0.00641147,0.00767505,0.0155326,0.0186634,0.018739,0.0187929,0.0188292,0.0188501,0.0188569,0.00188227,0.00189337,0.00192733,0.00198624,0.00207395,0.00219677,0.00227005,0.00218178,0.00179514,0.000535786,-0.00324874,-0.0107423,-0.0232365,-0.05146,-0.0522888,-0.0522888,-0.0520684,-0.0516142,-0.0509278,-0.0305669,-0.00576101,0.00640614,0.00768471,0.0155326,0.0186634,0.018739,0.0187929,0.0188292,0.0188501,0.0188569,0.00188227,0.00189337,0.00192733,0.00198624,0.00207395,0.00219677,0.00227354,0.0022005,0.00184207,0.000637723,-0.00307893,-0.0105498,-0.0230407,-0.0512466,-0.0520767,-0.0520767,-0.0518544,-0.0513966,-0.0507508,-0.0304545,-0.00571705,0.00639766,0.0144711,0.0155361,0.0186634,0.018739,0.0187929,0.0188292,0.0188501,0.0188569,0.00188227,0.00189337,0.00192733,0.00198624,0.00207395,0.00219677,0.0022842,0.00224077,0.00192659,0.000832978,-0.00269219,-0.0101187,-0.0226569,-0.0509424,-0.0517796,-0.0517796,-0.0515519,-0.0510827,-0.0503359,-0.027503,-0.00562099,0.00644416,0.0148262,0.01856,0.0186634,0.018739,0.0187929,0.0188292,0.0188501,0.0188569,0.00188227,0.00189337,0.00192733,0.00198624,0.00207395,0.00219677,0.00230267,0.00231977,0.00205523,0.00113128,-0.00247843,-0.00936309,-0.0202124,-0.0447227,-0.0454417,-0.0454417,-0.0452505,-0.0448571,-0.0441766,-0.0243283,-0.00281092,0.00937611,0.0166518,0.01856,0.0186634,0.018739,0.0187929,0.0188292,0.0188501,0.0188569,0.00188227,0.00189337,0.00192733,0.00198624,0.00207395,0.00219677,0.00233012,0.00242802,0.00219851,0.000971844,-0.00165858,-0.00513928,-0.0103277,-0.0220865,-0.0224249,-0.0224249,-0.0223402,-0.0221659,-0.0220756,-0.018986,-0.00140055,0.00850538,0.0153273,0.01856,0.0186634,0.018739,0.0187929,0.0188292,0.0188501,0.0188569,0.00188227,0.00189337,0.00192733,0.00198624,0.00207395,0.00219677,0.00236446,0.0024543,0.00216659,0.000664411,-0.00102983,-0.00364592,-0.00735157,-0.0157485,-0.01599,-0.01599,-0.0159294,-0.0158044,-0.0185461,-0.0137186,-0.0202078,0.00686672,0.0153423,0.01856,0.0186634,0.018739,0.0187929,0.0188292,0.0188501,0.0188569,0.00188227,0.00189337,0.00192733,0.00198624,0.00207395,0.00219677,0.00236446,0.00249909,0.0014608,0.000504294,-0.00120304,-0.00311908,-0.00581827,-0.0119609,-0.0121334,-0.0121334,-0.0120937,-0.0120122,-0.0133191,-0.0163953,-0.00955144,-0.0139659,0.0153818,0.01856,0.0186634,0.018739,0.0187929,0.0188292,0.0188501,0.0188569,0.00188227,0.00189337,0.00192733,0.00198624,0.00207395,0.00219677,0.00236446,0.00211156,0.00119537,7.21571e-05,-0.00131403,-0.00280518,-0.00512314,-0.0103953,-0.0105418,-0.0105418,-0.0105092,-0.0104422,-0.0107191,-0.0137643,-0.00621415,-0.0068258,0.0183683,0.01856,0.0186634,0.018739,0.0187929,0.0188292,0.0188501,0.0188569,0.00188227,0.00189337,0.00192733,0.00198624,0.00207395,0.00219677,0.00236446,0.00166659,0.000782792,-0.000284014,-0.00127388,-0.00234898,-0.00411324,-0.00814574,-0.00825579,-0.00825579,-0.00823302,-0.00818621,-0.00829857,-0.0105681,-0.0129592,-0.00928196,-0.0125584,0.01856,0.0186634,0.018739,0.0187929,0.0188292,0.0188501,0.0188569,0.00188227,0.00189337,0.00192733,0.00198624,0.00207395,0.00219677,0.00236446,0.0013674,0.00042448,-0.000455899,-0.00119665,-0.00206514,-0.00352316,-0.00686266,-0.00695252,-0.00695252,-0.00693501,-0.00689892,-0.0069374,-0.00825739,-0.0105843,-0.00780271,-0.00804829,0.01856,0.0186634,0.018739,0.0187929,0.0188292,0.0188501,0.0188569,0.00188227,0.00189337,0.00192733,0.00198624,0.00207395,0.00219677,0.00202891,0.00116326,0.000189523,-0.000538653,-0.000973327,-0.00148711,-0.00236687,-0.00439551,-0.00444767,-0.00444767,-0.00443959,-0.00442281,-0.00439635,-0.0047494,-0.00944472,-0.0140402,-0.00520077,0.01856,0.0186634,0.018739,0.0187929,0.0188292,0.0188501,0.0188569,0.00188227,0.00189337,0.00192733,0.00198624,0.00207395,0.00219677,0.00182339,0.000974268,5.15728e-05,-0.000568266,-0.000951213,-0.00140824,-0.00219892,-0.00402622,-0.00407249,-0.00407249,-0.00406595,-0.00405235,-0.00403089,-0.00474366,-0.00845334,-0.0129635,-0.00486563,0.01856,0.0186634,0.018739,0.0187929,0.0188292,0.0188501,0.0188569,0.00188227,0.00189337,0.00192733,0.00198624,0.00207395,0.00219677,0.00170825,0.000826981,-2.3478e-05,-0.000558806,-0.000927515,-0.00136897,-0.00213435,-0.00390352,-0.00394826,-0.00394826,-0.00394198,-0.00392895,-0.00390841,-0.00449375,-0.00725,-0.0118756,-0.0075933,0.01856,0.0186634,0.018739,0.0187929,0.0188292,0.0188501,0.0188569,0.00188227,0.00189337,0.00192733,0.00198624,0.00207395,0.00219987,0.00167192,0.000769125,-3.16556e-05,-0.000505008,-0.00085477,-0.0012778,-0.00201369,-0.00371259,-0.00375598,-0.00375598,-0.0037495,-0.00373618,-0.00371515,-0.00418068,-0.00707182,-0.0115273,-0.00748032,-0.0128923,0.018717,0.018739,0.0187929,0.0188292,0.0188501,0.0188569,0.00188227,0.00189337,0.00192733,0.00198624,0.00207395,0.00220333,0.00168837,0.000782665,3.51077e-05,-0.000355794,-0.000600435,-0.000873648,-0.00135129,-0.00245643,-0.00248422,-0.00248422,-0.00248047,-0.00247273,-0.00246054,-0.00294235,-0.00618912,-0.0110998,-0.0071378,-0.00759564,0.0187668,0.018739,0.0187929,0.0188292,0.0188501,0.0188569,0.00188227,0.00189337,0.00192733,0.00198624,0.00207395,0.00220807,0.00170651,0.000798129,7.52342e-05,-0.000219252,-0.000271382,-0.000259045,-0.000249752,-0.00024386,-0.000241003,-0.000241003,-0.00024386,-0.000249752,-0.000259045,-0.000838741,-0.0051459,-0.0108178,-0.013423,-0.00749607,0.0189612,0.018739,0.0187929,0.0188292,0.0188501,0.0188569,0.00188227,0.00189337,0.00192733,0.00198624,0.00207395,0.00220427,0.00170769,0.000792268,3.49588e-05,-0.000367232,-0.000638622,-0.000942721,-0.00147276,-0.00269769,-0.00272877,-0.00272877,-0.00272433,-0.0027152,-0.00270077,-0.0032115,-0.00632251,-0.0111262,-0.013556,-0.00762457,0.0188142,0.018739,0.0187929,0.0188292,0.0188501,0.0188569,0.00188227,0.00189337,0.00192733,0.00198624,0.00207395,0.00219787,0.00174489,0.000822088,1.38572e-05,-0.000472634,-0.000836503,-0.0012756,-0.00203407,-0.00378265,-0.00382769,-0.00382769,-0.00382065,-0.00380606,-0.00378301,-0.0043677,-0.00713359,-0.0115855,-0.00750638,0.0186084,0.0186634,0.018739,0.0187929,0.0188292,0.0188501,0.0188569,0.00188227,0.00189337,0.00192733,0.00198624,0.00207395,0.00219677,0.00186135,0.000951515,8.90684e-05,-0.000458133,-0.000837861,-0.00128732,-0.00205561,-0.00382664,-0.00387238,-0.00387238,-0.00386511,-0.00385025,-0.00382675,-0.00439936,-0.00732036,-0.0115617,-0.0048167,0.01856,0.0186634,0.018739,0.0187929,0.0188292,0.0188501,0.0188569,0.00188227,0.00189337,0.00192733,0.00198624,0.00207395,0.00219677,0.00207433,0.00116299,0.000218668,-0.000414888,-0.000812253,-0.0012726,-0.00204144,-0.00381278,-0.00385866,-0.00385866,-0.00385127,-0.00383607,-0.003812,-0.00447755,-0.00938922,-0.0128134,-0.00467745,0.01856,0.0186634,0.018739,0.0187929,0.0188292,0.0188501,0.0188569,0.00188227,0.00189337,0.00192733,0.00198624,0.00207395,0.00219677,0.00236446,0.00146102,0.000433569,-0.000321486,-0.000769521,-0.00128814,-0.00214925,-0.00412532,-0.00417788,-0.00417788,-0.00416816,-0.00414829,-0.00419753,-0.00467094,-0.00941753,-0.0138095,-0.00751643,0.01856,0.0186634,0.018739,0.0187929,0.0188292,0.0188501,0.0188569,0.00188227,0.00189337,0.00192733,0.00198624,0.00207395,0.00219677,0.00236446,0.00176653,0.000742355,-0.000156082,-0.000920414,-0.00187046,-0.00342496,-0.00696673,-0.00706539,-0.00706539,-0.0070433,-0.00699792,-0.00709166,-0.00725842,-0.0114135,-0.0134545,-0.0125462,0.01856,0.0186634,0.018739,0.0187929,0.0188292,0.0188501,0.0188569,0.00188227,0.00189337,0.00192733,0.00198624,0.00207395,0.00219677,0.00236446,0.0022238,0.00122333,7.51373e-05,-0.00104417,-0.00237568,-0.00453192,-0.00942284,-0.00956118,-0.00956118,-0.00952854,-0.00946138,-0.00959717,-0.0106666,-0.0123247,-0.00749556,0.0183927,0.01856,0.0186634,0.018739,0.0187929,0.0188292,0.0188501,0.0188569,0.00188227,0.00189337,0.00192733,0.00198624,0.00207395,0.00219677,0.00236446,0.00260606,0.00188861,0.000583224,-0.000825397,-0.00242119,-0.00491055,-0.0105373,-0.0106995,-0.0106995,-0.0106586,-0.0105745,-0.0108773,-0.0125861,-0.0142156,-0.00728341,0.0183566,0.01856,0.0186634,0.018739,0.0187929,0.0188292,0.0188501,0.0188569,0.00188227,0.00189337,0.00192733,0.00198624,0.00207395,0.00219677,0.00236446,0.00267533,0.00272638,0.00101727,-0.000873081,-0.00305723,-0.00629129,-0.0136126,-0.0138246,-0.0138246,-0.0137705,-0.0136587,-0.0148442,-0.0163912,-0.0137282,0.0184813,0.0183419,0.01856,0.0186634,0.018739,0.0187929,0.0188292,0.0188501,0.0188569,0.00188227,0.00189337,0.00192733,0.00198624,0.00207395,0.00219677,0.00236446,0.00266148,0.00277155,0.00159055,-0.0012101,-0.00424775,-0.00877831,-0.0190328,-0.0193304,-0.0193304,-0.019254,-0.0190966,-0.021592,-0.0231718,0.00176261,0.0184304,0.0215611,0.01856,0.0186634,0.018739,0.0187929,0.0188292,0.0188501,0.0188569,0.00188227,0.00189337,0.00192733,0.00198624,0.00207395,0.00219677,0.00236446,0.00266716,0.00256946,0.00157092,-0.00187169,-0.00709397,-0.0149181,-0.0326131,-0.0331289,-0.0331289,-0.0329945,-0.0327179,-0.0321996,-0.021795,-0.00541066,0.0101437,0.0216121,0.01856,0.0186634,0.018739,0.0187929,0.0188292,0.0188501,0.0188569,0.00188227,0.00189337,0.00192733,0.00198624,0.00207395,0.00219677,0.00238135,0.00267373,0.00239961,0.00121914,-0.00217533,-0.00896495,-0.0201829,-0.0454853,-0.0462349,-0.0462349,-0.0460303,-0.0456084,-0.0448739,-0.0281932,-0.00495388,0.00982475,0.0182497,0.01856,0.0186634,0.018739,0.0187929,0.0188292,0.0188501,0.0188569,0.00188227,0.00189337,0.00192733,0.00198624,0.00207395,0.00219677,0.00240014,0.00263601,0.00228013,0.000927513,-0.00266955,-0.00973112,-0.0214776,-0.047992,-0.0487743,-0.0487743,-0.0485632,-0.0481286,-0.0474276,-0.0294487,-0.00512188,0.00968102,0.0182608,0.01856,0.0186634,0.018739,0.0187929,0.0188292,0.0188501,0.0188569,0.00188227,0.00189337,0.00192733,0.00198624,0.00207395,0.00219677,0.00240927,0.002602,0.00219454,0.000739005,-0.00298703,-0.0100485,-0.0217394,-0.0481485,-0.0489238,-0.0489238,-0.0487176,-0.0482924,-0.0477392,-0.0296421,-0.00519387,0.00967793,0.0165186,0.01856,0.0186634,0.018739,0.0187929,0.0188292,0.0188501,0.0188569,0.00188227,0.00189337,0.00192733,0.00198624,0.00207395,0.00219677,0.00240927,0.00259086,0.00215765,0.000695602,-0.0030858,-0.0101513,-0.0218605,-0.0483161,-0.0490921,-0.0490921,-0.0488863,-0.0484624,-0.0478325,-0.0296836,-0.00521174,0.00968269,0.0165174,0.01856,0.0186634,0.018739,0.0187929,0.0188292,0.0188501,0.0188569,0.00188227,0.00189337,0.00192733,0.00198624,0.00207395,0.00219677,0.00240014,0.0025943,0.00216794,0.000725586,-0.00303099,-0.010098,-0.0217876,-0.0481966,-0.0489715,-0.0489715,-0.0487658,-0.0483419,-0.0477584,-0.0296141,-0.00519595,0.00971076,0.0180922,0.01856,0.0186634,0.018739,0.0187929,0.0188292,0.0188501,0.0188569,0.00188227,0.00189337,0.00192733,0.00198624,0.00207395,0.00219677,0.00238135,0.00261256,0.00221144,0.0008163,-0.00279547,-0.00990115,-0.021631,-0.048118,-0.0488973,-0.0488973,-0.0486887,-0.0482589,-0.0474661,-0.0286554,-0.00509828,0.00974828,0.018091,0.01856,0.0186634,0.018739,0.0187929,0.0188292,0.0188501,0.0188569,0.00188227,0.00189337,0.00192733,0.00198624,0.00207395,0.00219677,0.00236446,0.00263777,0.00229462,0.00102285,-0.00232911,-0.00945028,-0.0211513,-0.047549,-0.04833,-0.04833,-0.0481178,-0.0476796,-0.0468866,-0.0282426,-0.00606063,0.00852437,0.0216629,0.01856,0.0186634,0.018739,0.0187929,0.0188292,0.0188501,0.0188569,0.00188227,0.00189337,0.00192733,0.00198624,0.00207395,0.00219677,0.00236446,0.00264886,0.00244588,0.00131864,-0.0016842,-0.00876212,-0.0205018,-0.0469469,-0.047737,-0.047737,-0.0475161,-0.0470619,-0.0495656,-0.021232,-0.00295443,0.0102226,0.0216256,0.01856,0.0186634,0.018739,0.0187929,0.0188292,0.0188501,0.0188569,0.00188227,0.00189337,0.00192733,0.00198624,0.00207395,0.00219677,0.00236446,0.00265078,0.0026097,0.00167214,-0.00089205,-0.00776264,-0.0195845,-0.0461552,-0.0469593,-0.0469593,-0.0467266,-0.0462471,-0.0458896,-0.0173484,-0.00394029,0.0135157,0.0184194,0.01856,0.0186634,0.018739,0.0187929,0.0188292,0.0188501,0.0188569,0.00188227,0.00189337,0.00192733,0.00198624,0.00207395,0.00219677,0.00236446,0.00260606,0.00280107,0.002124,-1.94129e-05,-0.0062859,-0.0182434,-0.0449112,-0.0457334,-0.0457334,-0.0454839,-0.0449705,-0.0380832,-0.0124887,0.00506928,0.0179032,0.0184194,0.01856,0.0186634,0.018739,0.0187929,0.0188292,0.0188501,0.0188569,0.00188227,0.00189337,0.00192733,0.00198624,0.00207395,0.00219677,0.00236446,0.00259272,0.00290794,0.00259254,0.000852312,-0.00410572,-0.0169818,-0.046025,-0.0469508,-0.0469508,-0.0466474,-0.0460221,-0.029151,-0.00973114,0.00869962,0.0180682,0.0184194,0.01856,0.0186634,0.018739,0.0187929,0.0188292,0.0188501,0.0188569,0.00188227,0.00189337,0.00192733,0.00198624,0.00207395,0.00219677,0.00236446,0.00259272,0.00291935,0.00301785,0.00185037,-0.00191644,-0.0158465,-0.0475102,-0.0485474,-0.0485474,-0.0481872,-0.0474449,-0.0142417,-0.00327977,0.0127105,0.0182255,0.0184194,0.01856,0.0186634,0.018739,0.0187929,0.0188292,0.0188501,0.0188569,0.00188227,0.00189337,0.00192733,0.00198624,0.00207395,0.00219677,0.00236446,0.00259272,0.00290751,0.00329306,0.00288029,-0.00101961,-0.0133981,-0.0405966,-0.0414899,-0.0414899,-0.0411779,-0.0405358,-0.0093683,0.00430473,0.0177778,0.0182255,0.0184194,0.01856,0.0186634,0.018739,0.0187929,0.0188292,0.0188501,0.0188569,0.00188227,0.00189337,0.00192733,0.00198624,0.00207395,0.00219677,0.00236446,0.00259272,0.00290751,0.00335409,0.00373116,-0.000627372,-0.0143753,-0.0447968,-0.0458024,-0.0458024,-0.0454469,-0.0447148,-0.00903556,0.0164113,0.0179055,0.0182136,0.0184194,0.01856,0.0186634,0.018739,0.0187929,0.0188292,0.0188501,0.0188569,0.00188227,0.00189337,0.00192733,0.00198624,0.00207395,0.00219677,0.00236446,0.00259272,0.00290751,0.00335409,0.00425798,-0.00131353,-0.0163069,-0.0495154,-0.0506064,-0.0506064,-0.0502254,-0.04944,-0.045254,0.0195933,0.0179055,0.0182136,0.0184194,0.01856,0.0186634,0.018739,0.0187929,0.0188292,0.0188501,0.0188569,0.00188227,0.00189337,0.00192733,0.00198624,0.00207395,0.00219677,0.00236446,0.00259272,0.00290751,0.00335409,0.00439739,-0.00166537,-0.015585,-0.0464402,-0.0474496,-0.0474496,-0.0471001,-0.0463804,-0.0450611,0.0204904,0.0178815,0.0182025,0.0184194,0.01856,0.0186634,0.018739,0.0187929,0.0188292,0.0188501,0.0188569,0.00188227,0.00189337,0.00192733,0.00198624,0.00207395,0.00219677,0.00236446,0.00259272,0.00290751,0.00335531,0.00448673,-0.00232251,-0.015969,-0.0462415,-0.0472243,-0.0472243,-0.0468894,-0.0461985,-0.0449829,0.0215341,0.0178815,0.0182025,0.0184194,0.01856,0.0186634,0.018739,0.0187929,0.0188292,0.0188501,0.0188569,0.00188227,0.00189337,0.00192733,0.00198624,0.00207395,0.00219677,0.00236446,0.00259272,0.00290751,0.00337052,0.00452986,-0.00270391,-0.0163667,-0.0467075,-0.0476891,-0.0476891,-0.047357,-0.0466729,-0.0453743,0.0215773,0.0178815,0.0182025,0.0184194,0.01856,0.0186634,0.018739,0.0187929,0.0188292,0.0188501,0.0188569,]