[-0.00370644,-0.00372831,-0.0037952,-0.0039112,-0.00408389,-0.00432562,-0.00465583,-0.00510534,-0.00572528,-0.00655283,-0.00685209,-0.00457603,-0.00310917,-0.00257047,-0.00251716,-0.00251716,-0.00256064,-0.00265019,0.0109013,0.0060376,-0.000152499,0.00118368,0.00210046,0.00263076,0.00302024,0.00330542,0.00350919,0.00364602,0.00372492,0.0037507,-0.00370644,-0.00372831,-0.0037952,-0.0039112,-0.00408389,-0.00432562,-0.00465583,-0.00510534,-0.00572528,-0.00655844,-0.00688202,-0.00466491,-0.00732682,-0.0172603,-0.0175607,-0.0175607,-0.0174739,-0.0172947,0.010922,0.00601911,-0.000152499,0.00118368,0.00210046,0.00263076,0.00302024,0.00330542,0.00350919,0.00364602,0.00372492,0.0037507,-0.00370644,-0.00372831,-0.0037952,-0.0039112,-0.00408389,-0.00432562,-0.00465583,-0.00510534,-0.00572528,-0.00656801,-0.00696614,-0.00492149,-0.00487779,-0.00631569,-0.00631891,-0.00631891,-0.00634852,-0.00640952,0.0107358,0.00446371,-7.29408e-05,0.00118368,0.00210046,0.00263076,0.00302024,0.00330542,0.00350919,0.00364602,0.00372492,0.0037507,-0.00370644,-0.00372831,-0.0037952,-0.0039112,-0.00408389,-0.00432562,-0.00465583,-0.00510534,-0.00572528,-0.00659075,-0.00709539,-0.00546105,-0.0060719,-0.00868751,-0.00872291,-0.00872291,-0.00874575,-0.00879287,0.00786488,0.00410905,-7.29408e-05,0.00127574,0.00210046,0.00263076,0.00302024,0.00330542,0.00350919,0.00364602,0.00372492,0.0037507,-0.00370644,-0.00372831,-0.0037952,-0.0039112,-0.00408389,-0.00432562,-0.00465583,-0.00510534,-0.00572528,-0.00659524,-0.00725181,-0.0062341,-0.00775219,-0.0118681,-0.0119429,-0.0119429,-0.011959,-0.0119921,0.00553016,0.00206034,-7.29408e-05,0.00127574,0.00210046,0.00263076,0.00302024,0.00330542,0.00350919,0.00364602,0.00372492,0.0037507,-0.00370644,-0.00372831,-0.0037952,-0.0039112,-0.00408389,-0.00432562,-0.00465583,-0.00510534,-0.00572247,-0.00656932,-0.00733316,-0.00680117,-0.00557292,-0.00334567,-0.00320213,-0.00320213,-0.00330135,-0.00350576,0.00279955,-0.000807056,0.000159462,0.00136916,0.00210046,0.00263076,0.00302024,0.00330542,0.00350919,0.00364602,0.00372492,0.0037507,-0.00370644,-0.00372831,-0.0037952,-0.0039112,-0.00408389,-0.00432562,-0.00465583,-0.00510534,-0.00570951,-0.00648571,-0.00725351,-0.00699645,-0.00467506,0.000287411,0.00052552,0.00052552,0.000389965,0.000110709,-0.00127133,-0.00321323,-0.00155589,0.00144041,0.00210046,0.00263076,0.00302024,0.00330542,0.00350919,0.00364602,0.00372492,0.0037507,-0.00370644,-0.00372831,-0.0037952,-0.0039112,-0.00408389,-0.00432562,-0.00465583,-0.0051003,-0.00568247,-0.00636015,-0.0070416,-0.00681078,-0.00455698,0.000158108,0.000385543,0.000385543,0.000255502,-1.24719e-05,-0.00130092,-0.00250745,-0.00121343,0.00144965,0.00210046,0.00263076,0.00302024,0.00330542,0.00350919,0.00364602,0.00372492,0.0037507,-0.00370644,-0.00372831,-0.0037952,-0.0039112,-0.00408389,-0.00432562,-0.00465583,-0.00509282,-0.00562891,-0.00620018,-0.00737177,-0.00914531,-0.0103205,-0.0132918,-0.0132961,-0.0132961,-0.0133598,-0.0134914,-0.0150422,-0.00176847,-0.000835165,-0.000442912,0.00217195,0.00263076,0.00302024,0.00330542,0.00350919,0.00364602,0.00372492,0.0037507,-0.00370644,-0.00372831,-0.0037952,-0.0039112,-0.00408389,-0.00432562,-0.00465583,-0.00508396,-0.00555507,-0.00603459,-0.00737787,-0.0112098,-0.0160452,-0.0272814,-0.0275397,-0.0275397,-0.027527,-0.0275008,-0.032326,-0.00774612,-0.000267746,-7.70012e-05,0.00217747,0.00263076,0.00302024,0.00330542,0.00350919,0.00364602,0.00372492,0.0037507,-0.00370644,-0.00372831,-0.0037952,-0.0039112,-0.00408389,-0.00432562,-0.00465169,-0.0050605,-0.00548017,-0.00588163,-0.00729634,-0.0129372,-0.0227105,-0.0450227,-0.0456324,-0.0456324,-0.0455059,-0.0452459,-0.042753,-0.00726195,-1.68372e-06,0.000190828,0.00218154,0.00263076,0.00302024,0.00330542,0.00350919,0.00364602,0.00372492,0.0037507,-0.00370644,-0.00372831,-0.0037952,-0.0039112,-0.00408389,-0.00432562,-0.00464837,-0.00503528,-0.00540309,-0.00573495,-0.0062101,-0.00818566,-0.012268,-0.0217541,-0.0219855,-0.0219855,-0.0219608,-0.0219097,-0.017995,-0.000794088,-0.000122417,9.65129e-05,0.00218446,0.00263076,0.00302024,0.00330542,0.00350919,0.00364602,0.00372492,0.0037507,-0.00370644,-0.00372831,-0.0037952,-0.0039112,-0.00408389,-0.00432562,-0.00464612,-0.00500835,-0.00534129,-0.00562217,-0.00619603,-0.00856196,-0.0156846,-0.0319123,-0.0323641,-0.0323641,-0.0322631,-0.032055,-0.0189628,-0.00824158,-0.000148653,0.000326008,0.00243998,0.00263076,0.00302024,0.00330542,0.00350919,0.00364602,0.00372492,0.0037507,-0.00370644,-0.00372831,-0.0037952,-0.0039112,-0.00408389,-0.00432562,-0.00464483,-0.00498718,-0.00529321,-0.00553694,-0.00556413,-0.00540272,-0.00711678,-0.011211,-0.0112917,-0.0112917,-0.0113012,-0.0113206,0.00116444,-0.00130745,-0.000610525,0.000305658,0.000546908,0.00270325,0.00302024,0.00330542,0.00350919,0.00364602,0.00372492,0.0037507,-0.00370644,-0.00372831,-0.0037952,-0.0039112,-0.00408389,-0.00432562,-0.00464442,-0.0049731,-0.00526484,-0.00548605,-0.00547822,-0.00544903,-0.0122523,-0.0275979,-0.0280524,-0.0280524,-0.0279284,-0.0276729,0.00753263,-0.00133111,-0.00108539,-0.000110182,0.000714715,0.00270368,0.00302024,0.00330542,0.00350919,0.00364602,0.00372492,0.0037507,-0.00370644,-0.00372831,-0.0037952,-0.0039112,-0.00408389,-0.00432562,-0.00464442,-0.00496854,-0.00525352,-0.00546846,-0.00544626,-0.00414359,-0.00410524,-0.00425495,-0.00421732,-0.00421732,-0.00426017,-0.0043484,0.00721914,-0.00166028,-0.00160687,-0.000478465,0.000715457,0.00270368,0.00302024,0.00330542,0.00350919,0.00364602,0.00372492,0.0037507,-0.00370644,-0.00372831,-0.0037952,-0.0039112,-0.00408389,-0.00432562,-0.00464483,-0.00497337,-0.00526169,-0.0054827,-0.00546939,-0.0040722,-0.00573286,-0.00963392,-0.00972178,-0.00972178,-0.00971913,-0.00971378,0.00685667,-0.00189467,-0.00182734,-0.00125404,0.000550546,0.00270325,0.00302024,0.00330542,0.00350919,0.00364602,0.00372492,0.0037507,-0.00370644,-0.00372831,-0.0037952,-0.0039112,-0.00408389,-0.00432562,-0.00464612,-0.00498918,-0.00529046,-0.00553102,-0.00555136,-0.00371864,-0.000421428,0.00665613,0.0069298,0.0069298,0.0068055,0.00654946,0.00626243,-0.0024034,-0.00217546,-0.0013774,0.00257317,0.00263076,0.00302024,0.00330542,0.00350919,0.00364602,0.00372492,0.0037507,-0.00370644,-0.00372831,-0.0037952,-0.0039112,-0.00408389,-0.00432562,-0.00464837,-0.00501395,-0.00533871,-0.00561249,-0.00565204,-0.00391652,-0.000466431,0.00693793,0.00722449,0.00722449,0.00709416,0.00682567,0.00669452,-0.00274197,-0.0023685,-0.00165436,0.00189152,0.00263076,0.00302024,0.00330542,0.00350919,0.00364602,0.00372492,0.0037507,-0.00370644,-0.00372831,-0.0037952,-0.0039112,-0.00408389,-0.00432562,-0.00465169,-0.00504519,-0.00540554,-0.00567407,-0.00534219,-0.00338193,0.000823481,0.00992751,0.0102652,0.0102652,0.0101204,0.00982208,0.00948772,-0.000176431,-0.00270747,-0.00236767,0.0012436,0.00263076,0.00302024,0.00330542,0.00350919,0.00364602,0.00372492,0.0037507,-0.00370644,-0.00372831,-0.0037952,-0.0039112,-0.00408389,-0.00432562,-0.00465583,-0.00507406,-0.0054624,-0.00532714,-0.00464422,-0.00260592,0.00228218,0.0129391,0.0133205,0.0133205,0.0131656,0.0128463,0.00482323,0.00127659,-0.00268858,-0.0024917,0.000859122,0.00263076,0.00302024,0.00330542,0.00350919,0.00364602,0.00372492,0.0037507,-0.00370644,-0.00372831,-0.0037952,-0.0039112,-0.00408389,-0.00432562,-0.00465583,-0.00509091,-0.00526058,-0.00474918,-0.00361135,-0.00134049,0.00432519,0.0167724,0.0172002,0.0172002,0.0170377,0.0167025,0.00958695,0.0050881,0.00181989,-0.00218593,0.000727263,0.00263076,0.00302024,0.00330542,0.00350919,0.00364602,0.00372492,0.0037507,-0.00370644,-0.00372831,-0.0037952,-0.0039112,-0.00408389,-0.00432562,-0.00465583,-0.00505627,-0.00477441,-0.00390754,-0.00253948,0.000170401,0.00591787,0.0187745,0.0192012,0.0192012,0.0190494,0.018736,0.0140745,0.0079258,0.00395137,0.00354826,0.00107884,0.00263076,0.00302024,0.00330542,0.00350919,0.00364602,0.00372492,0.0037507,-0.00370644,-0.00372831,-0.0037952,-0.0039112,-0.00408389,-0.00432562,-0.00465583,-0.00476871,-0.00419896,-0.00301797,-0.00128418,0.00197673,0.00812147,0.0218149,0.0222501,0.0222501,0.0221085,0.0218164,0.0187617,0.0120549,0.00952518,0.00510661,0.00232489,0.00263076,0.00302024,0.00330542,0.00350919,0.00364602,0.00372492,0.0037507,-0.00370644,-0.00372831,-0.0037952,-0.0039112,-0.00408389,-0.00432562,-0.00465583,-0.00443053,-0.00357072,-0.00224787,-0.000141014,0.00356968,0.0101081,0.0247619,0.025213,0.025213,0.0250769,0.0247966,0.0229209,0.0171419,0.0139575,0.00781191,0.00704401,0.00263076,0.00302024,0.00330542,0.00350919,0.00364602,0.00372492,0.0037507,-0.00370644,-0.00372831,-0.0037952,-0.0039112,-0.00408389,-0.00432562,-0.00458206,-0.00410585,-0.00308401,-0.00157758,0.00127939,0.00599374,0.0140396,0.0321628,0.032704,0.032704,0.0325531,0.0322413,0.0317496,0.0266202,0.0159366,0.0123779,0.0086127,0.00263076,0.00302024,0.00330542,0.00350919,0.00364602,0.00372492,0.0037507,-0.00370644,-0.00372831,-0.0037952,-0.0039112,-0.00408389,-0.00432562,-0.00443654,-0.00379578,-0.00269115,-0.00101604,0.00204781,0.00738473,0.0164195,0.0368074,0.0374096,0.0374096,0.0372465,0.0369101,0.0363794,0.0272379,0.0184914,0.0141602,0.0105475,0.00263076,0.00302024,0.00330542,0.00350919,0.00364602,0.00372492,0.0037507,-0.00370644,-0.00372831,-0.0037952,-0.0039112,-0.00408389,-0.00432562,-0.00431407,-0.00353546,-0.00239295,-0.000562289,0.00259796,0.00821795,0.0177598,0.0393161,0.0399484,0.0399484,0.0397805,0.0394339,0.0388873,0.0294978,0.0212376,0.0161141,0.0114314,0.00263076,0.00302024,0.00330542,0.00350919,0.00364602,0.00372492,0.0037507,-0.00370644,-0.00372831,-0.0037952,-0.0039112,-0.00408389,-0.00416284,-0.00364623,-0.00232862,-0.000673735,0.00184682,0.00585251,0.0126676,0.0242602,0.0506009,0.0513471,0.0513471,0.0511696,0.0508049,0.0502286,0.0420245,0.0326984,0.0279237,0.0220426,0.00961162,0.00532283,0.00330542,0.00350919,0.00364602,0.00372492,0.0037507,-0.00370644,-0.00372831,-0.0037952,-0.0039112,-0.00408389,-0.00393498,-0.00251494,0.000295998,0.00391767,0.00557945,0.00625942,0.00868951,0.0130338,0.0231276,0.0233742,0.0233742,0.0233476,0.0232928,0.0232063,0.0156532,0.0412488,0.0692641,0.0494106,0.0348934,0.00845586,0.00330542,0.00350919,0.00364602,0.00372492,0.0037507,-0.00370644,-0.00372831,-0.0037952,-0.0039112,-0.00408389,-0.00356562,-0.00149291,0.00206588,0.00475113,0.00452719,0.00231268,0.00218039,0.00210219,0.00205259,0.00202854,0.00202854,0.00205259,0.00210219,0.00218039,-0.019485,0.0274813,0.0737938,0.0680391,0.0441471,0.0227257,0.00330542,0.00350919,0.00364602,0.00372492,0.0037507,-0.00370644,-0.00372831,-0.0037952,-0.0039112,-0.00408389,-0.00385612,-0.00253493,7.4786e-05,0.0025396,0.00398925,0.00644155,0.0109941,0.0188618,0.0368746,0.0373606,0.0373606,0.0372647,0.0370665,0.0367542,0.0221336,0.0304158,0.0468407,0.0533753,0.032247,0.0124182,0.00330542,0.00350919,0.00364602,0.00372492,0.0037507,-0.00370644,-0.00372831,-0.0037952,-0.0039112,-0.00408389,-0.00423378,-0.00397198,-0.00292499,-0.00157045,0.000576394,0.00406668,0.0101378,0.0204689,0.0438776,0.0445525,0.0445525,0.0443826,0.0440339,0.0434824,0.0340486,0.0259995,0.0211885,0.0156306,0.00667721,0.00302024,0.00330542,0.00350919,0.00364602,0.00372492,0.0037507,-0.00370644,-0.00372831,-0.0037952,-0.0039112,-0.00408389,-0.00432562,-0.00437479,-0.00356265,-0.00241952,-0.000606105,0.00249774,0.00806641,0.0176138,0.0391734,0.0398075,0.0398075,0.0396378,0.039288,0.0387357,0.0294549,0.0205064,0.0162155,0.0106498,0.00263076,0.00302024,0.00330542,0.00350919,0.00364602,0.00372492,0.0037507,-0.00370644,-0.00372831,-0.0037952,-0.0039112,-0.00408389,-0.00432562,-0.00451909,-0.0038359,-0.00273255,-0.00107457,0.00193309,0.00738293,0.0169547,0.0385298,0.0391717,0.0391717,0.0389942,0.0386287,0.0380519,0.0279263,0.0162656,0.0139235,0.0104668,0.00263076,0.00302024,0.00330542,0.00350919,0.00364602,0.00372492,0.0037507,-0.00370644,-0.00372831,-0.0037952,-0.0039112,-0.00408389,-0.00432562,-0.00465583,-0.00421578,-0.00312852,-0.00164642,0.0012045,0.00597391,0.0144345,0.0334732,0.0340454,0.0340454,0.0338829,0.0335483,0.0312958,0.0258481,0.0154632,0.012164,0.00900776,0.00263076,0.00302024,0.00330542,0.00350919,0.00364602,0.00372492,0.0037507,-0.00370644,-0.00372831,-0.0037952,-0.0039112,-0.00408389,-0.00432562,-0.00465583,-0.00458524,-0.00364656,-0.00232126,-0.000196137,0.003352,0.0101051,0.0252214,0.0256898,0.0256898,0.025546,0.0252495,0.0219035,0.0188263,0.0125399,0.0114646,0.00258716,0.00263076,0.00302024,0.00330542,0.00350919,0.00364602,0.00372492,0.0037507,-0.00370644,-0.00372831,-0.0037952,-0.0039112,-0.00408389,-0.00432562,-0.00465583,-0.00495612,-0.00429221,-0.00313292,-0.00145151,0.00151095,0.00758753,0.0212929,0.0217343,0.0217343,0.0215865,0.0212819,0.0170334,0.0123676,0.010081,0.00524275,0.00161319,0.00263076,0.00302024,0.00330542,0.00350919,0.00364602,0.00372492,0.0037507,-0.00370644,-0.00372831,-0.0037952,-0.0039112,-0.00408389,-0.00432562,-0.00465583,-0.00510208,-0.00503625,-0.00401747,-0.00263361,-4.37015e-05,0.00582456,0.0189808,0.01942,0.01942,0.0192618,0.0189363,0.0132408,0.00848843,0.00763613,0.0031307,0.000960632,0.00263076,0.00302024,0.00330542,0.00350919,0.00364602,0.00372492,0.0037507,-0.00370644,-0.00372831,-0.0037952,-0.0039112,-0.00408389,-0.00432562,-0.00465583,-0.00508526,-0.00553394,-0.00499956,-0.00386809,-0.00163052,0.00404901,0.0165102,0.0169416,0.0169416,0.0167758,0.0164339,0.00814739,0.00495269,0.0015793,-0.00177722,0.00067377,0.00263076,0.00302024,0.00330542,0.00350919,0.00364602,0.00372492,0.0037507,-0.00370644,-0.00372831,-0.0037952,-0.0039112,-0.00408389,-0.00432562,-0.00465583,-0.00506263,-0.00549289,-0.00572455,-0.00503336,-0.0030182,0.00187939,0.012534,0.0129195,0.0129195,0.0127602,0.0124319,0.00281453,0.0016737,-0.00331131,-0.00208848,0.00121823,0.00263076,0.00302024,0.00330542,0.00350919,0.00364602,0.00372492,0.0037507,-0.00370644,-0.00372831,-0.0037952,-0.0039112,-0.00408389,-0.00432562,-0.00465583,-0.00503408,-0.00542638,-0.00578106,-0.00583059,-0.00406206,-2.62536e-05,0.00866458,0.00899549,0.00899549,0.00884828,0.00854492,0.00849956,-0.0026439,-0.00269286,-0.00169963,0.0014701,0.00263076,0.00302024,0.00330542,0.00350919,0.00364602,0.00372492,0.0037507,-0.00370644,-0.00372831,-0.0037952,-0.0039112,-0.00408389,-0.00432562,-0.00465171,-0.00501329,-0.00536756,-0.0056815,-0.00583106,-0.00417235,-0.000688178,0.00677705,0.00706826,0.00706826,0.00693449,0.00665883,0.00654288,-0.00311596,-0.00236448,-0.00108177,0.00220555,0.00263076,0.00302024,0.00330542,0.00350919,0.00364602,0.00372492,0.0037507,-0.00370644,-0.00372831,-0.0037952,-0.0039112,-0.00408389,-0.00432562,-0.00464713,-0.00499657,-0.00532843,-0.00561215,-0.00570987,-0.00390711,-0.000489228,0.00684442,0.00712853,0.00712853,0.0069992,0.00673263,0.00664504,-0.00254106,-0.00224329,-0.00134288,0.00249838,0.00263076,0.00302024,0.00330542,0.00350919,0.00364602,0.00372492,0.0037507,-0.00370644,-0.00372831,-0.0037952,-0.0039112,-0.00408389,-0.00432562,-0.00464491,-0.00498738,-0.0053068,-0.00557361,-0.00563965,-0.00442094,-0.00789677,-0.0158299,-0.0160483,-0.0160483,-0.0160014,-0.015905,0.00699709,-0.00221083,-0.00179698,-0.00073031,0.00159633,0.00263076,0.00302024,0.00330542,0.00350919,0.00364602,0.00372492,0.0037507,-0.00370644,-0.00372831,-0.0037952,-0.0039112,-0.00408389,-0.00432562,-0.00464491,-0.00498676,-0.00530328,-0.00556817,-0.00562817,-0.00438247,-0.00414864,-0.00387976,-0.00382571,-0.00382571,-0.00387612,-0.00397991,0.00720857,-0.00201296,-0.00144219,-0.000337841,0.00159615,0.00263076,0.00302024,0.00330542,0.00350919,0.00364602,0.00372492,0.0037507,-0.00370644,-0.00372831,-0.0037952,-0.0039112,-0.00408389,-0.00432562,-0.00464713,-0.00499411,-0.00531774,-0.00559236,-0.00567026,-0.00549991,-0.00978413,-0.0195649,-0.0198337,-0.0198337,-0.0197765,-0.0196586,0.00756636,-0.00179282,-0.00122264,0.000152997,0.00141006,0.00263076,0.00302024,0.00330542,0.00350919,0.00364602,0.00372492,0.0037507,-0.00370644,-0.00372831,-0.0037952,-0.0039112,-0.00408389,-0.00432562,-0.00465171,-0.00500988,-0.0053497,-0.00564515,-0.00575925,-0.00465708,-0.00303567,0.000284886,0.000443239,0.000443239,0.00035357,0.000168806,0.00767055,-0.00162842,-0.00058515,0.000421513,0.00140456,0.00263076,0.00302024,0.00330542,0.00350919,0.00364602,0.00372492,0.0037507,-0.00370644,-0.00372831,-0.0037952,-0.0039112,-0.00408389,-0.00432562,-0.00465583,-0.00503393,-0.00540062,-0.00573138,-0.00605773,-0.00850903,-0.0143735,-0.0278173,-0.0281771,-0.0281771,-0.0281086,-0.0279676,-0.0199777,-0.001345,-0.000571916,0.000625367,0.00240953,0.00263076,0.00302024,0.00330542,0.00350919,0.00364602,0.00372492,0.0037507,-0.00370644,-0.00372831,-0.0037952,-0.0039112,-0.00408389,-0.00432562,-0.00465583,-0.00506452,-0.00545955,-0.00584293,-0.00647981,-0.0106783,-0.0183278,-0.0358396,-0.0363124,-0.0363124,-0.0362189,-0.0360262,-0.0425375,-0.00100048,-0.000108518,0.000900237,0.00240046,0.00263076,0.00302024,0.00330542,0.00350919,0.00364602,0.00372492,0.0037507,-0.00370644,-0.00372831,-0.0037952,-0.0039112,-0.00408389,-0.00432562,-0.00465583,-0.00508288,-0.00553454,-0.0059826,-0.00793827,-0.0137422,-0.0228511,-0.0437619,-0.0443166,-0.0443166,-0.0442156,-0.0440075,-0.0478839,-0.0136001,5.66433e-05,0.00113314,0.00210046,0.00263076,0.00302024,0.00330542,0.00350919,0.00364602,0.00372492,0.0037507,-0.00370644,-0.00372831,-0.0037952,-0.0039112,-0.00408389,-0.00432562,-0.00465583,-0.00510208,-0.00561391,-0.00613572,-0.00735978,-0.0113751,-0.0162543,-0.027514,-0.0277708,-0.0277708,-0.02776,-0.0277379,-0.0310885,-0.00721567,-8.66855e-05,0.000695555,0.00210046,0.00263076,0.00302024,0.00330542,0.00350919,0.00364602,0.00372492,0.0037507,-0.00370644,-0.00372831,-0.0037952,-0.0039112,-0.00408389,-0.00432562,-0.00465583,-0.00510534,-0.00568258,-0.00629351,-0.00758333,-0.00962769,-0.0110988,-0.0144871,-0.0144989,-0.0144989,-0.0145644,-0.0146989,-0.0169364,-0.00162128,-2.26009e-05,0.000311816,0.00210046,0.00263076,0.00302024,0.00330542,0.00350919,0.00364602,0.00372492,0.0037507,-0.00370644,-0.00372831,-0.0037952,-0.0039112,-0.00408389,-0.00432562,-0.00465583,-0.00510534,-0.00572239,-0.00645176,-0.0072271,-0.00730644,-0.00541986,-0.001397,-0.00118679,-0.00118679,-0.00131466,-0.00157816,-0.00217655,-0.00230326,-0.000531195,0.00136916,0.00210046,0.00263076,0.00302024,0.00330542,0.00350919,0.00364602,0.00372492,0.0037507,-0.00370644,-0.00372831,-0.0037952,-0.0039112,-0.00408389,-0.00432562,-0.00465583,-0.00510534,-0.00572528,-0.00656832,-0.00746209,-0.0075472,-0.00531049,-0.000743833,-0.000514106,-0.000514106,-0.000649991,-0.000929932,-0.00222776,-0.00293536,-0.000858411,0.00136916,0.00210046,0.00263076,0.00302024,0.00330542,0.00350919,0.00364602,0.00372492,0.0037507,-0.00370644,-0.00372831,-0.0037952,-0.0039112,-0.00408389,-0.00432562,-0.00465583,-0.00510534,-0.00572528,-0.00660473,-0.00757402,-0.00728011,-0.00637234,-0.00494178,-0.00482015,-0.00482015,-0.0049147,-0.00510959,-0.000204313,-0.000968161,1.41408e-06,0.00127574,0.00210046,0.00263076,0.00302024,0.00330542,0.00350919,0.00364602,0.00372492,0.0037507,-0.00370644,-0.00372831,-0.0037952,-0.0039112,-0.00408389,-0.00432562,-0.00465583,-0.00510534,-0.00572528,-0.00660473,-0.00737799,-0.00646975,-0.00628956,-0.00714692,-0.00711322,-0.00711322,-0.0071682,-0.00728159,0.00198144,0.00233781,1.41408e-06,0.00127574,0.00210046,0.00263076,0.00302024,0.00330542,0.00350919,0.00364602,0.00372492,0.0037507,-0.00370644,-0.00372831,-0.0037952,-0.0039112,-0.00408389,-0.00432562,-0.00465583,-0.00510534,-0.00572528,-0.00660473,-0.00712924,-0.00553205,-0.0061847,-0.00888255,-0.00891993,-0.00891993,-0.00894264,-0.00898943,0.00998809,0.00392852,-0.000152499,0.00118368,0.00210046,0.00263076,0.00302024,0.00330542,0.00350919,0.00364602,0.00372492,0.0037507,-0.00370644,-0.00372831,-0.0037952,-0.0039112,-0.00408389,-0.00432562,-0.00465583,-0.00510534,-0.00572528,-0.00660164,-0.00698133,-0.0049872,-0.00841524,-0.0198721,-0.0202193,-0.0202193,-0.0201185,-0.0199111,0.0109092,0.00569671,-0.000152499,0.00118368,0.00210046,0.00263076,0.00302024,0.00330542,0.00350919,0.00364602,0.00372492,0.0037507,-0.00370644,-0.00372831,-0.0037952,-0.0039112,-0.00408389,-0.00432562,-0.00465583,-0.00510534,-0.00572528,-0.00656606,-0.00688457,-0.00464599,-0.00362459,-0.00374357,-0.00370984,-0.00370984,-0.0037479,-0.00382629,0.0109423,0.00601625,-0.000152499,0.00118368,0.00210046,0.00263076,0.00302024,0.00330542,0.00350919,0.00364602,0.00372492,0.0037507,]